tree
version=v4
num_class=1
num_tree_per_iteration=1
label_index=0
max_feature_idx=84
objective=regression
feature_names=return_1 return_2 return_5 return_10 log_return_1 log_return_5 momentum_5 momentum_10 momentum_20 acceleration_5 hl_range hl_range_pct oc_range oc_range_pct body_to_range gap gap_pct ema_5 price_to_ema_5 ema_10 price_to_ema_10 ema_20 price_to_ema_20 ema_50 price_to_ema_50 macd macd_signal macd_histogram rsi_7 rsi_14 rsi_21 stoch_k stoch_d bb_upper bb_middle bb_lower bb_width bb_position atr atr_pct volume_ma_20 volume_ratio close_mean_5 close_std_5 close_zscore_5 close_min_5 close_max_5 position_in_range_5 return_volatility_5 close_mean_10 close_std_10 close_zscore_10 close_min_10 close_max_10 position_in_range_10 return_volatility_10 close_mean_20 close_std_20 close_zscore_20 close_min_20 close_max_20 position_in_range_20 return_volatility_20 close_mean_50 close_std_50 close_zscore_50 close_min_50 close_max_50 position_in_range_50 return_volatility_50 trend_short trend_medium trend_long is_bullish upper_shadow_ratio lower_shadow_ratio consecutive_up volume_increasing hour minute day_of_week hour_sin hour_cos day_sin day_cos
feature_infos=[-0.042898035826407055:0.022814763863634901] [-0.039130022954740995:0.026932995863374387] [-0.073381578862939834:0.040815670958649353] [-0.091423178590933962:0.045013575911954984] [-0.043845347568827631:0.022558399082019627] [-0.076213425842074245:0.040004704750242336] [-8234.1000000000058:4243.820000000007] [-10462.240000000005:4811.570000000007] [-10291.560000000012:7424.4500000000116] [-6005.9600000000064:12477.920000000013] [0.0099999999947613105:6923] [8.1068278823654769e-08:0.063972083296217258] [-4846.7400000000052:2354.3500000000058] [-0.044538236753597665:0.022548705241631842] [0:0.99999999999985223] [-128.11000000000058:186.49000000000524] [-0.0012019849875255762:0.0017166578405164688] [103831.30626190557:123553.54122796666] [-0.035068233187035086:0.011322678722908415] [103970.45627859779:123520.31582223804] [-0.052595259348373648:0.017267354824861334] [104131.64026620396:123477.28097179774] [-0.06937942633683275:0.019260540566467435] [104401.56543456174:123367.50033293413] [-0.087716417634664492:0.016813450739241079] [-2483.5694293721608:722.75712907184788] [-2063.8430717678721:674.40501270383584] [-922.56036046931968:749.73527648605932] [0.32406118461689459:99.736820546660056] [2.7401348802357006:98.33504619825149] [6.5841090349665308:96.193862745067563] [0:100] [0:100] [104455.06633703967:123791.26582375253] [104049.9135:123509.9335] [102808.90735485061:123360.30318045212] [0.034334875048076821:13.491595817238561] [-0.5052449478812634:1.4693968301602649] [3.4958642316960065:3362.9966090461462] [3.1406633702459516e-05:0.031075819615599635] [0.69999999999999996:704.39999999999998] [0:14.75490196074815] [103783.07800000001:123600.626] [0:2601.803917426008] [-1.788854379953329:1.7888543280602669] [103647.85000000001:123512.25999999999] [103909:123705.67999999999] [0:0.99999999999997391] [4.0176442049083816e-08:0.024550194725286967] [103897.713:123529.901] [2.6716062344382014:3420.0456784429607] [-2.8198731751858399:2.8011721896850985] [103647.85000000001:123445.00999999999] [104119.3:123705.67999999999] [0:0.99999999999998046] [3.9255202843928228e-05:0.018004993193268842] [104049.9135:123509.9335] [9.5704209247094845:3744.5819293588161] [-4.0209797915229322:3.8775873206394715] [103647.85000000001:123359.92999999999] [104373.52:123705.67999999999] [0:0.99999999999998701] [7.9332718772559814e-05:0.013637569035058033] [104338.29179999999:123445.3532] [24.576115891150877:3878.463253029322] [-5.7910160732253448:5.0325982251906121] [103647.85000000001:123261.86] [104759.08:123705.67999999999] [0:0.99999999999997002] [0.00011386579878953196:0.0093895352301931016] [-1:1] [-1:1] [-1:1] [0:1] [0:0.99999999999892419] [0:0.99999999999782274] [0:14] [0:1] [0:23] [0:59] [0:6] [-1:1] [-1:1] [-0.97492791218182362:0.97492791218182362] [-0.90096886790241903:1]
tree_sizes=2811 2885 2868 2869 2874 2860 2870 2875 2873 2878 2890 2887 2882 2874 2870 2856 2892 2886 2873 2876 2869 2901 2860 2898 2889 2894 2883 2881 2900 2893 2909 2912 2912 2913 2911 2900 2884 2897 2905 2918 2901 2933 2935 2896 2925 2910 2942 2946 2928 2941 2900 2954 2897 2930 2924 2913 2933 2918 2903 2901 2846 2905 2868 2890 2870 2866 2864 2841 2862 2836 2845 2821 2816 2822 2834 2825 2780 2807 2816 2807 2818 2791 2793 2796 2808 2817 2808 2793 2776 2788 2776 2802 2746 2784 2784 2808 2800 2795 2792 2786 2777 2772 2757 2794 2774 2791 2782 2778 2785 2776 2765 2765 2766 2790 2812 2795 2786 2762 2793 2794 2768 2796 2743 2785 2785 2681 2782 2779 2775 2773 2787 2763 2762 2755 2769 2778 2798 2787 2780 2803 2791 2784 2802 2795 2767 2087 2789 2581 2439 2776 1846 2337 1421 1585 1677 2746 2774 2281 2600 2270 2796 1764 2796 2767 2776 1683 1184 1686 1168 1510 2799 2784 1714 1687 2613 2109 1993 2110 1522 1996 2658 2264 2262 2078 2099

Tree=0
num_leaves=31
num_cat=0
split_feature=17 17 53 17 46 17 17 17 17 17 52 45 46 17 17 17 17 46 17 17 17 17 17 17 46 53 59 17 17 17
split_gain=2.33498e+11 5.86411e+10 2.91755e+10 7.86697e+09 4.88698e+09 1.68198e+09 1.15325e+09 8.69037e+08 7.67143e+08 7.41058e+08 6.8324e+08 4.2563e+08 3.03907e+08 2.52511e+08 1.50096e+08 1.46231e+08 1.21591e+08 1.123e+08 1.12068e+08 8.9159e+07 7.62625e+07 6.11731e+07 6.10908e+07 5.92824e+07 4.9701e+07 4.62122e+07 4.40684e+07 3.41429e+07 2.35742e+07 2.12467e+07
threshold=114640.51038156306 109636.24048341527 118469.75000000001 112075.54154172515 107594.16000000002 111003.79901644605 113325.29392871931 108530.44924861957 106205.4739063507 121860.08046013331 115739.99500000001 120427.91500000001 110581.58 111496.23473633312 122652.78488667162 112615.31344570813 113877.57666568643 109166.84500000002 108049.68913421877 106889.20365158905 121306.10228885428 115206.357077126 105249.4458113507 110152.96808066762 111870.58500000001 119727.75000000001 117235.35000000002 111237.69274064987 110770.08151469925 112964.83843242108
decision_type=2 2 2 2 2 2 2 2 2 2 2 2 2 2 2 2 2 2 2 2 2 2 2 2 2 2 2 2 2 2
left_child=1 4 10 5 8 12 15 18 22 11 21 25 23 27 -11 -5 -8 -9 -6 -10 -13 -2 -1 -3 -15 -4 -12 -7 -14 -17
right_child=2 3 9 6 7 13 16 17 19 14 26 20 28 24 -16 29 -18 -19 -20 -21 -22 -23 -24 -25 -26 -27 -28 -29 -30 -31
leaf_value=111282.12520559203 111785.68954979262 111534.73880645611 111988.84977882345 111655.06374962862 111429.68323339472 111593.28162232581 111715.45461126865 111478.35888447451 111371.40944562919 112142.3688829392 111876.04063833973 112089.72288714278 111570.19435400826 111618.34133532617 112192.73087763858 111677.82414018374 111754.60402600285 111506.52324882332 111451.21128637328 111391.52139456104 112114.91321899169 111809.29710990074 111322.46186667481 111555.41469355951 111634.73836199427 112046.01250287656 111924.72705751266 111605.38779860575 111581.84967293016 111695.20765424374
leaf_weight=155 559 626 79 868 1176 1083 308 913 1014 391 91 483 722 1438 238 390 557 578 1244 1207 795 539 238 777 681 64 95 1260 1087 320
leaf_count=155 559 626 79 868 1176 1083 308 913 1014 391 91 483 722 1438 238 390 557 578 1244 1207 795 539 238 777 681 64 95 1260 1087 320
internal_value=111617 111541 111999 111616 111424 111591 111694 111459 111371 112116 111812 112096 111564 111611 112161 111669 111741 111489 111441 111382 112105 111797 111307 111546 111624 112014 111901 111600 111577 111686
internal_weight=19976 16642 3334 10117 6525 7674 2443 3911 2614 2050 1284 1421 3212 4462 629 1578 865 1491 2420 2221 1278 1098 393 1403 2119 143 186 2343 1809 710
internal_count=19976 16642 3334 10117 6525 7674 2443 3911 2614 2050 1284 1421 3212 4462 629 1578 865 1491 2420 2221 1278 1098 393 1403 2119 143 186 2343 1809 710
is_linear=0
shrinkage=1


Tree=1
num_leaves=31
num_cat=0
split_feature=17 17 53 17 46 17 17 46 17 17 52 45 46 17 53 17 46 17 17 17 17 17 17 17 53 17 21 17 17 46
split_gain=2.10734e+11 5.21256e+10 2.77269e+10 6.60795e+09 4.41385e+09 1.5188e+09 9.11493e+08 7.47819e+08 7.17618e+08 6.70449e+08 6.45441e+08 3.52362e+08 2.6232e+08 2.39811e+08 1.85234e+08 1.21409e+08 1.07842e+08 1.05891e+08 1.01149e+08 8.38781e+07 7.178e+07 5.51344e+07 5.31227e+07 4.64958e+07 4.17065e+07 4.04611e+07 3.99337e+07 3.94894e+07 3.06757e+07 2.53577e+07
threshold=114565.33934753985 109636.24048341527 118469.75000000001 112075.54154172515 107656.12000000001 110963.36371507178 113221.02025484004 108677.21000000001 106205.4739063507 121717.85418053903 115739.99500000001 120427.91500000001 111529.79000000002 110365.85277568705 122553.94000000002 113877.57666568643 108200.00000000001 112554.17751530478 107006.12472602398 109125.25657004963 115143.67735047825 105249.4458113507 121202.75467776551 111759.24898617739 119727.75000000001 110677.38971613238 117418.81131529296 111204.26841875973 106680.28783931416 110094.37000000001
decision_type=2 2 2 2 2 2 2 2 2 2 2 2 2 2 2 2 2 2 2 2 2 2 2 2 2 2 2 2 2 2
left_child=1 4 10 5 8 13 17 16 21 11 20 24 27 29 -11 -8 -6 -5 28 -9 -2 -1 -13 -14 -4 -15 -12 -7 -10 -3
right_child=2 3 9 6 7 12 15 19 18 14 26 22 23 25 -16 -17 -18 -19 -20 -21 -22 -23 -24 -25 -26 -27 -28 -29 -30 -31
leaf_value=-317.51710685483874 156.88711217661375 -80.308885206374455 353.87123590783227 35.496507974104446 -174.38018731111606 -23.882191410217985 91.696723379930276 -128.87973562471865 -241.26265229724706 493.56815633827682 247.89389495849611 444.57999459134618 1.1558602634447801 -50.232654452710861 544.55857407299436 129.22816162109376 -153.28630289380018 62.157775618443281 -207.99270892835176 -103.66481142148866 181.65661032192244 -279.19729147518382 468.6267955404893 16.407891862754774 408.17580566406252 -35.654673302691918 294.2534347873264 -11.323215267201206 -224.89928881715673 -64.394913059377416
leaf_weight=155 549 452 79 792 1352 1151 391 833 399 531 96 325 1381 801 268 480 1098 703 889 546 626 238 783 783 64 1173 90 1372 1015 561
leaf_count=155 549 452 79 792 1352 1151 391 833 399 531 96 325 1381 801 268 480 1098 703 889 546 626 238 783 783 64 1173 90 1372 1015 561
internal_value=0.858603 -72.8346 358.739 -1.33183 -182.856 -23.8552 71.7215 -148.349 -231.864 474.892 183.783 452.04 -6.09777 -51.7189 510.671 112.38 -164.927 48.0335 -221.208 -118.896 170.083 -294.311 461.573 6.6745 378.175 -41.5701 270.326 -17.0527 -229.517 -71.4957
internal_weight=19976 16565 3411 10040 6525 7674 2366 3829 2696 2050 1361 1251 4687 2987 799 871 2450 1495 2303 1379 1175 393 1108 2164 143 1974 186 2523 1414 1013
internal_count=19976 16565 3411 10040 6525 7674 2366 3829 2696 2050 1361 1251 4687 2987 799 871 2450 1495 2303 1379 1175 393 1108 2164 143 1974 186 2523 1414 1013
is_linear=0
shrinkage=0.05


Tree=2
num_leaves=31
num_cat=0
split_feature=46 42 66 46 19 46 42 42 42 45 52 52 46 46 45 42 46 46 46 45 46 42 42 42 46 42 59 42 46 42
split_gain=1.90189e+11 4.78197e+10 2.35952e+10 6.46002e+09 3.9955e+09 1.42404e+09 8.87322e+08 7.19518e+08 6.22175e+08 6.18957e+08 5.26534e+08 3.41743e+08 2.62231e+08 2.15684e+08 1.84991e+08 1.51563e+08 1.06538e+08 8.34631e+07 6.97179e+07 5.16128e+07 4.86581e+07 4.86021e+07 4.71116e+07 4.57686e+07 3.88234e+07 3.4996e+07 3.39472e+07 2.83664e+07 2.49398e+07 2.25913e+07
threshold=114712.61000000002 109643.51900000001 117737.04000000002 112211.80000000002 107502.32087609767 111079.53500000002 113482.74500000001 108579.49700000002 121651.89800000003 106087.48500000002 115739.99500000001 120173.01000000002 110581.58 111595.46000000001 122243.71500000001 112757.85200000001 108174.72000000002 109069.02500000001 106956.69000000002 121033.49000000001 105383.53500000002 115202.50200000001 110152.98900000002 114071.697 111870.58500000001 111289.18200000002 117235.35000000002 119297.38300000002 107887.25500000002 110823.87000000001
decision_type=2 2 2 2 2 2 2 2 2 2 2 2 2 2 2 2 2 2 2 2 2 2 2 2 2 2 2 2 2 2
left_child=1 4 10 5 9 12 15 16 11 20 21 27 22 25 -10 -5 28 -9 -11 -13 -1 -2 -3 -8 -15 -7 -12 -4 -6 -14
right_child=2 3 8 6 7 13 23 17 14 18 26 19 29 24 -16 -17 -18 -19 -20 -21 -22 -23 -24 -25 -26 -27 -28 -29 -30 -31
leaf_value=-301.3679188333499 153.0320398237225 -73.648559190676764 331.15013535897947 38.890476288334014 -176.29046976807629 -19.456225766596688 100.62875659548004 -126.18755101772702 466.21161321004229 -220.35265364437362 234.30784737723218 416.73195935346951 -40.284141910051261 2.99548507567718 514.84628345386398 69.592345863816433 -146.63518954384861 -101.85706176156167 -202.55763459403033 442.59094983168592 -265.38652406350161 174.14945704755624 -55.211080548699002 127.63992961536754 17.385478501155248 -7.6705364815644534 277.73809471558991 379.88503977457685 -162.26390269007618 -29.35900165659859
leaf_weight=157 551 624 79 930 494 1221 232 669 576 1115 91 254 958 1170 296 708 1141 745 1087 803 234 539 779 484 782 1301 89 48 884 935
leaf_count=157 551 624 79 930 494 1221 232 669 576 1115 91 254 958 1170 296 708 1141 745 1087 803 234 539 779 484 782 1301 89 48 884 935
internal_value=0.815672 -68.1389 346.003 -0.10679 -173.679 -22.0906 72.4567 -141.913 450.67 -221.862 176.557 427.066 -47.0294 -3.71821 482.721 52.1609 -157.936 -113.368 -211.568 436.377 -279.834 163.475 -63.4114 118.888 8.76033 -13.3765 255.782 349.57 -167.292 -34.8879
internal_weight=19976 16650 3326 10124 6526 7770 2354 3933 2056 2593 1270 1184 3296 4474 872 1638 2519 1414 2202 1057 391 1090 1403 716 1952 2522 180 127 1378 1893
internal_count=19976 16650 3326 10124 6526 7770 2354 3933 2056 2593 1270 1184 3296 4474 872 1638 2519 1414 2202 1057 391 1090 1403 716 1952 2522 180 127 1378 1893
is_linear=0
shrinkage=0.05


Tree=3
num_leaves=31
num_cat=0
split_feature=17 17 53 17 46 17 17 17 42 45 45 45 46 17 17 45 46 17 17 17 17 17 17 46 17 53 46 17 66 17
split_gain=1.71683e+11 4.37429e+10 2.03026e+10 6.19761e+09 3.60178e+09 1.31871e+09 8.58633e+08 6.7124e+08 5.52404e+08 5.4338e+08 4.7939e+08 3.12491e+08 2.34055e+08 2.0848e+08 1.25758e+08 1.12461e+08 9.37651e+07 8.64399e+07 5.83678e+07 5.72972e+07 5.02445e+07 4.46989e+07 4.29892e+07 3.98259e+07 3.85789e+07 3.3643e+07 3.35175e+07 2.39135e+07 2.32729e+07 1.9255e+07
threshold=114744.6067617894 109636.24048341527 118469.75000000001 112180.54991419335 107459.31500000002 111019.70732204444 113476.06374009537 108496.87170896617 121857.618 106087.48500000002 116282.68500000001 120427.91500000001 110544.75500000002 111562.38031608869 112807.4986953308 122667.89000000001 109069.02500000001 108001.11444194525 121353.35600582634 106792.69800149057 114220.42433686547 105515.72636274112 115309.76075143796 111937.09500000002 110152.96808066762 119727.75000000001 111361.88000000002 110770.08151469925 117379.60500000001 112447.63148140813
decision_type=2 2 2 2 2 2 2 2 2 2 2 2 2 2 2 2 2 2 2 2 2 2 2 2 2 2 2 2 2 2
left_child=1 4 10 5 9 12 14 17 11 21 22 25 24 26 29 -10 -9 -6 -13 -11 -8 -1 -2 -15 -3 -4 -7 -14 -12 -5
right_child=2 3 8 6 7 13 20 16 15 19 28 18 27 23 -16 -17 -18 -19 -20 -21 -22 -23 -24 -25 -26 -27 -28 -29 -30 -31
leaf_value=-279.39719525505438 149.62204215696352 -70.060853417460649 319.40424773783627 31.912161762438327 -162.30928539209569 -18.01501937866211 99.110802234468011 -121.52679461332919 452.15628656154723 -214.44939761799611 229.91205997242648 407.20577239721121 -40.442911488046164 3.9026415646404731 67.892815904145806 496.53583917487163 -96.976975710674012 -143.34968001114098 428.71356350540611 -196.4888455353186 124.91823408410906 -244.75762420853758 170.57773456089387 18.853756469331749 -52.918874184428788 368.17754173278809 -6.6395892997903463 -29.247058838041639 267.02191452752976 46.186704711914068
leaf_weight=238 646 626 79 475 1089 1330 315 815 410 628 85 567 809 1270 627 219 744 1342 711 1516 470 153 394 686 690 64 1262 1162 84 470
leaf_count=238 646 626 79 475 1089 1330 315 815 410 628 85 567 809 1270 627 219 744 1342 711 1516 470 153 394 686 690 64 1262 1162 84 470
internal_value=0.77489 -63.9456 332.758 0.769395 -165.03 -20.6158 71.8567 -135.42 428.596 -211.635 170.253 411.328 -44.7446 -3.17702 50.5311 467.608 -109.811 -151.843 419.171 -201.75 114.562 -265.843 157.561 9.14623 -61.073 341.233 -12.4765 -33.8424 248.357 39.0117
internal_weight=19976 16717 3259 10192 6525 7835 2357 3990 2050 2535 1209 1421 3287 4548 1572 629 1559 2431 1278 2144 785 391 1040 1956 1316 143 2592 1971 169 945
internal_count=19976 16717 3259 10192 6525 7835 2357 3990 2050 2535 1209 1421 3287 4548 1572 629 1559 2431 1278 2144 785 391 1040 1956 1316 143 2592 1971 169 945
is_linear=0
shrinkage=0.05


Tree=4
num_leaves=31
num_cat=0
split_feature=17 17 53 17 19 17 17 45 52 17 45 17 17 17 45 17 17 17 17 17 17 17 17 53 66 17 17 17 17 17
split_gain=1.54957e+11 3.71596e+10 2.23845e+10 4.26545e+09 3.13563e+09 1.06441e+09 6.1391e+08 5.21624e+08 5.16202e+08 5.0254e+08 4.99132e+08 2.87069e+08 1.7738e+08 1.69895e+08 9.43775e+07 8.4958e+07 8.42593e+07 8.18845e+07 7.87515e+07 7.2737e+07 5.52861e+07 5.41482e+07 4.1709e+07 3.44022e+07 2.92098e+07 2.60931e+07 2.45703e+07 2.41417e+07 2.26669e+07 2.22436e+07
threshold=114412.82051664151 109562.1922996144 118469.75000000001 111954.72247078402 107584.45901572196 110890.0532421989 113036.39838841416 106087.48500000002 115739.99500000001 108458.68362161933 121853.52000000002 120522.00619524394 111387.32759420728 110331.14477704691 122667.89000000001 113655.48683625602 115012.3058180118 112418.58951052165 108918.69255299804 106974.62856411286 108025.41690376536 121409.85119522472 104937.41369547216 119727.75000000001 117379.60500000001 111661.1270946311 110609.83204828319 111120.39138827154 106629.25044191426 109914.31000228834
decision_type=2 2 2 2 2 2 2 2 2 2 2 2 2 2 2 2 2 2 2 2 2 2 2 2 2 2 2 2 2 2
left_child=1 4 8 5 7 13 17 22 16 20 11 23 27 29 -12 -8 -2 -5 -11 28 -6 -13 -1 -4 -10 -14 -15 -7 -9 -3
right_child=2 3 10 6 9 12 15 19 24 18 14 21 25 26 -16 -17 -18 -19 -20 -21 -22 -23 -24 -25 -26 -27 -28 -29 -30 -31
leaf_value=-286.63428871468324 127.8965380725965 -74.630127947112371 303.43403289408627 23.998572849982686 -152.11475695954402 -23.465155003351978 72.067971251805631 -209.18425270008817 213.85541848575369 -117.9636958996455 430.49891845703127 388.435099657276 -2.4456954351481577 -44.993401875277669 471.7090325342466 103.33279437394226 153.45169259385989 46.29711730799724 -95.44362206914623 -179.42865391968419 -136.30194585108777 408.85929436404848 -244.72617778658119 351.04530648009421 253.67081763857888 8.5538934425315922 -32.949136028326976 -13.258852379557574 -193.90633874127246 -58.654970159215942
leaf_weight=73 549 317 79 877 1033 1077 480 319 102 768 380 632 1499 721 219 397 782 776 785 945 1189 667 318 73 84 842 1026 1254 1016 697
leaf_count=73 549 317 79 877 1033 1077 480 319 102 768 380 632 1499 721 219 397 782 776 785 945 1189 667 318 73 84 842 1026 1254 1016 697
internal_value=0.736144 -64.1917 299.419 -3.66953 -157.735 -22.7564 52.4067 -199.194 153.814 -128.402 407.167 391.315 -8.21111 -47.3692 445.566 86.2209 142.911 34.4666 -106.58 -190.043 -143.653 398.922 -252.55 326.3 231.837 1.51059 -37.9199 -17.9745 -197.557 -63.6492
internal_weight=19976 16409 3567 9963 6446 7433 2530 2671 1517 3775 2050 1451 4672 2761 599 877 1331 1653 1553 2280 2222 1299 391 152 186 2341 1747 2331 1335 1014
internal_count=19976 16409 3567 9963 6446 7433 2530 2671 1517 3775 2050 1451 4672 2761 599 877 1331 1653 1553 2280 2222 1299 391 152 186 2341 1747 2331 1335 1014
is_linear=0
shrinkage=0.05


Tree=5
num_leaves=31
num_cat=0
split_feature=46 17 53 17 46 46 46 17 17 17 46 42 46 17 17 17 46 17 17 17 17 17 53 46 17 46 66 17 17 17
split_gain=1.3935e+11 3.38774e+10 1.98825e+10 3.87745e+09 2.90509e+09 9.33569e+08 5.93155e+08 4.93769e+08 4.66463e+08 4.60532e+08 4.55968e+08 2.61996e+08 1.52564e+08 1.51707e+08 9.23539e+07 8.4319e+07 7.89628e+07 7.57345e+07 7.49228e+07 6.95703e+07 5.40869e+07 5.15817e+07 3.42925e+07 2.87352e+07 2.61095e+07 2.18657e+07 2.11886e+07 2.01356e+07 1.9642e+07 1.93039e+07
threshold=114512.50000000001 109562.1922996144 118469.75000000001 111926.48903507261 107459.31500000002 110957.73500000002 113158.93500000001 108402.14083035701 121961.85088250476 105819.96194854555 116694.93500000001 120524.107 111428.05000000002 110296.92826055312 108918.69255299804 112418.58951052165 122781.175 113655.48683625602 115012.3058180118 106725.57449171809 107905.07886414193 121409.85119522472 119727.75000000001 105008.00000000001 110609.83204828319 111669.19000000002 117379.60500000001 107057.91292070539 111138.0464579949 115470.98663467944
decision_type=2 2 2 2 2 2 2 2 2 2 2 2 2 2 2 2 2 2 2 2 2 2 2 2 2 2 2 2 2 2
left_child=1 4 10 5 9 13 15 20 11 23 18 22 28 -3 -9 -5 -10 -8 -2 -11 -6 -13 -4 -1 -15 -14 -12 -21 -7 -20
right_child=2 3 8 6 7 12 17 14 16 19 26 21 25 24 -16 -17 -18 -19 29 27 -22 -23 -24 -25 -26 -27 -28 -29 -30 -31
leaf_value=-271.0141587846735 121.98501082510319 -61.280615830825553 286.04182096354168 21.990774461295167 -149.47179036772545 -21.93252138698573 68.787448955717537 -113.65382358028681 410.23899774639426 -198.2844920125041 205.85811026926791 369.20056066952753 -3.3130929575014125 -43.426150440499001 -90.601779615231024 44.112305403296915 448.42667762493267 98.329685642083874 141.25493779912725 -182.04084305496906 -133.0341455603392 388.99714263473737 333.69814774362663 -237.69326166724355 -31.292957621812821 6.5281337156895622 240.86952427455358 -170.51936374240452 -12.625666346890279 158.45585636287541
leaf_weight=89 530 944 75 943 777 1162 462 964 325 572 89 629 1331 782 791 793 232 409 555 1110 1406 690 76 237 1024 980 84 576 1107 231
leaf_count=89 530 944 75 943 777 1162 462 964 325 572 89 629 1331 782 791 793 232 409 555 1110 1406 690 76 237 1024 980 84 576 1107 231
internal_value=-0.458766 -61.4972 285.273 -3.38246 -150.042 -22.0091 48.9893 -123.01 387.179 -191.237 146.546 372.415 -8.18217 -45.0371 -103.264 32.0958 426.145 82.6598 136.514 -183.217 -138.885 379.557 310.028 -246.79 -36.5466 0.860166 222.858 -178.105 -17.3919 146.31
internal_weight=19975 16459 3516 9937 6522 7330 2607 3938 2027 2584 1489 1470 4580 2750 1755 1736 557 871 1316 2258 2183 1319 151 326 1806 2311 173 1686 2269 786
internal_count=19975 16459 3516 9937 6522 7330 2607 3938 2027 2584 1489 1470 4580 2750 1755 1736 557 871 1316 2258 2183 1319 151 326 1806 2311 173 1686 2269 786
is_linear=0
shrinkage=0.05


Tree=6
num_leaves=31
num_cat=0
split_feature=17 17 53 17 46 46 17 17 42 17 17 52 46 17 49 46 17 17 17 46 17 53 46 17 46 17 17 66 46 17
split_gain=1.25767e+11 3.09598e+10 1.72812e+10 3.79123e+09 2.52265e+09 9.29264e+08 5.78153e+08 4.23265e+08 4.16759e+08 4.02217e+08 3.98228e+08 2.20126e+08 1.70816e+08 1.37436e+08 1.02211e+08 8.0041e+07 7.44041e+07 7.36918e+07 5.87689e+07 4.5398e+07 4.44681e+07 4.4084e+07 4.03332e+07 2.52662e+07 2.502e+07 2.30099e+07 2.16342e+07 1.6529e+07 1.57443e+07 1.57315e+07
threshold=114502.55087185452 109507.62571883012 118469.75000000001 111954.72247078402 107459.31500000002 110900.28000000001 113114.86615550502 121777.53904484129 106199.55099999999 108376.5301823511 116512.1489549081 120642.17000000003 111414.49500000001 110201.25048459193 122662.46250000001 112617.55 108867.24734570137 113877.57666568643 115088.02698632896 106889.89000000001 107873.15284786378 119727.75000000001 105383.53500000002 121306.10228885428 111700.00500000002 110576.0796133805 111102.09502467159 117379.60500000001 109892.70500000002 115470.98663467944
decision_type=2 2 2 2 2 2 2 2 2 2 2 2 2 2 2 2 2 2 2 2 2 2 2 2 2 2 2 2 2 2
left_child=1 4 10 5 8 13 15 11 22 20 18 21 26 28 -9 -5 -11 -8 -2 -10 -6 -4 -1 -13 -14 -15 -7 -12 -3 -20
right_child=2 3 7 6 9 12 17 14 19 16 27 23 24 25 -16 -17 -18 -19 29 -21 -22 -23 -24 -25 -26 -27 -28 -29 -30 -31
leaf_value=-246.99287080310643 118.75247116921165 -70.989722763587693 271.73972135416665 23.554280293660874 -142.8676969199345 -22.319299033879279 68.981268891530064 384.99581518607647 -181.58121733101692 -109.43639494511679 197.36497199736448 349.99109306867734 -2.9201082155389111 -42.928454147249639 424.7513537548632 45.683464275422644 -88.694684785271662 98.167234211209461 135.25460652496858 -166.93559773443633 -127.42555466778893 320.76470533467955 -214.96706934417853 365.41553585701104 7.4992378176657652 -31.351985503017488 -12.88864002517019 228.82604282924109 -56.741559887747485 151.04281984482134
leaf_weight=168 550 290 75 1045 696 1247 478 461 905 958 83 430 1553 855 249 671 788 395 472 1274 1412 118 237 694 916 862 1187 84 585 237
leaf_count=168 550 290 75 1045 696 1247 478 461 905 958 83 430 1553 855 249 671 788 395 472 1274 1412 118 237 694 916 862 1187 84 585 237
internal_value=-0.435829 -57.7915 274.001 -3.10291 -143.452 -21.1216 49.0602 367.82 -181.675 -117.824 140.641 351.044 -8.32074 -45.3357 398.938 32.2074 -100.075 82.1868 131.018 -173.018 -132.524 301.714 -228.252 359.515 0.945473 -37.1166 -17.7202 213.19 -61.4638 140.532
internal_weight=19975 16522 3453 10084 6438 7495 2589 2027 2584 3854 1426 1317 4903 2592 710 1716 1746 873 1259 2179 2108 193 405 1124 2469 1717 2434 167 875 709
internal_count=19975 16522 3453 10084 6438 7495 2589 2027 2584 3854 1426 1317 4903 2592 710 1716 1746 873 1259 2179 2108 193 405 1124 2469 1717 2434 167 875 709
is_linear=0
shrinkage=0.05


Tree=7
num_leaves=31
num_cat=0
split_feature=17 17 53 17 46 46 46 17 46 17 17 52 17 46 46 17 46 46 59 17 53 17 17 17 17 17 17 17 17 67
split_gain=1.13519e+11 2.9242e+10 1.33263e+10 4.03514e+09 2.54426e+09 8.45897e+08 5.32119e+08 4.32256e+08 4.1812e+08 3.82558e+08 3.13637e+08 2.26617e+08 1.56877e+08 1.30223e+08 8.15011e+07 7.31451e+07 6.85251e+07 5.32719e+07 5.08094e+07 4.21699e+07 3.97858e+07 3.79781e+07 3.08896e+07 2.92234e+07 2.58577e+07 2.21192e+07 2.18997e+07 1.86156e+07 1.74377e+07 1.50279e+07
threshold=114744.6067617894 109750.64051708872 118469.75000000001 112233.72629763409 107711.50500000002 111135.99500000001 113654.56500000002 108685.48293858759 106307.62500000001 122016.14871832354 116512.1489549081 120642.17000000003 110516.49742276415 111669.19000000002 112938.67000000001 107057.91292070539 108292.205 109321.29000000001 122728.84000000001 121513.66615615098 119727.75000000001 105515.72636274112 114220.42433686547 115386.48161525191 111341.48184513261 106629.25044191426 110074.2655032763 110826.63015339944 111861.10842430922 117872.59000000001
decision_type=2 2 2 2 2 2 2 2 2 2 2 2 2 2 2 2 2 2 2 2 2 2 2 2 2 2 2 2 2 2
left_child=1 4 10 5 8 12 14 16 21 11 23 20 26 24 -5 25 -6 -9 -11 -13 -4 -1 -8 -2 -7 -10 -3 -14 -15 -12
right_child=2 3 9 6 7 13 22 17 15 18 29 19 27 28 -16 -17 -18 -19 -20 -21 -22 -23 -24 -25 -26 -27 -28 -29 -30 -31
leaf_value=-228.90849142927465 123.03528079772263 -56.561211936494232 258.15273404947919 32.894689077251869 -126.42501706394023 -13.295548095416946 81.122561912665063 -92.344939123751857 -179.77577884615386 375.06856672498918 188.65673719618056 336.47308831596638 -31.262594615156935 4.9210684844760637 56.514949243718924 -149.74821122969274 -109.50470621662755 -71.88164912953097 408.22284549060885 354.19848058130833 304.72646380925585 -197.9023416785038 101.75579253757462 141.28573333066345 -3.5291994612312494 -165.16001763493762 -43.156005284767105 -21.808415235711273 15.353679632135735 218.74596724076707
leaf_weight=246 712 468 75 897 1508 1233 297 845 325 288 90 737 930 820 616 818 992 510 193 616 118 165 466 317 1505 1272 873 1183 783 77
leaf_count=246 712 468 75 897 1508 1233 297 845 325 288 90 737 930 820 616 818 992 510 193 616 118 165 466 317 1505 1272 873 1183 783 77
internal_value=-0.414037 -52.6967 271.332 1.10856 -133.803 -15.9932 59.6799 -107.385 -169.841 349.429 138.973 337.313 -34.4584 -1.301 42.5114 -161.907 -119.711 -84.6429 388.372 344.543 286.628 -216.461 93.7242 128.658 -7.92727 -168.134 -47.8343 -25.9695 10.017 202.53
internal_weight=19975 16752 3223 10071 6681 7795 2276 3855 2826 2027 1196 1546 3454 4341 1513 2415 2500 1355 481 1353 193 411 763 1029 2738 1597 1341 2113 1603 167
internal_count=19975 16752 3223 10071 6681 7795 2276 3855 2826 2027 1196 1546 3454 4341 1513 2415 2500 1355 481 1353 193 411 763 1029 2738 1597 1341 2113 1603 167
is_linear=0
shrinkage=0.05


Tree=8
num_leaves=31
num_cat=0
split_feature=17 17 42 17 46 46 46 17 17 46 52 52 17 46 17 17 17 17 17 46 17 17 46 17 17 59 46 17 17 46
split_gain=1.02454e+11 2.48261e+10 1.4738e+10 2.86322e+09 2.05907e+09 7.0175e+08 4.67169e+08 3.64309e+08 3.41053e+08 3.28333e+08 2.98618e+08 1.91949e+08 1.21075e+08 1.17762e+08 1.06446e+08 7.05907e+07 5.8603e+07 5.58618e+07 5.27254e+07 5.23199e+07 4.3215e+07 2.82841e+07 2.33924e+07 2.0432e+07 1.89938e+07 1.7086e+07 1.66469e+07 1.5721e+07 1.48398e+07 1.25732e+07
threshold=114412.82051664151 109507.62571883012 118061.97000000002 111861.10842430922 107459.31500000002 110883.63000000002 113006.20500000002 121590.94208232709 105819.96194854555 108483.21500000001 115739.99500000001 120173.01000000002 111269.81227711399 122441.17500000002 110201.25048459193 113655.48683625602 112324.87582766807 115012.3058180118 108918.69255299804 106775.61000000002 107939.51244258125 121103.44906267246 105008.00000000001 111528.42045161423 119282.03958569486 117235.35000000002 110639.33500000001 123023.66850344228 107101.92685710028 109892.70500000002
decision_type=2 2 2 2 2 2 2 2 2 2 2 2 2 2 2 2 2 2 2 2 2 2 2 2 2 2 2 2 2 2
left_child=1 4 10 5 8 14 16 11 22 20 17 24 -7 -9 29 -8 -5 -2 -11 -10 -6 -13 -1 -14 -4 -12 -16 -15 -21 -3
right_child=2 3 7 6 9 12 15 13 19 18 25 21 23 27 26 -17 -18 -19 -20 28 -22 -23 -24 -25 -26 -27 -28 -29 -30 -31
leaf_value=-233.66838241748599 104.24563578548118 -63.991433126515361 240.40796106850232 15.934982585404521 -127.66215630473106 -17.652286400011189 56.501446429108228 341.87008679527054 -170.04893171639279 -97.144154331488011 170.66953346946025 305.46238612983063 -6.221917195960712 367.06118965984263 -38.73874386800847 83.774775867072904 34.263287661716696 125.1256703918378 -79.003153242788358 -155.36710071609389 -113.32316145726489 324.69887982333353 -203.60436800542263 2.6069105604316767 279.50740576171876 202.00772009561229 -28.666014405840116 389.85238997781067 -144.55499135454963 -51.258758758805754
leaf_weight=89 547 290 82 949 852 2108 601 633 580 924 88 262 1243 137 852 392 807 773 707 1253 1371 706 237 1386 50 86 791 169 425 585
leaf_count=89 547 290 82 949 852 2108 601 633 580 924 88 262 1243 137 852 392 807 773 707 1253 1371 706 237 1386 50 86 791 169 425 585
internal_value=-0.393335 -52.8845 243.892 -3.59716 -129.472 -20.0628 39.8581 331.306 -164.005 -106.318 124.589 311.779 -8.72529 354.181 -41.3916 67.268 24.3581 116.473 -89.2805 -157.103 -118.819 319.492 -211.812 -1.56739 255.218 186.159 -33.8894 379.648 -152.629 -55.4787
internal_weight=19975 16442 3533 10004 6438 7255 2749 2039 2584 3854 1494 1100 4737 939 2518 993 1756 1320 1631 2258 2223 968 326 2629 132 174 1643 306 1678 875
internal_count=19975 16442 3533 10004 6438 7255 2749 2039 2584 3854 1494 1100 4737 939 2518 993 1756 1320 1631 2258 2223 968 326 2629 132 174 1643 306 1678 875
is_linear=0
shrinkage=0.05


Tree=9
num_leaves=31
num_cat=0
split_feature=17 17 53 17 46 46 17 46 17 46 17 52 17 46 17 17 17 17 46 17 46 53 17 17 17 17 17 17 17 46
split_gain=9.24785e+10 2.38166e+10 1.08493e+10 3.28748e+09 2.07752e+09 6.70413e+08 4.60003e+08 3.53353e+08 3.36649e+08 3.15382e+08 2.55274e+08 1.59025e+08 1.27533e+08 9.67021e+07 7.9801e+07 7.08613e+07 5.923e+07 5.09453e+07 4.46589e+07 3.98093e+07 3.19245e+07 3.18338e+07 2.49222e+07 2.22689e+07 1.9581e+07 1.86077e+07 1.70502e+07 1.48879e+07 1.36925e+07 1.24936e+07
threshold=114744.6067617894 109750.64051708872 118469.75000000001 112180.54991419335 107754.30500000001 111135.99500000001 113404.1631548249 106307.62500000001 108685.48293858759 121794.64500000002 116512.1489549081 120642.17000000003 110458.29787511745 111619.70000000003 122652.78488667162 107122.87961675139 112685.24054645056 108216.81178812937 109246.43000000001 114064.69377053813 105008.00000000001 119727.75000000001 115386.48161525191 106680.28783931416 110808.37700367071 121202.75467776551 111815.7037785632 111341.48184513261 110074.2655032763 105648.79500000001
decision_type=2 2 2 2 2 2 2 2 2 2 2 2 2 2 2 2 2 2 2 2 2 2 2 2 2 2 2 2 2 2
left_child=1 4 10 5 7 12 16 20 17 11 22 21 28 27 -11 23 -5 -6 -10 -8 -1 -4 -2 -9 -14 -13 -15 -7 -3 -22
right_child=2 3 9 6 8 13 19 15 18 14 -12 25 24 26 -16 -17 -18 -19 -20 -21 29 -23 -24 -25 -26 -27 -28 -29 -30 -31
leaf_value=-221.98498137399054 110.97474495534148 -51.09539675264277 233.06830859375 26.824654044058555 -113.64038410703739 -11.905348678163397 67.570393739203027 -160.99946479222285 -84.325955784148974 329.66660537564974 182.81275780957617 296.4128618866755 -29.409326592212171 3.0136281719395739 364.3924622317395 -131.51024182713675 46.736225562852852 -98.936590920095369 -66.025138586920662 90.155147803090799 -198.063021774292 274.72850652145127 127.82867689644125 -147.6284474967994 -20.059492741854346 311.52308734703297 12.77687816473154 -4.0889148385529408 -40.100563320654707 -178.36492565767264
leaf_weight=89 712 468 75 802 1402 1230 303 398 763 493 167 271 1006 1048 249 668 699 1016 592 548 160 118 317 1431 1263 821 780 1207 717 162
leaf_count=89 712 468 75 802 1402 1230 303 398 763 493 167 271 1006 1048 249 668 699 1016 592 548 160 118 317 1431 1263 821 780 1207 717 162
internal_value=-0.373669 -47.563 244.9 0.994988 -120.76 -14.774 52.747 -152.519 -96.2817 315.365 125.473 300.379 -31.1481 -1.5134 341.32 -145.448 36.0973 -107.462 -76.3303 82.1138 -195.479 258.539 116.167 -150.538 -24.2049 307.773 7.17957 -8.03402 -44.4428 -188.153
internal_weight=19975 16752 3223 10071 6681 7719 2352 2908 3773 2027 1196 1285 3454 4265 742 2497 1501 2418 1355 851 411 193 1029 1829 2269 1092 1828 2437 1185 322
internal_count=19975 16752 3223 10071 6681 7719 2352 2908 3773 2027 1196 1285 3454 4265 742 2497 1501 2418 1355 851 411 193 1029 1829 2269 1092 1828 2437 1185 322
is_linear=0
shrinkage=0.05


Tree=10
num_leaves=31
num_cat=0
split_feature=17 17 53 17 19 17 17 17 42 45 45 52 17 17 17 53 17 17 17 17 17 17 17 17 17 17 17 42 17 17
split_gain=8.29213e+10 2.14555e+10 9.66237e+09 2.96594e+09 1.83467e+09 6.32354e+08 3.97319e+08 3.13203e+08 2.94462e+08 2.68415e+08 2.42719e+08 1.5172e+08 1.08956e+08 1.01541e+08 5.18424e+07 5.1199e+07 4.71535e+07 4.63394e+07 4.35402e+07 3.66894e+07 2.92902e+07 2.85782e+07 2.38138e+07 2.2842e+07 2.11415e+07 1.55002e+07 1.51405e+07 1.38195e+07 1.24879e+07 1.20017e+07
threshold=114744.6067617894 109750.64051708872 118469.75000000001 112233.72629763409 107648.46299615879 111048.5922873244 113404.1631548249 108633.11614671496 106199.55099999999 121853.52000000002 116282.68500000001 120642.17000000003 110458.29787511745 111562.38031608869 107006.12472602398 122984.51500000001 108150.72362868772 112807.4986953308 109279.53734705834 114064.69377053813 104937.41369547216 119282.03958569486 121475.20229815823 115309.76075143796 111815.7037785632 110727.48673106676 106582.26340259411 107252.15700000002 111269.81227711399 110152.96808066762
decision_type=2 2 2 2 2 2 2 2 2 2 2 2 2 2 2 2 2 2 2 2 2 2 2 2 2 2 2 2 2 2
left_child=1 4 10 5 8 12 17 16 20 11 23 21 29 28 26 -11 -6 -5 -9 -8 -1 -4 -13 -2 -15 -14 -10 -16 -7 -3
right_child=2 3 9 6 7 13 19 18 14 15 -12 22 25 24 27 -17 -18 -19 -20 -21 -22 -23 -24 -25 -26 -27 -28 -29 -30 -31
leaf_value=-213.21761891811707 104.40985796497125 -47.790384866903118 218.98010383374765 27.783994979552876 -109.48627244006303 -12.428383502622809 64.31526571869091 -79.682920293807982 -156.33942994148504 317.49054934731015 173.5972079502063 287.48142322534517 -29.621277538360289 2.4173096589338616 -134.37747733420002 348.8565233368235 -95.500627424428757 46.392923432346642 -60.904790605817531 85.743903410586725 -179.1019315552943 260.0651183047537 301.35082793874841 119.89025551478069 12.657840456767959 -20.542637503925107 -142.75683202775642 -121.68397919454692 -5.2001505282510685 -37.651022185549209
leaf_weight=79 628 546 66 874 1345 1037 314 960 248 395 178 661 691 1176 634 194 1092 542 455 549 309 118 582 384 882 1471 1188 324 1410 627
leaf_count=79 628 546 66 874 1345 1037 314 960 248 395 178 661 691 1176 634 194 1092 542 455 549 309 118 582 384 882 1471 1188 324 1410 627
internal_value=-0.234773 -44.8178 232.734 0.997711 -114.701 -13.597 51.2052 -92.3554 -145.642 299.424 119.754 287.703 -30.1011 -1.37924 -139.093 327.822 -103.219 34.9069 -73.6447 77.9472 -186.048 245.328 293.975 110.284 6.80611 -23.4443 -145.103 -130.084 -8.26336 -42.3706
internal_weight=19959 16753 3206 10119 6634 7840 2279 3852 2782 2016 1190 1427 3335 4505 2394 589 2437 1416 1415 863 388 184 1243 1012 2058 2162 1436 958 2447 1173
internal_count=19959 16753 3206 10119 6634 7840 2279 3852 2782 2016 1190 1427 3335 4505 2394 589 2437 1416 1415 863 388 184 1243 1012 2058 2162 1436 958 2447 1173
is_linear=0
shrinkage=0.05


Tree=11
num_leaves=31
num_cat=0
split_feature=17 17 60 17 46 17 17 45 17 46 17 17 46 46 17 17 17 17 17 46 17 42 17 17 78 17 17 17 17 17
split_gain=7.4842e+10 1.8759e+10 9.75991e+09 2.38469e+09 1.54356e+09 5.71018e+08 3.50199e+08 2.94258e+08 2.66501e+08 2.45452e+08 2.33202e+08 1.21673e+08 9.63095e+07 9.61691e+07 4.30338e+07 3.94563e+07 3.9178e+07 3.70007e+07 3.66569e+07 3.14086e+07 3.00969e+07 2.19117e+07 2.15476e+07 1.88232e+07 1.74788e+07 1.54722e+07 1.35174e+07 1.28823e+07 1.27428e+07 9.98492e+06
threshold=114565.33934753985 109562.1922996144 119223.65500000001 112042.75622354861 107459.31500000002 110945.15886867589 113221.02025484004 116282.68500000001 108458.68362161933 105920.89500000002 122100.73133912773 120858.56780539616 111495.38000000002 110428.01500000001 112554.17751530478 109031.80148858154 113877.57666568643 107959.9656856926 106761.40482434958 115224.31000000001 121551.43946509788 119297.38300000002 123023.66850344228 104937.41369547216 17.500000000000004 111716.44308450169 109955.85758933237 110704.24235966064 111185.65382818303 107031.44899787618
decision_type=2 2 2 2 2 2 2 2 2 2 2 2 2 2 2 2 2 2 2 2 2 2 2 2 2 2 2 2 2 2
left_child=1 4 7 5 9 13 14 19 17 23 11 21 28 26 -5 -10 -8 -6 -11 -2 -13 -4 -12 -1 -9 -14 -3 -15 -7 -20
right_child=2 3 10 6 8 12 16 24 15 18 22 20 25 27 -16 -17 -18 -19 29 -21 -22 -23 -24 -25 -26 -27 -28 -29 -30 -31
leaf_value=-202.55674214423459 93.841245811612538 -51.640125561998914 211.39528958067604 20.373629429489032 -109.01636227589108 -14.750897947255538 55.739291199995449 188.97077080221737 -81.012211492926326 -144.77590430537359 310.34335236922556 275.56812660488384 -0.027562154742053507 -29.837293435024062 36.986058815174616 -64.83416473731566 77.216105897547834 -96.142127256919508 -133.84341735519618 110.22910307593291 290.28710524701842 249.84443327251233 334.37097183519109 -174.43322885600364 157.64446718674299 8.458811423165379 -39.955134705822879 -21.508864653355758 -7.5576614697711682 -125.84247852672232
leaf_weight=79 559 385 49 866 922 1195 386 68 954 632 230 788 1401 866 709 623 472 1414 953 613 621 152 157 241 129 871 693 1001 1270 660
leaf_count=79 559 385 49 866 922 1195 386 68 954 632 230 788 1401 866 709 623 472 1414 953 613 621 152 157 241 129 871 693 1001 1270 660
internal_value=-0.223034 -43.8312 214.747 -1.28604 -110.263 -14.9488 41.8529 111.917 -90.5023 -140.408 285.241 276.864 -4.20024 -32.2376 27.8519 -74.621 67.554 -101.223 -134.569 102.413 282.055 240.471 320.091 -181.376 168.458 3.2258 -44.1283 -25.372 -11.0448 -130.57
internal_weight=19959 16593 3366 10115 6478 7682 2433 1369 3913 2565 1997 1610 4737 2945 1575 1577 858 2336 2245 1172 1409 201 387 320 197 2272 1078 1867 2465 1613
internal_count=19959 16593 3366 10115 6478 7682 2433 1369 3913 2565 1997 1610 4737 2945 1575 1577 858 2336 2245 1172 1409 201 387 320 197 2272 1078 1867 2465 1613
is_linear=0
shrinkage=0.05


Tree=12
num_leaves=31
num_cat=0
split_feature=17 17 53 17 46 17 45 46 17 17 52 52 17 46 45 17 17 17 46 17 17 46 59 46 17 45 17 17 17 35
split_gain=6.75521e+10 1.77371e+10 7.40761e+09 2.58975e+09 1.50075e+09 5.338e+08 3.3849e+08 2.51446e+08 2.42526e+08 2.20577e+08 1.87638e+08 1.14073e+08 9.70081e+07 8.39408e+07 6.23178e+07 4.46784e+07 4.45574e+07 4.31139e+07 3.67125e+07 2.83742e+07 2.47792e+07 2.3214e+07 1.57475e+07 1.52436e+07 1.32218e+07 1.27246e+07 1.14988e+07 1.12547e+07 1.08062e+07 1.07068e+07
threshold=114853.06780790081 109750.64051708872 118469.75000000001 112277.08914130139 107754.30500000001 111082.12781581875 113424.41000000002 106454.3 108734.19169711752 121717.85418053903 115739.99500000001 120173.01000000002 110516.49742276415 111684.78500000002 122243.71500000001 107152.20694748183 112891.60172053344 108262.62374262942 105648.79500000001 109279.53734705834 121103.44906267246 114311.91500000002 117235.35000000002 111451.35000000002 110201.25048459193 115413.90000000001 106835.57579306106 111894.97182830716 110826.63015339944 104497.39024070876
decision_type=2 2 2 2 2 2 2 2 2 2 2 2 2 2 2 2 2 2 2 2 2 2 2 2 2 2 2 2 2 2
left_child=1 4 10 5 7 12 16 18 17 11 25 -4 24 23 -11 26 -5 -6 29 -10 -13 -8 -12 -7 -3 -2 -9 -15 -14 -1
right_child=2 3 9 6 8 13 21 15 19 14 22 20 28 27 -16 -17 -18 -19 -20 -21 -22 -23 -24 -25 -26 -27 -28 -29 -30 -31
leaf_value=-198.04906939338235 96.952917488993222 -42.538854431494691 209.2945972543902 26.662901965648008 -96.826593337016291 -9.1113237178396158 62.967503780241941 -132.87061096618228 -70.474615767349491 280.23848125363185 138.46537177044414 248.54023586026616 -24.155518741833511 4.4504658454399442 309.58078680863434 -111.91013516512785 44.700136666902353 -83.274140613637087 -150.09576627001351 -54.846420418875567 266.06149361686312 80.198792288479154 166.67625161999854 -1.6646515008945877 -32.522482550110041 111.21782556152344 -124.73587038338238 12.701608446505992 -17.029549252431558 -172.18888392294608
leaf_weight=51 716 624 113 862 1562 1522 310 715 803 484 92 263 929 846 289 572 568 940 243 455 867 529 107 1253 698 200 1107 808 1245 186
leaf_count=51 716 624 113 862 1562 1522 310 715 803 484 92 263 929 846 289 572 568 940 243 455 867 529 107 1253 698 200 1107 808 1245 186
internal_value=-0.211882 -39.8895 213.041 1.52106 -103.522 -11.9637 48.6197 -130.723 -82.7306 270.236 109.628 257.194 -26.5696 -0.434692 291.209 -124.101 33.8273 -91.7349 -163.752 -64.8221 261.984 73.832 153.634 -5.74892 -37.2503 100.068 -127.928 8.48125 -20.0746 -177.754
internal_weight=19959 16828 3131 10194 6634 7925 2269 2874 3760 2016 1115 1243 3496 4429 773 2394 1430 2502 480 1258 1130 839 199 2775 1322 916 1822 1654 2174 237
internal_count=19959 16828 3131 10194 6634 7925 2269 2874 3760 2016 1115 1243 3496 4429 773 2394 1430 2502 480 1258 1130 839 199 2775 1322 916 1822 1654 2174 237
is_linear=0
shrinkage=0.05


Tree=13
num_leaves=31
num_cat=0
split_feature=46 42 53 46 53 46 42 52 53 42 46 52 46 46 46 53 46 42 46 42 53 42 46 42 46 46 46 42 46 46
split_gain=6.09712e+10 1.48411e+10 8.71977e+09 1.73843e+09 1.17624e+09 4.85583e+08 2.44513e+08 2.15574e+08 2.02788e+08 1.99471e+08 1.77043e+08 1.15129e+08 8.61185e+07 7.54924e+07 3.79204e+07 3.42429e+07 3.37654e+07 3.37587e+07 3.06346e+07 2.52476e+07 2.14257e+07 2.0074e+07 1.93146e+07 1.55424e+07 1.41161e+07 1.2843e+07 1.16391e+07 1.1159e+07 1.08615e+07 9.43982e+06
threshold=114512.50000000001 109450.53300000002 118469.75000000001 112035.37000000001 107589.83500000001 110957.73500000002 113119.15400000002 115739.99500000001 106008.23000000001 121960.12700000002 108393.59500000002 120642.17000000003 110362.46000000001 111466.90500000001 112550.44500000002 122984.51500000001 115092.46000000001 108826.48700000001 106730.90000000001 113888.18000000001 119727.75000000001 121406.808 107952.28000000001 104941.03500000002 117307.17500000002 109975.175 110704.22000000002 111171.76700000001 107102.44000000002 111761.67000000001
decision_type=2 2 2 2 2 2 2 2 2 2 2 2 2 2 2 2 2 2 2 2 2 2 2 2 2 2 2 2 2 2
left_child=1 4 7 5 8 12 14 16 23 11 22 20 25 27 -5 -11 -2 -12 -10 -8 -4 -13 -6 -1 -9 -3 -14 -7 -20 -15
right_child=2 3 9 6 10 13 19 24 18 15 17 21 26 29 -16 -17 -18 -19 28 -21 -22 -23 -24 -25 -26 -27 -28 -29 -30 -31
leaf_value=-183.35992257254463 80.495660842017912 -49.133983622755963 188.88683539496529 15.756726611866611 -99.872352971499268 -14.106769365712779 48.75603838227925 132.01896015368013 -132.50184242073331 273.25617738560271 -77.440109847776853 245.63765325221885 -28.640033419544622 -0.61889661923721029 30.752807030895958 299.44524932546716 96.852173717764458 -63.598048383517451 -120.99782856124131 66.925497236251829 223.84680153982981 258.16926070731029 -89.447715063955286 -157.58152588895319 158.67992776724009 -37.924142404309585 -20.601451210514192 -7.4582208200352387 -112.71803945163786 6.3332343435271081
leaf_weight=77 539 428 72 939 682 1340 475 95 479 350 994 588 873 1487 765 194 761 791 1201 320 112 700 1275 243 104 634 930 1193 591 727
leaf_count=77 539 428 72 939 682 1340 475 95 479 350 994 588 873 1487 765 194 761 791 1201 320 112 700 1275 243 104 634 930 1193 591 727
internal_value=-0.201288 -40.6051 188.817 -3.0121 -100.624 -14.8912 33.172 97.4891 -126.52 256.724 -82.6938 247.163 -31.1467 -5.08042 22.4891 282.596 90.0705 -71.3062 -121.27 56.0695 210.167 252.448 -93.0806 -163.784 145.952 -42.4419 -24.4937 -10.9754 -118.267 1.66394
internal_weight=19959 16444 3515 10111 6333 7612 2499 1499 2591 2016 3742 1472 2865 4747 1704 544 1300 1785 2271 795 184 1288 1957 320 199 1062 1803 2533 1792 2214
internal_count=19959 16444 3515 10111 6333 7612 2499 1499 2591 2016 3742 1472 2865 4747 1704 544 1300 1785 2271 795 184 1288 1957 320 199 1062 1803 2533 1792 2214
is_linear=0
shrinkage=0.05


Tree=14
num_leaves=31
num_cat=0
split_feature=17 17 53 17 46 17 17 46 17 17 52 45 17 46 17 46 17 46 17 17 17 17 17 17 59 17 17 35 17 17
split_gain=5.50328e+10 1.40073e+10 6.79827e+09 1.82902e+09 1.22431e+09 3.94634e+08 2.62288e+08 2.13213e+08 1.8842e+08 1.81402e+08 1.69848e+08 1.14256e+08 6.63148e+07 6.3979e+07 4.37441e+07 3.3762e+07 3.1726e+07 3.00689e+07 2.5315e+07 2.35591e+07 2.34983e+07 2.24204e+07 1.74274e+07 1.66202e+07 1.28712e+07 1.13971e+07 1.06159e+07 8.88306e+06 8.59849e+06 8.43868e+06
threshold=114640.51038156306 109750.64051708872 118469.75000000001 112121.98332387373 107808.76000000002 111019.70732204444 113221.02025484004 106454.3 108734.19169711752 122100.73133912773 115739.99500000001 120771.47000000002 110458.29787511745 111565.15000000001 107190.83422180852 114020.64000000001 108262.62374262942 105648.79500000001 112615.31344570813 121513.66615615098 109279.53734705834 119282.03958569486 115260.02453093424 123023.66850344228 117235.35000000002 111759.24898617739 106868.54833912848 104497.39024070876 110727.48673106676 111269.81227711399
decision_type=2 2 2 2 2 2 2 2 2 2 2 2 2 2 2 2 2 2 2 2 2 2 2 2 2 2 2 2 2 2
left_child=1 4 10 5 7 12 18 17 16 11 22 21 -3 29 26 -8 -6 27 -5 -13 -10 -4 -2 -11 -12 -15 -9 -1 -14 -7
right_child=2 3 9 6 8 13 15 14 20 23 24 19 28 25 -16 -17 -18 -19 -20 -21 -22 -23 -24 -25 -26 -27 -28 -29 -30 -31
leaf_value=-179.05444575291054 83.109107543754291 -34.56101871792923 177.8194345185251 19.227924509257722 -86.897955202750467 -10.671016843055362 48.361323717746785 -119.18817218374141 -63.62790853421982 266.09879787279209 124.941152887759 235.31078228186507 -24.099021074154273 1.1411702806139123 -99.373460944743272 67.531702065914317 -75.153480641791162 -135.53756932388117 32.681119845930937 248.18444663323783 -49.405759679773354 213.12921255125221 96.101490681496287 287.2011232023786 150.44581800799503 8.5963049120029993 -111.69201534704983 -155.49940375871557 -17.20476872305364 -4.7424790195688642
leaf_weight=51 639 1173 66 789 1481 1194 403 873 803 230 92 724 691 1232 573 534 940 243 628 698 455 141 433 157 107 878 1029 186 1309 1207
leaf_count=51 639 1173 66 789 1481 1194 403 873 803 230 92 724 691 1232 573 534 940 243 628 698 455 141 433 157 107 878 1029 186 1309 1207
internal_value=-0.191223 -37.0565 186.793 0.201304 -93.4318 -11.6118 38.7622 -117.399 -74.1813 243.888 96.2321 236.578 -25.1225 -2.1086 -111.484 59.2866 -82.3379 -147.896 25.1902 241.63 -58.484 201.871 88.357 274.66 138.655 4.24335 -115.133 -160.568 -19.5867 -7.6907
internal_weight=19959 16672 3287 10038 6634 7684 2354 2955 3679 2016 1271 1629 3173 4511 2475 937 2421 480 1417 1422 1258 207 1072 387 199 2110 1902 237 2000 2401
internal_count=19959 16672 3287 10038 6634 7684 2354 2955 3679 2016 1271 1629 3173 4511 2475 937 2421 480 1417 1422 1258 207 1072 387 199 2110 1902 237 2000 2401
is_linear=0
shrinkage=0.05


Tree=15
num_leaves=31
num_cat=0
split_feature=17 17 53 46 17 46 46 17 53 46 46 66 17 45 46 17 46 17 17 46 17 19 46 80 17 17 17 66 17 46
split_gain=4.95213e+10 1.20665e+10 7.14074e+09 1.4436e+09 9.58621e+08 3.81694e+08 2.15668e+08 1.70132e+08 1.67403e+08 1.54925e+08 1.48321e+08 8.41251e+07 7.4531e+07 5.32776e+07 5.30029e+07 3.05801e+07 2.99037e+07 2.95489e+07 2.81472e+07 2.44509e+07 1.75892e+07 1.57987e+07 1.33825e+07 1.30479e+07 1.03401e+07 9.349e+06 8.8826e+06 8.61794e+06 8.47212e+06 7.80437e+06
threshold=114412.82051664151 109453.64632939127 118469.75000000001 111972.12500000001 107366.91522465269 110957.73500000002 113079.55500000001 121655.22095883412 106008.23000000001 116694.93500000001 108393.59500000002 119943.05 110296.92826055312 122243.71500000001 111414.49500000001 115088.02698632896 112406.52 113655.48683625602 108819.37384926587 106634.75500000002 107873.15284786378 121114.00969725623 105008.00000000001 3.5000000000000004 109955.85758933237 106951.83188271137 110642.52123688793 117379.60500000001 123276.284002555 111656.38500000002
decision_type=2 2 2 2 2 2 2 2 2 2 2 2 2 2 2 2 2 2 2 2 2 2 2 2 2 2 2 2 2 2
left_child=1 4 9 5 8 12 16 11 22 15 20 23 24 -9 -7 -2 -5 -8 -12 -10 -6 -13 -1 -4 -3 -21 -14 -11 -15 -16
right_child=2 3 7 6 10 14 17 13 19 27 18 21 26 28 29 -17 -18 -19 -20 25 -22 -23 -24 -25 -26 -27 -28 -29 -30 -31
leaf_value=-164.65951180293644 73.784972805447055 -43.211682145552203 203.38687630586847 11.763083667404594 -90.624206599242314 -10.543664767684703 40.611647637860777 239.64396114044462 -122.64641608472141 122.66334523630667 -69.944658409447641 213.09885215759277 -25.595682981254345 260.77358150758607 -2.2872231264952414 88.969321759905142 24.941108411006155 58.585616227162042 -57.134088333966531 -110.94369782714844 -80.808143179420355 227.39595144823727 -141.86791194792718 169.58799819048716 -33.533782367155446 -103.85149532265378 -18.591210148515238 145.55486279296875 279.93275390625001 3.5114975482441171
leaf_weight=87 630 550 43 857 705 2189 543 563 318 91 974 256 854 207 1319 700 865 395 766 1000 1294 788 248 85 554 868 963 75 80 1036
leaf_count=87 630 550 43 857 705 2189 543 563 318 91 974 256 854 207 1319 700 865 395 766 1000 1294 788 248 85 554 868 963 75 80 1036
internal_value=0.0692328 -36.4761 170.278 -2.73746 -91.0453 -14.0074 28.8904 231.551 -114.874 87.4613 -74.979 219.2 -28.1089 248.582 -4.94257 81.7767 18.3827 48.1806 -64.3051 -109.83 -84.27 223.89 -147.787 180.942 -38.3552 -107.648 -21.8834 133.006 266.114 0.263722
internal_weight=19903 16385 3518 10125 6260 7465 2660 2022 2521 1496 3739 1172 2921 850 4544 1330 1722 938 1740 2186 1999 1044 335 128 1104 1868 1817 166 287 2355
internal_count=19903 16385 3518 10125 6260 7465 2660 2022 2521 1496 3739 1172 2921 850 4544 1330 1722 938 1740 2186 1999 1044 335 128 1104 1868 1817 166 287 2355
is_linear=0
shrinkage=0.05


Tree=16
num_leaves=31
num_cat=0
split_feature=46 17 67 46 17 46 17 17 17 46 17 17 17 46 17 46 46 17 17 17 52 17 45 46 17 38 17 17 17 35
split_gain=4.46994e+10 1.1583e+10 5.21018e+09 1.64088e+09 1.00411e+09 3.47297e+08 2.10379e+08 1.86672e+08 1.69446e+08 1.55564e+08 1.4119e+08 6.66431e+07 6.30761e+07 5.04219e+07 4.10927e+07 2.44381e+07 2.3639e+07 2.20697e+07 2.15988e+07 2.01026e+07 1.53962e+07 1.48032e+07 1.42216e+07 1.41499e+07 1.25178e+07 1.22494e+07 1.10464e+07 9.48739e+06 6.29288e+06 6.22341e+06
threshold=114858.28000000001 109750.64051708872 119635.34500000002 112329.72000000002 107762.28987201992 111155.19500000002 113404.1631548249 106387.41556675134 116512.1489549081 108772.73500000002 122100.73133912773 110576.0796133805 121000.26586197698 111700.00500000002 107190.83422180852 112859.99500000001 105383.53500000002 108216.81178812937 114220.42433686547 109202.38228945406 117656.13500000001 121551.43946509788 123002.07500000003 115456.36500000001 110074.2655032763 142.10863923626252 111417.80382025627 106835.57579306106 110890.0532421989 104497.39024070876
decision_type=2 2 2 2 2 2 2 2 2 2 2 2 2 2 2 2 2 2 2 2 2 2 2 2 2 2 2 2 2 2
left_child=1 4 8 5 7 11 15 16 23 17 12 24 25 26 27 -5 29 -6 -8 -11 -10 -14 -12 -2 -3 -4 -7 -9 -13 -1
right_child=2 3 10 6 9 13 18 14 20 19 22 28 21 -15 -16 -17 -18 -19 -20 -21 -22 -23 -24 -25 -26 -27 -28 -29 -30 -31
leaf_value=-164.06661759918813 77.531946948967359 -36.424580917844352 199.65154867435689 20.272727056192107 -78.706893260046684 -7.2728640118504275 48.678684250071086 -108.57326611674424 121.41381577902695 -58.012334481399812 240.73288163898374 -18.346562017156156 214.17492242355453 6.9752466845064056 -89.225446446919875 33.554642949741627 -126.21404795296276 -68.889430096179055 64.442455801953926 -45.345459358284067 150.39995551958475 224.73912592089528 260.47158928948483 90.343920524351063 -26.555600293500959 176.54835699172247 -0.97535684207084139 -101.24342080809927 -12.807811023559731 -143.10965544601967
leaf_weight=51 707 471 181 783 1263 1530 395 705 123 719 238 1113 721 1489 629 621 313 1047 483 555 73 614 148 310 1011 84 1278 1181 951 116
leaf_count=51 707 471 181 783 1263 1530 395 705 123 719 238 1113 721 1489 629 621 313 1047 483 555 73 614 148 310 1011 84 1278 1181 951 116
internal_value=0.065771 -32.7255 171.29 0.836867 -84.3776 -10.0206 38.1528 -105.746 89.6412 -66.5211 221.159 -21.6028 214.611 -0.462612 -100.292 26.1474 -134.319 -74.2572 57.3506 -52.4942 132.21 219.034 248.301 81.4373 -29.6921 192.328 -4.40669 -103.983 -15.7946 -149.51
internal_weight=19903 16704 3199 10125 6579 7843 2282 2995 1213 3584 1986 3546 1600 4297 2515 1404 480 2310 878 1274 196 1335 386 1017 1482 265 2808 1886 2064 167
internal_count=19903 16704 3199 10125 6579 7843 2282 2995 1213 3584 1986 3546 1600 4297 2515 1404 480 2310 878 1274 196 1335 386 1017 1482 265 2808 1886 2064 167
is_linear=0
shrinkage=0.05


Tree=17
num_leaves=31
num_cat=0
split_feature=17 46 60 46 46 46 46 17 46 17 17 17 17 46 17 46 17 46 17 17 45 17 17 45 52 17 46 17 17 46
split_gain=4.03439e+10 1.0605e+10 4.4308e+09 1.59061e+09 8.92057e+08 3.31256e+08 1.99904e+08 1.64052e+08 1.37402e+08 1.33258e+08 1.23317e+08 7.04247e+07 6.77052e+07 4.42019e+07 3.24583e+07 2.49677e+07 2.17676e+07 1.96977e+07 1.93216e+07 1.82983e+07 1.7512e+07 1.48308e+07 1.25044e+07 1.11677e+07 1.08459e+07 1.05336e+07 9.65852e+06 7.64028e+06 7.28191e+06 6.05636e+06
threshold=114853.06780790081 109781.21000000001 119223.65500000001 112371.02000000002 107808.76000000002 111206.57500000003 113654.56500000002 106387.41556675134 108723.23000000003 122016.14871832354 116512.1489549081 110576.0796133805 121000.26586197698 111761.67000000001 107152.20694748183 113006.20500000002 105515.72636274112 108200.00000000001 109202.38228945406 123023.66850344228 119079.27500000001 114308.04240503702 110039.91256039905 115413.90000000001 117656.13500000001 121551.43946509788 111495.38000000002 106816.37403020028 110929.43424628371 105008.00000000001
decision_type=2 2 2 2 2 2 2 2 2 2 2 2 2 2 2 2 2 2 2 2 2 2 2 2 2 2 2 2 2 2
left_child=1 4 10 5 7 11 15 16 17 12 23 22 20 26 27 -5 29 -6 -10 -11 -4 -8 -3 -2 -12 -14 -7 -9 -13 -1
right_child=2 3 9 6 8 13 21 14 18 19 24 28 25 -15 -16 -17 -18 -19 -20 -21 -22 -23 -24 -25 -26 -27 -28 -29 -30 -31
leaf_value=-148.6567942652209 75.165027289610038 -35.689857823188319 151.35105812766335 21.19292300075465 -75.870979860358531 -5.96439012243661 49.686107711589088 -103.56083640501168 -55.795359775273482 225.82634061925552 115.34312471219197 -17.081595231373036 203.46618027601096 7.8615926762870947 -86.019585406890968 34.77327908028802 -116.77639475676972 -66.61181442960212 -43.419044316997969 246.73578548791275 185.67570060187305 62.959238105039724 -25.585977858835893 87.890222651947965 142.05346102627843 212.72614634291037 -0.099328810949152621 -96.71740295255114 -11.417432443466613 -132.2107603036674
leaf_weight=87 717 426 44 865 1121 1484 376 623 792 306 123 1262 721 1333 646 556 236 1178 524 159 239 478 1089 227 55 535 1332 1181 1031 157
leaf_count=87 717 426 44 865 1121 1484 376 623 792 306 123 1262 721 1333 646 556 236 1178 524 159 239 478 1089 227 55 535 1332 1181 1031 157
internal_value=0.0624824 -30.6657 164.978 1.12813 -80.37 -9.41301 37.9966 -100.874 -63.7515 209.52 85.4229 -20.0618 202.432 0.360579 -95.6369 26.5066 -127.603 -71.1266 -50.8674 232.976 180.339 57.1153 -28.4271 78.225 123.596 207.411 -3.19015 -99.0807 -14.5348 -138.075
internal_weight=19903 16777 3126 10232 6545 7957 2275 2930 3615 2004 1122 3808 1539 4149 2450 1421 480 2299 1316 465 283 854 1515 944 178 1256 2816 1804 2293 244
internal_count=19903 16777 3126 10232 6545 7957 2275 2930 3615 2004 1122 3808 1539 4149 2450 1421 480 2299 1316 465 283 854 1515 944 178 1256 2816 1804 2293 244
is_linear=0
shrinkage=0.05


Tree=18
num_leaves=31
num_cat=0
split_feature=17 17 17 46 17 46 17 17 46 46 66 17 46 46 52 17 17 46 17 46 17 46 46 17 17 59 17 17 17 54
split_gain=3.64107e+10 9.41955e+09 4.27119e+09 1.38954e+09 7.36972e+08 3.12821e+08 1.91997e+08 1.31582e+08 1.24481e+08 1.2329e+08 8.25245e+07 7.71277e+07 5.80864e+07 5.13001e+07 3.80654e+07 2.23736e+07 2.23206e+07 2.12224e+07 1.90582e+07 1.61857e+07 1.09817e+07 9.73055e+06 9.13052e+06 8.68921e+06 8.49445e+06 8.44092e+06 8.22563e+06 7.26128e+06 7.0251e+06 6.63217e+06
threshold=114744.6067617894 109507.62571883012 118063.56707805482 112211.80000000002 107366.91522465269 110980.22000000002 113325.29392871931 121202.75467776551 105920.89500000002 108455.07500000003 115573.52500000001 122241.10268481493 111511.46000000001 110428.01500000001 120173.01000000002 108975.82575412486 114064.69377053813 112744.08000000002 106582.26340259411 108030.895 121655.22095883412 111810.12000000001 105008.00000000001 115260.02453093424 111185.65382818303 117235.35000000002 109955.85758933237 123276.284002555 106951.83188271137 0.32663479640790966
decision_type=2 2 2 2 2 2 2 2 2 2 2 2 2 2 2 2 2 2 2 2 2 2 2 2 2 2 2 2 2 2
left_child=1 4 10 5 8 13 17 14 22 19 23 20 24 26 29 -11 -8 -5 -10 -6 -9 -14 -1 -2 -7 -12 -3 -13 -20 -4
right_child=2 3 7 6 9 12 16 11 18 15 25 27 21 -15 -16 -17 -18 -19 28 -21 -22 -23 -24 -25 -26 -27 -28 -29 -30 -31
leaf_value=-141.2239567899156 68.524147113710384 -36.70137913911239 139.78801781439014 16.046468754250942 -76.371907289667703 -10.651670715900915 41.523446232422337 195.59885320490059 -105.47975662894872 -57.972236091269977 100.01785111860795 223.05761051934198 0.37960238281731673 -17.951043101194852 183.59130523860108 -46.002871542710523 57.053095453182131 28.040851876783787 -95.157197417453744 -67.672688970911267 205.03060846767812 6.9541323755244564 -122.30627635492941 77.969785703461753 -4.9920935115627927 121.602453930347 -28.091863427551012 240.5757470703125 -89.016434053341925 162.73350715637207
leaf_weight=87 553 460 62 787 973 1321 401 715 322 1043 110 227 1423 1753 342 624 547 694 1005 1187 543 931 239 435 1331 77 699 80 868 64
leaf_count=87 553 460 62 787 973 1321 401 715 322 1043 110 227 1423 1753 342 624 547 694 1005 1187 543 931 239 435 1331 77 699 80 868 64
internal_value=0.0593585 -29.5855 154.336 -0.168167 -77.5346 -10.3167 32.9139 198.197 -98.525 -63.7074 78.4477 205.153 -2.73689 -23.3472 174.936 -53.4918 50.4841 21.6671 -94.2432 -71.5914 199.67 2.97981 -127.355 72.6829 -7.81121 108.906 -31.5089 227.623 -92.3114 151.443
internal_weight=19903 16695 3208 10347 6348 7918 2429 2033 2521 3827 1175 1565 5006 2912 468 1667 948 1481 2195 2160 1258 2354 326 988 2652 187 1159 307 1873 126
internal_count=19903 16695 3208 10347 6348 7918 2429 2033 2521 3827 1175 1565 5006 2912 468 1667 948 1481 2195 2160 1258 2354 326 988 2652 187 1159 307 1873 126
is_linear=0
shrinkage=0.05


Tree=19
num_leaves=31
num_cat=0
split_feature=17 17 53 17 17 17 17 17 17 66 17 66 17 17 35 17 17 17 17 17 17 17 59 80 67 17 36 18 17 17
split_gain=3.28651e+10 7.87679e+09 4.96658e+09 8.83477e+08 6.37063e+08 2.44541e+08 1.27514e+08 1.1449e+08 1.12416e+08 1.07974e+08 9.93032e+07 6.43321e+07 4.2594e+07 3.83812e+07 2.39704e+07 2.25355e+07 1.78576e+07 1.77651e+07 1.74556e+07 1.6619e+07 1.509e+07 1.27242e+07 9.61064e+06 9.19784e+06 8.37121e+06 6.38128e+06 5.36862e+06 5.00083e+06 4.85681e+06 4.62348e+06
threshold=114308.04240503702 109453.64632939127 118469.75000000001 111861.10842430922 107366.91522465269 110808.37700367071 112891.60172053344 121860.08046013331 105819.96194854555 115573.52500000001 108344.78679925548 119943.05 111341.48184513261 110201.25048459193 122505.13191407073 115012.3058180118 112324.87582766807 108867.24734570137 106680.28783931416 113476.06374009537 121202.75467776551 107873.15284786378 117235.35000000002 3.5000000000000004 105592.55500000001 111120.39138827154 0.80770215508873144 0.00090823245411812074 107006.12472602398 109914.31000228834
decision_type=2 2 2 2 2 2 2 2 2 2 2 2 2 2 2 2 2 2 2 2 2 2 2 2 2 2 2 2 2 2
left_child=1 4 9 5 8 13 16 11 24 15 21 23 25 29 -9 -2 -5 -12 -10 -8 -13 -6 -11 -4 26 -7 -1 -14 -20 -3
right_child=2 3 7 6 10 12 19 14 18 22 17 20 27 -15 -16 -17 -18 -19 28 -21 -22 -23 -24 -25 -26 -27 -28 -29 -30 -31
leaf_value=-127.35170251094934 58.504777753707572 -35.683947636040863 165.81710574127908 9.1284995016639936 -73.911540059220499 -11.711823035685178 31.054803423044078 198.91122193349068 -97.906396459257664 95.01695956143466 -56.365124569586413 174.91459471172115 -0.61415454787805668 -19.494584799712989 219.29037132426907 71.302794037889313 19.331741379605063 -45.939667566271794 -89.401502363669934 44.487818996881956 187.33439782573944 -65.621007528732079 117.18570542768998 137.43960664636947 -116.22347255014671 -6.5588989654389938 -156.37718389601935 13.891899992989714 -83.990407870241341 -28.696173474319977
leaf_weight=66 639 479 43 938 707 1483 558 379 486 110 1002 329 2284 1576 233 745 790 690 1005 392 953 1340 88 85 237 1010 21 61 706 468
leaf_count=66 639 479 43 938 707 1483 558 379 486 110 1002 329 2284 1576 233 745 790 690 1005 392 953 1340 88 85 237 1010 21 61 706 468
internal_value=0.0563906 -30.1563 136.693 -2.70863 -74.1735 -11.6553 21.8829 188.611 -93.5987 70.3346 -61.0762 180.772 -5.07409 -24.275 206.67 65.3939 13.7932 -52.1136 -89.544 36.5977 184.147 -68.4844 104.87 146.973 -121.093 -9.6242 -134.358 -0.236812 -87.1688 -32.2306
internal_weight=19903 16299 3604 10039 6260 7361 2678 2022 2521 1582 3739 1410 4838 2523 612 1384 1728 1692 2197 950 1282 2047 198 128 324 2493 87 2345 1711 947
internal_count=19903 16299 3604 10039 6260 7361 2678 2022 2521 1582 3739 1410 4838 2523 612 1384 1728 1692 2197 950 1282 2047 198 128 324 2493 87 2345 1711 947
is_linear=0
shrinkage=0.05


Tree=20
num_leaves=31
num_cat=0
split_feature=17 46 53 17 46 46 17 17 53 52 46 34 46 17 53 17 46 46 46 46 17 17 27 46 59 20 67 17 17 17
split_gain=2.95478e+10 7.35343e+09 3.86985e+09 9.75204e+08 5.66459e+08 2.49256e+08 1.42759e+08 1.02682e+08 1.01996e+08 9.18334e+07 8.9085e+07 5.24251e+07 4.25508e+07 4.23521e+07 2.4549e+07 2.02523e+07 1.46078e+07 1.3941e+07 1.2693e+07 1.25908e+07 1.19391e+07 1.09224e+07 9.09952e+06 7.80051e+06 6.70106e+06 6.50475e+06 6.49415e+06 6.37066e+06 6.14266e+06 5.11551e+06
threshold=114565.33934753985 109477.69500000002 118469.75000000001 112018.6314732226 107349.58500000001 110922.60000000002 113221.02025484004 121777.53904484129 106008.23000000001 115739.99500000001 108393.59500000002 120570.68175 111466.90500000001 110296.92826055312 122553.94000000002 112494.21696299371 108906.49000000001 114020.64000000001 106634.75500000002 115224.31000000001 107806.34461962683 121270.60290346238 1.1205435150799563 111223.91000000002 104571.29500000001 0.0022500310353070793 117872.59000000001 109914.31000228834 111694.62738826634 123276.284002555
decision_type=2 2 2 2 2 2 2 2 2 2 2 2 2 2 2 2 2 2 2 2 2 2 2 2 2 2 2 2 2 2
left_child=1 4 9 5 8 13 15 11 24 19 20 22 23 27 -9 -5 -12 -8 -10 -2 -6 -13 -4 -7 -1 28 -11 -3 -14 -16
right_child=2 3 7 6 10 12 17 14 18 26 16 21 25 -15 29 -17 -18 -19 -20 -21 -22 -23 -24 -25 -26 -27 -28 -29 -30 -31
leaf_value=-127.84895043311181 58.945933439981879 -34.085761112120096 127.14460950578962 11.875646181406326 -71.430806461970008 -10.435517742688198 35.894431897505974 187.3295134016611 -94.68826237543189 94.988313347952712 -53.787842800151616 167.9010118475008 -0.93834686069380746 -17.196029008465413 202.2257292716734 23.030926868986498 -44.40254861506952 48.74295919211302 -83.633768758899848 69.365870141523061 -62.980808479206353 178.0421880463505 152.70821798573371 -5.0197601706525719 -111.04122366498608 21.110754143319483 114.23538750542535 -26.484929985825147 4.4679721762060689 217.28039942611883
leaf_weight=77 543 492 56 859 594 1414 412 412 303 112 1019 402 1453 1631 186 773 699 433 1816 622 1411 782 92 1255 258 41 72 627 823 81
leaf_count=77 543 492 56 859 594 1414 412 412 303 112 1019 402 1453 1631 186 773 699 433 1816 622 1411 782 92 1255 258 41 72 627 823 81
internal_value=0.13662 -27.5538 135.21 -1.50798 -70.6177 -10.2507 25.7966 179.159 -89.2675 69.6937 -58.3247 171.092 -3.58531 -22.3356 194.983 17.1594 -49.9693 42.4784 -85.2145 64.5092 -65.4842 174.599 143.036 -7.88896 -114.904 1.37215 102.52 -29.8269 1.01657 206.793
internal_weight=19750 16390 3360 10213 6177 7736 2477 2011 2454 1349 3723 1332 4986 2750 679 1632 1718 845 2119 1165 2005 1184 148 2669 335 2317 184 1119 2276 267
internal_count=19750 16390 3360 10213 6177 7736 2477 2011 2454 1349 3723 1332 4986 2750 679 1632 1718 845 2119 1165 2005 1184 148 2669 335 2317 184 1119 2276 267
is_linear=0
shrinkage=0.05


Tree=21
num_leaves=31
num_cat=0
split_feature=42 46 60 46 19 46 45 46 33 46 52 42 46 46 45 46 42 42 42 46 46 45 67 46 45 45 46 18 18 18
split_gain=2.66656e+10 6.94491e+09 2.94541e+09 1.01955e+09 5.91447e+08 2.16887e+08 1.27942e+08 1.04648e+08 1.00389e+08 8.91179e+07 8.52838e+07 4.71469e+07 4.29271e+07 3.30697e+07 1.78035e+07 1.73403e+07 1.43265e+07 1.40157e+07 1.15476e+07 9.73672e+06 9.3363e+06 9.32448e+06 8.26617e+06 7.60167e+06 6.98217e+06 6.94753e+06 5.87564e+06 5.76758e+06 5.74755e+06 4.40585e+06
threshold=114850.27600000001 109781.21000000001 119223.65500000001 112371.02000000002 107584.45901572196 111155.19500000002 113424.41000000002 108677.21000000001 106465.00356015061 122183.70000000001 115739.99500000001 121001.19700000001 110639.33500000001 111656.38500000002 112819.28000000001 108158.06500000002 106930.54100000001 109282.60400000001 119297.38300000002 105383.53500000002 114311.91500000002 121464.68000000001 117872.59000000001 123111.65000000001 115413.90000000001 110117.32000000002 111972.12500000001 0.00025499826214522782 -0.0002064556124968621 -0.00018219385654946496
decision_type=2 2 2 2 2 2 2 2 2 2 2 2 2 2 2 2 2 2 2 2 2 2 2 2 2 2 2 2 2 2
left_child=1 4 10 5 8 12 14 15 19 11 24 18 25 28 27 -6 -10 -9 -4 -1 -8 -13 -12 -11 -2 -3 -15 -5 -7 -14
right_child=2 3 9 6 7 13 20 17 16 23 22 21 29 26 -16 -17 -18 -19 -20 -21 -22 -23 -24 -25 -26 -27 -28 -29 -30 -31
leaf_value=-115.89978456043062 61.032209853914644 -27.230304422974587 125.54260571289063 14.179458179162005 -63.472816613254089 -7.9938375199132388 39.523732231236714 -45.333605928108341 -83.338990396372921 187.11834264684606 90.238898522513253 165.01334999273632 -15.731818303728659 2.5380276219135833 28.661457409472565 -54.998566497328241 -75.386221974597774 -34.490283402307334 151.94654996879862 -100.05088391699645 50.453072646260267 173.39211669590165 110.6523389494821 201.88816854398544 71.352744624299831 -20.333007123610557 8.3303245990467314 22.915231424059186 -2.4745340024842388 -10.636174547378795
leaf_weight=168 722 640 50 581 1193 619 316 976 1174 216 112 605 601 1008 531 1222 1094 429 241 229 512 736 89 146 212 850 774 280 1982 1442
leaf_count=168 722 640 50 581 1193 619 316 976 1174 216 112 605 601 1008 531 1222 1094 429 241 229 512 736 89 146 212 850 774 280 1982 1442
internal_value=0.129789 -25.0781 134.032 0.774062 -65.4847 -7.62372 30.7186 -52.8726 -83.563 170.631 69.7329 165.653 -16.842 -0.19318 21.461 -59.1848 -79.5029 -42.0227 147.41 -106.758 46.282 169.612 99.2777 193.075 63.3748 -23.2956 5.05387 17.0204 -3.78805 -12.1352
internal_weight=19750 16621 3129 10136 6485 7916 2220 3820 2665 1994 1135 1632 3533 4383 1392 2415 2268 1405 291 397 828 1341 201 362 934 1490 1782 861 2601 2043
internal_count=19750 16621 3129 10136 6485 7916 2220 3820 2665 1994 1135 1632 3533 4383 1392 2415 2268 1405 291 397 828 1341 201 362 934 1490 1782 861 2601 2043
is_linear=0
shrinkage=0.05


Tree=22
num_leaves=31
num_cat=0
split_feature=46 46 53 46 46 46 46 46 46 52 46 34 46 46 53 46 46 46 46 46 45 46 27 46 59 46 34 18 46 44
split_gain=2.40684e+10 5.9982e+09 3.13747e+09 7.99504e+08 4.627e+08 2.05099e+08 1.16382e+08 8.4475e+07 8.33564e+07 7.42556e+07 7.29876e+07 4.37945e+07 3.88506e+07 3.0958e+07 1.85378e+07 1.65567e+07 1.2993e+07 1.09733e+07 1.08881e+07 1.03309e+07 9.19724e+06 8.81288e+06 7.8438e+06 6.7298e+06 5.50143e+06 5.45911e+06 5.32906e+06 4.68482e+06 4.37048e+06 4.32396e+06
threshold=114660.53500000002 109477.69500000002 118469.75000000001 112097.76500000001 107349.58500000001 110980.22000000002 113340.12500000001 121863.75500000002 105920.89500000002 115739.99500000001 108348.32000000002 120570.68175 110428.01500000001 111495.38000000002 122553.94000000002 112673.66500000002 108906.49000000001 106634.75500000002 114020.64000000001 115224.31000000001 121123.73000000003 107887.25500000002 1.1205435150799563 109975.175 104571.29500000001 111223.91000000002 117437.44675000002 -0.00042108955364939118 123346.78000000001 0.24669762895895372
decision_type=2 2 2 2 2 2 2 2 2 2 2 2 2 2 2 2 2 2 2 2 2 2 2 2 2 2 2 2 2 2
left_child=1 4 9 5 8 12 15 11 24 19 21 22 23 25 -9 -5 -12 -10 -8 -2 -13 -6 -4 -3 -1 -7 -11 -17 -16 -14
right_child=2 3 7 6 10 13 18 14 17 26 16 20 29 -15 28 27 -18 -19 -20 -21 -22 -23 -24 -25 -26 -27 -28 -29 -30 -31
leaf_value=-115.67180358094055 53.201216603748833 -30.970540106168357 114.21583426339288 11.297958413657653 -64.303982668608626 -8.9830083860933367 32.582206823348997 169.4836522985388 -85.685097374854152 84.42383809827038 -48.751510462607115 150.25614041688013 -16.93982042967323 1.6293555639279913 182.88025144005792 13.667231513977052 -40.010367852730816 -75.478475553033647 43.974064728786622 62.672637988516762 160.28466653813408 -57.051164564694695 137.9501142418903 -23.383726897051858 -100.40812657774673 -4.3746796239007084 101.46734029835669 23.645720408028421 197.42506382533483 -11.931326197738167
leaf_weight=77 536 465 56 933 612 1176 400 378 308 97 1085 305 941 2170 197 150 699 1816 441 622 913 1327 92 787 253 1417 87 545 70 795
leaf_count=77 536 465 56 933 612 1176 400 378 308 97 1085 305 941 2170 197 150 699 1816 441 622 913 1327 92 787 253 1417 87 545 70 795
internal_value=0.1233 -24.8367 122.184 -1.32621 -63.7354 -9.21911 23.4522 161.694 -80.5908 62.9769 -52.6252 154.653 -19.488 -2.77708 176.608 15.6499 -45.3266 -76.9585 38.5558 58.2886 157.773 -59.3403 128.97 -26.2015 -103.97 -6.46469 92.4825 21.4921 186.693 -14.6462
internal_weight=19750 16397 3353 10220 6177 7751 2469 2011 2454 1342 3723 1366 2988 4763 645 1628 1784 2124 841 1158 1218 1939 148 1252 330 2593 184 695 267 1736
internal_count=19750 16397 3353 10220 6177 7751 2469 2011 2454 1342 3723 1366 2988 4763 645 1628 1784 2124 841 1158 1218 1939 148 1252 330 2593 184 695 267 1736
is_linear=0
shrinkage=0.05


Tree=23
num_leaves=31
num_cat=0
split_feature=17 46 67 17 46 46 46 17 52 46 17 46 17 17 17 17 46 17 46 52 69 17 17 45 34 17 45 17 17 18
split_gain=2.17295e+10 5.6555e+09 2.39605e+09 8.33899e+08 4.8264e+08 1.80357e+08 9.89085e+07 9.11128e+07 8.18254e+07 7.3167e+07 7.02717e+07 4.00179e+07 2.99858e+07 2.57838e+07 1.75926e+07 1.23728e+07 1.20801e+07 1.20412e+07 9.79498e+06 9.15839e+06 8.86444e+06 7.64685e+06 7.45765e+06 7.25841e+06 6.80322e+06 6.07183e+06 5.943e+06 5.24779e+06 4.31826e+06 4.31434e+06
threshold=114853.06780790081 109781.21000000001 119635.34500000002 112324.87582766807 107808.76000000002 111206.57500000003 113654.56500000002 106387.41556675134 115739.99500000001 108677.21000000001 122100.73133912773 110639.33500000001 121000.26586197698 111694.62738826634 107152.20694748183 105515.72636274112 113006.20500000002 109202.38228945406 108263.87000000001 117656.13500000001 0.00095366367217405827 114308.04240503702 121551.43946509788 123002.07500000003 110487.02225000002 110039.91256039905 115413.90000000001 111444.49628187007 106853.01276507114 -0.00029755909202388539
decision_type=2 2 2 2 2 2 2 2 2 2 2 2 2 2 2 2 2 2 2 2 2 2 2 2 2 2 2 2 2 2
left_child=1 4 8 5 7 11 16 15 26 18 12 25 20 24 28 -1 -5 -11 -6 -10 -4 -8 -14 -12 -7 -3 -2 -26 -9 -13
right_child=2 3 10 6 9 13 21 14 19 17 23 29 22 -15 -16 -17 -18 -19 -20 -21 -22 -23 -24 -25 27 -27 -28 -29 -30 -31
leaf_value=-101.89533590906596 55.129875876302542 -26.257532918046163 138.84450922185724 15.885044760165963 -55.413942466626331 26.668172502517702 36.523589352766678 -75.607983320287502 83.774538972642688 -41.358285964474696 168.17086551397176 -14.72537604768663 149.4039699463234 5.9500149765526658 -63.114384614968607 -85.774192595900161 25.635488724799213 -31.707449714721196 -48.605980792468642 105.22827284963508 115.3285589724171 46.124240288237516 156.94967085258574 182.26827650005316 -4.6660220211995211 -19.110610188378228 64.651475093049825 -0.32419342361642872 -70.670796305040241 -9.421628969739162
leaf_weight=249 722 410 220 802 1254 20 384 781 144 901 241 487 711 1383 632 228 526 504 913 76 49 451 607 147 1461 1080 212 1329 1023 1803
leaf_count=249 722 410 220 802 1254 20 384 781 144 901 241 487 711 1383 632 228 526 504 913 76 49 451 607 147 1461 1080 212 1329 1023 1803
internal_value=0.117135 -22.6383 120.992 0.690803 -59.1015 -6.77903 28.2252 -74.2062 63.7528 -46.7835 154.438 -14.6993 149.774 0.361155 -70.2932 -94.1896 19.747 -37.8963 -52.5456 91.1858 134.561 41.7091 152.879 173.512 -2.38952 -21.0772 57.2911 -2.59782 -72.8082 -10.5495
internal_weight=19750 16621 3129 10136 6485 7973 2163 2913 1154 3572 1975 3780 1587 4193 2436 477 1328 1405 2167 220 269 835 1318 388 2810 1490 934 2790 1804 2290
internal_count=19750 16621 3129 10136 6485 7973 2163 2913 1154 3572 1975 3780 1587 4193 2436 477 1328 1405 2167 220 269 835 1318 388 2810 1490 934 2790 1804 2290
is_linear=0
shrinkage=0.05


Tree=24
num_leaves=31
num_cat=0
split_feature=46 46 67 46 46 46 46 46 45 46 46 42 46 46 46 46 46 46 46 46 69 45 45 52 42 46 18 18 18 18
split_gain=1.96074e+10 5.11424e+09 2.14772e+09 7.43968e+08 4.53185e+08 1.41194e+08 1.0797e+08 8.49737e+07 7.36597e+07 6.99233e+07 6.33675e+07 2.75368e+07 2.44585e+07 2.36015e+07 1.84632e+07 1.5471e+07 1.11984e+07 1.11261e+07 8.85464e+06 8.37661e+06 8.09825e+06 7.18345e+06 6.9543e+06 6.84969e+06 5.71457e+06 5.10881e+06 5.01518e+06 4.9061e+06 4.22225e+06 3.78583e+06
threshold=114957.91500000002 109892.70500000002 119635.34500000002 112275.90000000001 107838.81000000001 111097.74500000001 113340.12500000001 106454.3 116282.68500000001 108817.23000000003 122183.70000000001 121001.19700000001 110639.33500000001 111595.46000000001 107349.58500000001 114165.645 108348.32000000002 105648.79500000001 109413.32000000002 112744.08000000002 0.00095366367217405827 121569.73000000001 115518.84000000001 117656.13500000001 123278.80100000002 106934.72000000002 0.00024457351042295113 -0.0002064556124968621 -0.00019709149627173851 -0.00056064017556313819
decision_type=2 2 2 2 2 2 2 2 2 2 2 2 2 2 2 2 2 2 2 2 2 2 2 2 2 2 2 2 2 2
left_child=1 4 8 5 7 12 19 17 22 16 11 20 28 27 25 -8 -6 -1 -11 -5 -4 -13 -2 -10 -12 -9 -15 -7 -3 -21
right_child=2 3 10 6 9 13 15 14 23 18 24 21 -14 26 -16 -17 -18 -19 -20 29 -22 -23 -24 -25 -26 -27 -28 -29 -30 -31
leaf_value=-96.746965917968751 52.892104798910431 -23.329191895781975 132.01125882409613 11.900117254811665 -51.728517005816798 -8.1272663280467849 30.351247592323706 -71.349045796690802 80.932350488281259 -37.503474760176879 162.32867023306835 142.55729093883647 -10.780690853431977 1.7356121938818683 -58.271773140518761 42.434127323615535 -44.626283781839454 -81.474212659869281 -28.822279427758158 11.63268260111851 109.56212992765467 150.10120188795676 64.476633123582403 99.966858793559823 177.60819029196716 -66.260365276095229 7.6043796717308361 -2.9120547743377978 -17.574511650311681 21.751391732223393
leaf_weight=250 789 488 223 688 1399 596 475 949 125 786 284 833 1809 1537 540 599 920 228 469 113 49 508 155 76 78 1027 477 1853 919 508
leaf_count=250 789 488 223 688 1399 596 475 949 125 786 284 833 1809 1537 540 599 920 228 469 113 49 508 155 76 78 1027 477 1853 919 508
internal_value=0.111278 -21.4676 115.129 0.934557 -55.787 -6.63926 25.3405 -70.1367 60.6461 -43.766 146.716 142.473 -14.6262 -0.883926 -66.4652 37.0902 -48.9109 -89.4621 -34.2593 15.7001 127.967 145.415 54.7942 88.1295 165.621 -68.7043 3.12558 -4.18125 -19.5704 19.9101
internal_weight=19750 16630 3120 10062 6568 7679 2383 2994 1145 3574 1975 1613 3216 4463 2516 1074 2319 478 1255 1309 272 1341 944 201 362 1976 2014 2449 1407 621
internal_count=19750 16630 3120 10062 6568 7679 2383 2994 1145 3574 1975 1613 3216 4463 2516 1074 2319 478 1255 1309 272 1341 944 201 362 1976 2014 2449 1407 621
is_linear=0
shrinkage=0.05


Tree=25
num_leaves=31
num_cat=0
split_feature=45 17 17 45 53 17 17 17 17 17 17 17 59 17 17 17 17 17 17 17 42 17 17 69 17 28 28 1 44 17
split_gain=1.81934e+10 5.47607e+09 1.28562e+09 5.26368e+08 4.29017e+08 1.74005e+08 1.17433e+08 7.91726e+07 7.03491e+07 5.70648e+07 3.699e+07 3.18335e+07 2.50872e+07 1.90992e+07 1.31625e+07 1.27124e+07 1.23705e+07 1.10618e+07 1.02665e+07 9.45606e+06 6.03409e+06 5.97877e+06 5.32954e+06 4.75242e+06 4.29901e+06 4.07622e+06 4.07483e+06 3.97235e+06 3.90045e+06 3.58363e+06
threshold=115518.84000000001 109914.31000228834 112685.24054645056 119079.27500000001 107826.32500000001 111237.69274064987 114220.42433686547 108772.9904612385 106480.50298998444 122100.73133912773 111954.72247078402 110704.24235966064 117235.35000000002 121270.60290346238 107122.87961675139 105515.72636274112 108150.72362868772 114934.94178076771 113221.02025484004 109374.57419305788 123278.80100000002 111562.38031608869 110331.14477704691 0.00089213608844261442 120858.56780539616 42.26430113417252 55.165155338568077 0.0024724520126946374 0.34223723501546227 121590.94208232709
decision_type=2 2 2 2 2 2 2 2 2 2 2 2 2 2 2 2 2 2 2 2 2 2 2 2 2 2 2 2 2 2
left_child=1 4 5 12 8 11 18 16 15 13 21 22 -2 24 -10 -1 27 -8 -4 -9 -11 -7 -3 -14 -5 -12 -13 -6 -18 -15
right_child=3 2 6 9 7 10 17 19 14 20 25 26 23 29 -16 -17 28 -19 -20 -21 -22 -23 -24 -25 -26 -27 -28 -29 -30 -31
leaf_value=-91.881642956385804 64.935343073064629 -20.467431286006626 19.525721940976954 120.89767415364584 -50.759488102271284 -2.6232796323716574 41.525787171919525 -35.261377047272902 -65.649837946456188 153.70525718665345 6.1051531720308612 -9.983524700778112 84.549401855468759 136.5067283016198 -57.457374496350816 -76.568649216640139 -45.54802538211888 50.528293383484737 29.169076979569891 -26.723104435270013 168.89307489162539 1.8153345811962476 -14.751839953979943 102.51271030359101 130.85496397380587 11.940369981733918 -5.8553360095357405 -28.291002087593082 -39.969871193592951 142.15329929047982
leaf_weight=233 220 713 551 165 1198 1569 647 782 1642 323 486 1415 104 559 699 324 818 722 553 554 82 1469 953 57 316 779 1035 20 508 565
leaf_count=233 220 713 551 165 1198 1569 647 782 1642 323 486 1415 104 559 699 324 818 722 553 554 82 1469 953 57 316 779 1035 20 508 565
internal_value=0.352164 -17.1633 4.79421 129.795 -52.4482 -4.51589 36.4892 -41.5767 -67.0036 140.009 2.5144 -11.8656 75.9111 135.777 -63.2036 -82.9743 -46.7526 46.2736 24.3561 -31.7208 156.78 -0.477024 -17.1979 90.9091 127.439 9.69854 -8.23958 -50.3905 -43.411 139.345
internal_weight=20061 17670 10892 2391 6778 8419 2473 3880 2898 2010 4303 4116 381 1605 2341 557 2544 1369 1104 1336 405 3038 1666 161 481 1265 2450 1218 1326 1124
internal_count=20061 17670 10892 2391 6778 8419 2473 3880 2898 2010 4303 4116 381 1605 2341 557 2544 1369 1104 1336 405 3038 1666 161 481 1265 2450 1218 1326 1124
is_linear=0
shrinkage=0.05


Tree=26
num_leaves=31
num_cat=0
split_feature=17 17 17 45 46 46 17 46 17 17 46 46 52 17 46 17 17 46 17 46 18 18 17 17 69 17 42 46 45 18
split_gain=1.64195e+10 4.94115e+09 1.15945e+09 4.76843e+08 3.87919e+08 1.58537e+08 1.06193e+08 6.78067e+07 6.6673e+07 5.18399e+07 3.35595e+07 2.87624e+07 2.28963e+07 1.89919e+07 1.44135e+07 1.21806e+07 1.14729e+07 9.43364e+06 8.90854e+06 7.13697e+06 5.358e+06 4.47468e+06 4.23299e+06 4.15086e+06 4.13895e+06 3.91108e+06 3.88315e+06 3.84465e+06 3.58826e+06 3.16765e+06
threshold=115574.64732930558 109914.31000228834 112685.24054645056 119079.27500000001 107838.81000000001 111293.86000000002 114064.69377053813 108817.23000000003 106480.50298998444 122241.10268481493 111972.12500000001 110704.22000000002 116819.41500000002 121270.60290346238 107219.17500000002 114934.94178076771 105515.72636274112 108292.205 109374.57419305788 113340.12500000001 0.00049437855748011108 -0.0001868053935273994 111597.2445575286 121655.22095883412 0.00089213608844261442 110296.92826055312 120524.107 123346.78000000001 112107.23500000002 -0.00017412258602665754
decision_type=2 2 2 2 2 2 2 2 2 2 2 2 2 2 2 2 2 2 2 2 2 2 2 2 2 2 2 2 2 2
left_child=1 4 5 12 8 11 19 17 16 13 22 25 -2 26 -10 -8 -1 29 -9 -4 28 -13 -7 -15 -14 -3 -5 -11 -12 -6
right_child=3 2 6 9 7 10 15 18 14 27 20 21 24 23 -16 -17 -18 -19 -20 -21 -22 -23 -24 -25 -26 -27 -28 -29 -30 -31
leaf_value=-87.28755846801235 60.753003463004404 -19.80102902056688 18.602704892310154 111.70340698242188 -50.340380459664516 -2.1371376536137863 38.812565275582159 -33.592320457242437 -62.11407981316021 148.37252594703853 4.166277769917321 -11.236489971746666 79.796576401283005 130.0821598991798 -53.669781989194036 47.993787120549257 -72.740217185314791 -40.832635318004208 -25.386949062347412 26.982886391761767 15.409997485643366 -6.7566601185527446 1.8168390278863389 135.97517244888334 95.972411702473963 -14.629625117384586 123.22267210977462 161.58476981026786 9.7914968936220603 -45.213091577977764
leaf_weight=233 206 627 566 90 481 1786 724 821 1741 258 501 801 116 642 712 721 324 1106 554 461 251 1833 1090 559 60 877 391 70 653 806
leaf_count=233 206 627 566 90 481 1786 724 821 1741 258 501 801 116 642 712 721 324 1106 554 461 251 1833 1090 559 60 877 391 70 653 806
internal_value=0.334556 -16.3091 4.54997 123.276 -49.8258 -4.2901 34.657 -39.1348 -63.2091 133.009 2.45562 -11.2689 72.0677 129.463 -59.6631 43.3936 -78.8256 -44.2191 -30.2863 22.3644 8.78937 -8.11898 -0.638586 132.825 85.3111 -16.7855 121.067 151.192 7.34935 -47.1294
internal_weight=20061 17669 10891 2392 6778 8419 2472 3768 3010 2010 4281 4138 382 1682 2453 1445 557 2393 1375 1027 1405 2634 2876 1201 176 1504 481 328 1154 1287
internal_count=20061 17669 10891 2392 6778 8419 2472 3768 3010 2010 4281 4138 382 1682 2453 1445 557 2393 1375 1027 1405 2634 2876 1201 176 1504 481 328 1154 1287
is_linear=0
shrinkage=0.05


Tree=27
num_leaves=31
num_cat=0
split_feature=45 46 45 45 46 46 46 46 46 46 46 46 52 45 46 53 46 53 46 42 18 53 47 27 46 18 47 45 45 42
split_gain=1.48189e+10 4.46064e+09 1.04974e+09 4.28617e+08 3.44961e+08 1.46696e+08 9.3302e+07 5.99689e+07 5.8818e+07 4.6588e+07 3.30156e+07 2.46798e+07 2.0536e+07 1.61607e+07 1.30718e+07 1.04552e+07 9.46007e+06 8.54289e+06 8.51386e+06 8.03732e+06 6.22089e+06 4.5266e+06 4.50052e+06 4.01781e+06 3.84919e+06 3.77695e+06 3.75493e+06 3.52019e+06 3.46459e+06 3.35581e+06
threshold=115518.84000000001 109975.175 112611.81000000001 119079.27500000001 107838.81000000001 111272.28000000001 114311.91500000002 106528.79000000002 108817.23000000003 122183.70000000001 111972.12500000001 110704.22000000002 116819.41500000002 121123.73000000003 107349.58500000001 105715.97500000002 113445.38000000002 115107.73000000001 108292.205 109282.60400000001 0.00049437855748011108 123198.59500000002 0.37501376214563437 22.171748155935138 121686.32500000003 -7.947812079654101e-05 0.71182963690087053 112058.28000000001 110216.78500000002 106930.54100000001
decision_type=2 2 2 2 2 2 2 2 2 2 2 2 2 2 2 2 2 2 2 2 2 2 2 2 2 2 2 2 2 2
left_child=1 4 5 12 7 11 16 15 18 13 22 26 -2 -5 29 -1 -4 -8 -6 -10 27 -11 -7 -14 -15 -13 28 -12 -3 -9
right_child=3 2 6 9 8 10 17 14 19 21 20 25 23 24 -16 -17 -18 -19 -20 -21 -22 -23 -24 -25 -26 -27 -28 -29 -30 -31
leaf_value=-82.724226007541688 57.761545127310399 -21.70300309115617 18.202669798320184 113.87952930305579 -44.772883561941299 -2.9301751405974406 37.871458426056357 -60.607813244774235 -32.408743210990956 137.9793633805271 3.3225903602211382 -10.31325517767417 77.214660426548562 123.03784244674574 -49.8844321470728 -68.931208082932685 27.597039428124063 45.808755542676359 -38.791003431420222 -24.633156821171443 15.304743418889993 149.30942198389727 0.94101164087083122 95.943269687228735 128.66512534812645 -6.3315145744625916 -12.974621491650352 8.9952066527803733 -15.468811033575575 -56.392293359567454
leaf_weight=238 205 378 627 395 1287 1362 678 1008 745 241 441 998 140 695 551 325 468 678 1106 600 267 139 1673 36 540 1477 612 720 543 888
leaf_count=238 205 378 627 395 1287 1362 678 1008 745 241 441 998 140 695 551 325 468 678 1106 600 267 139 1673 36 540 1477 612 720 543 888
internal_value=0.317828 -15.49 4.25629 117.141 -47.4506 -4.08174 33.0737 -60.0486 -37.306 126.358 2.15362 -11.025 68.5174 122.683 -56.6634 -74.762 22.2178 41.8401 -42.0082 -28.9401 8.42309 142.124 -0.796239 81.0455 125.498 -7.93708 -16.0103 6.84049 -18.0275 -58.6335
internal_weight=20061 17670 10922 2391 6748 8471 2451 3010 3738 2010 4463 4008 381 1630 2447 563 1095 1356 2393 1345 1428 380 3035 176 1235 2475 1533 1161 921 1896
internal_count=20061 17670 10922 2391 6748 8471 2451 3010 3738 2010 4463 4008 381 1630 2447 563 1095 1356 2393 1345 1428 380 3035 176 1235 2475 1533 1161 921 1896
is_linear=0
shrinkage=0.05


Tree=28
num_leaves=31
num_cat=0
split_feature=45 53 45 45 42 42 45 42 60 42 53 42 59 45 53 53 42 42 18 18 20 34 45 18 45 24 35 18 45 69
split_gain=1.33741e+10 4.02301e+09 9.41692e+08 3.86827e+08 3.18937e+08 1.29051e+08 8.44125e+07 6.53397e+07 4.80932e+07 4.21358e+07 2.69278e+07 2.43624e+07 1.86339e+07 1.41546e+07 1.13951e+07 1.04879e+07 1.04387e+07 8.15288e+06 5.43866e+06 5.30528e+06 4.98087e+06 4.67692e+06 4.54357e+06 4.4979e+06 4.20406e+06 4.19237e+06 5.02364e+06 3.95699e+06 3.90003e+06 3.72048e+06
threshold=115518.84000000001 110051.48000000003 112611.81000000001 119079.27500000001 107633.04900000001 111270.75900000001 113853.64500000002 108775.30300000003 106131.35000000002 122100.931 112079.66500000001 110700.35900000001 117235.35000000002 121123.73000000003 114980.55000000002 108289.08 106930.54100000001 109282.60400000001 0.00025951406512752585 0.00047389123064586183 0.0010636033941686899 123041.54450000003 110216.78500000002 0.00014236411615807664 111569.49500000001 0.00013471429928932612 104497.39024070876 0.00021420447108760196 113050.04000000002 0.00089213608844261442
decision_type=2 2 2 2 2 2 2 2 2 2 2 2 2 2 2 2 2 2 2 2 2 2 2 2 2 2 2 2 2 2
left_child=1 4 5 12 8 11 20 15 25 13 24 19 -2 -5 -8 -6 -10 -9 -12 22 28 -11 -3 -17 -7 26 -1 -13 -4 -14
right_child=3 2 6 9 7 10 14 17 16 21 18 27 29 -15 -16 23 -18 -19 -20 -21 -22 -23 -24 -25 -26 -27 -28 -29 -30 -31
leaf_value=-99.472581113617991 55.632180037064984 -19.859163879007102 14.600309299104778 108.18555443099784 -43.504154717251339 -1.7682127608524785 33.999930169909064 -30.732460019682762 -58.780500689924054 129.99659876505535 6.4106653462878702 -8.1427800954928884 72.390331855187057 119.08651626460808 42.728257460025688 -39.364761033459246 -52.210995423047478 -22.977099316817064 13.592142237742957 -8.3027323431147764 27.94324398664088 140.93187263257576 -13.833090200721555 -33.153725376388067 2.130950252290932 -68.555059666787429 -77.048368631998699 -3.8334824597659996 21.626711127222805 88.284147670812786
leaf_weight=29 220 480 398 395 1386 1740 686 708 1238 240 911 1857 104 1210 822 856 1182 650 371 273 153 165 898 442 1147 124 180 747 392 57
leaf_count=29 220 480 398 395 1386 1740 686 708 1238 240 911 1857 104 1210 822 856 1182 650 371 273 153 165 898 442 1147 124 180 747 392 57
internal_value=0.301936 -14.7155 4.14298 111.284 -44.8975 -3.7934 31.42 -35.9576 -58.0232 120.04 2.4587 -9.91913 65.0915 116.404 38.7577 -40.4795 -55.5718 -27.0204 8.48892 -14.6706 19.686 134.452 -15.9322 -37.2498 -0.219082 -75.8386 -80.1599 -6.90659 18.0868 78.0173
internal_weight=20061 17670 10875 2391 6795 8424 2451 4042 2753 2010 4169 4255 381 1605 1508 2684 2420 1358 1282 1651 943 405 1378 1298 2887 333 209 2604 790 161
internal_count=20061 17670 10875 2391 6795 8424 2451 4042 2753 2010 4169 4255 381 1605 1508 2684 2420 1358 1282 1651 943 405 1378 1298 2887 333 209 2604 790 161
is_linear=0
shrinkage=0.05


Tree=29
num_leaves=31
num_cat=0
split_feature=17 46 17 45 46 46 17 17 46 17 17 17 52 17 46 17 17 46 46 17 17 17 20 20 17 27 45 46 44 17
split_gain=1.20704e+10 3.63335e+09 8.46546e+08 3.50339e+08 2.93355e+08 1.08204e+08 8.59803e+07 5.13744e+07 5.11446e+07 3.85496e+07 2.2464e+07 1.88511e+07 1.69212e+07 1.45425e+07 1.226e+07 9.0699e+06 8.40366e+06 8.19484e+06 6.15689e+06 5.7755e+06 4.54059e+06 4.32913e+06 4.06198e+06 3.66854e+06 3.50748e+06 3.41899e+06 3.40532e+06 3.0621e+06 2.88958e+06 2.75028e+06
threshold=115574.64732930558 110019.98000000003 112615.31344570813 119079.27500000001 107887.25500000002 111361.88000000002 114064.69377053813 106480.50298998444 108906.49000000001 122241.10268481493 110727.48673106676 111735.97436713945 116819.41500000002 121353.35600582634 107349.58500000001 114934.94178076771 105515.72636274112 108348.32000000002 113340.12500000001 109374.57419305788 120858.56780539616 112180.54991419335 0.0014118639495782014 0.0030595931791604597 111033.76445977656 22.171748155935138 110320.15000000001 123346.78000000001 0.12396888571896096 106868.54833912848
decision_type=2 2 2 2 2 2 2 2 2 2 2 2 2 2 2 2 2 2 2 2 2 2 2 2 2 2 2 2 2 2
left_child=1 4 5 12 7 10 18 16 17 13 22 23 -2 20 29 -8 -1 -6 -4 -10 -5 -13 26 -7 -12 -14 -3 -11 -19 -9
right_child=3 2 6 9 8 11 15 14 19 27 24 21 25 -15 -16 -17 -18 28 -20 -21 -22 -23 -24 -25 -26 -27 -28 -29 -30 -31
leaf_value=-74.946029833355695 52.075834359474555 -16.68202175885083 15.567503207470573 97.902562329841388 -39.891479664823436 -0.99520388615010114 33.274181572508418 -55.199655237112623 -28.207679375390001 127.20226359995762 -8.0272251624518756 4.1178885176519602 69.653895656040731 114.62409078704191 -44.859719129568475 41.196790618473216 -62.495681461287134 -36.46387745618425 23.129176157622432 -21.438604822143155 107.53036663497122 9.193080026560656 -3.3790781576554858 19.527215428785848 -4.4247076205978084 86.93057081434462 -12.05160722009483 138.99346156529018 -31.356106623262168 -51.336272469708923
leaf_weight=233 206 753 647 165 1370 2138 724 783 653 258 1408 1017 140 1042 626 721 324 603 461 609 475 716 91 22 1299 36 840 70 512 1119
leaf_count=233 206 753 647 165 1370 2138 724 783 653 258 1408 1017 140 1042 626 721 324 603 461 609 475 716 91 22 1299 36 840 70 512 1119
internal_value=0.28684 -13.9833 4.01935 105.696 -42.5394 -3.73859 29.1924 -53.9578 -33.1383 114.038 -9.11921 2.33033 61.8028 110.98 -50.9291 37.2273 -67.7038 -37.3012 18.7137 -24.9411 105.048 6.21474 -13.6534 -0.786179 -6.2985 73.1878 -14.2404 129.719 -34.1184 -52.9267
internal_weight=20061 17669 10837 2392 6832 8284 2553 3085 3747 2010 4391 3893 382 1682 2528 1445 557 2485 1108 1262 640 1733 1684 2160 2707 176 1593 328 1115 1902
internal_count=20061 17669 10837 2392 6832 8284 2553 3085 3747 2010 4391 3893 382 1682 2528 1445 557 2485 1108 1262 640 1733 1684 2160 2707 176 1593 328 1115 1902
is_linear=0
shrinkage=0.05


Tree=30
num_leaves=31
num_cat=0
split_feature=17 46 45 17 46 17 17 17 46 53 17 59 46 17 17 17 46 17 17 17 18 46 46 18 18 54 18 18 18 18
split_gain=1.08416e+10 2.62175e+09 1.46496e+09 3.30103e+08 2.1131e+08 8.75189e+07 4.52935e+07 4.3174e+07 3.63998e+07 3.52898e+07 2.61239e+07 1.96617e+07 1.78602e+07 1.67597e+07 1.2718e+07 6.73724e+06 6.13486e+06 6.1234e+06 5.92696e+06 5.5601e+06 5.21393e+06 5.15918e+06 3.95962e+06 3.39776e+06 3.39332e+06 3.26613e+06 3.1729e+06 3.15635e+06 3.04953e+06 2.99895e+06
threshold=114502.55087185452 109548.22500000002 117879.51500000001 112018.6314732226 107349.58500000001 110945.15886867589 113114.86615550502 121475.20229815823 108483.21500000001 106008.23000000001 116512.1489549081 120068.21500000001 122441.17500000002 110331.14477704691 111444.49628187007 107980.39106776002 112673.66500000002 115260.02453093424 106761.40482434958 109031.80148858154 0.00094509756938596708 113654.56500000002 105008.00000000001 0.00076916345857203615 0.00017646060719462309 0.31124713295371392 0.00045546894599693616 0.00021934729068894858 0.00023938358263767226 0.00024977667524582345
decision_type=2 2 2 2 2 2 2 2 2 2 2 2 2 2 2 2 2 2 2 2 2 2 2 2 2 2 2 2 2 2
left_child=1 4 10 5 9 13 16 11 15 22 17 25 -9 20 28 -6 -5 -2 -11 23 -3 -8 -1 -10 -15 -4 -23 -18 -7 -16
right_child=2 3 7 6 8 14 21 12 19 18 -12 -13 -14 24 29 -17 27 -19 -20 -21 -22 26 -24 -25 -26 -27 -28 -29 -30 -31
leaf_value=-78.314656163469152 35.657540180435866 -18.271320287311461 72.444678090413419 7.4513904626244001 -41.594358436097494 -5.1457722684084635 19.240393937545448 109.84869638965498 -31.75918453727801 -55.118155042004517 60.84934139251709 101.91133204985431 124.06532519864548 -11.205989085025733 0.17655407394642647 -36.187861921103313 11.121112321653674 42.939422760676088 -49.35758511202225 -24.588702089994857 -3.8883515496752157 25.297747973828351 -65.503549936331964 -21.218823701789582 -6.8095413008756687 88.142800408440678 34.90424100216304 18.665466156696304 -0.95350166611281273 4.8257110379285173
leaf_weight=79 781 1058 60 950 1081 1857 327 898 970 634 144 748 293 1369 1712 1234 372 458 1510 515 67 437 255 83 646 74 107 221 566 435
leaf_count=79 781 1058 60 950 1081 1857 327 898 970 634 144 748 293 1369 1712 1234 372 458 1510 515 67 437 255 83 646 74 107 221 566 435
internal_value=0.0277336 -16.8528 80.5472 -1.04732 -42.0084 -6.09928 15.088 107.137 -34.7283 -53.4161 40.692 98.7516 113.346 -12.526 -1.68357 -38.7125 9.94228 38.3493 -51.061 -28.8461 -17.4147 24.2038 -68.5337 -30.9284 -9.79651 81.1138 27.1873 13.9328 -4.16648 1.11851
internal_weight=19941 16485 3456 10124 6361 7710 2414 2073 3883 2478 1383 882 1191 3140 4570 2315 1543 1239 2144 1568 1125 871 334 1053 2015 134 544 593 2423 2147
internal_count=19941 16485 3456 10124 6361 7710 2414 2073 3883 2478 1383 882 1191 3140 4570 2315 1543 1239 2144 1568 1125 871 334 1053 2015 134 544 593 2423 2147
is_linear=0
shrinkage=0.05


Tree=31
num_leaves=31
num_cat=0
split_feature=17 17 67 17 17 17 45 17 17 17 17 17 52 17 17 17 59 17 17 18 17 69 52 45 18 18 18 18 17 18
split_gain=9.78574e+09 2.47784e+09 1.12138e+09 3.52984e+08 2.17249e+08 7.68544e+07 4.18574e+07 3.95173e+07 3.80047e+07 3.5529e+07 3.33859e+07 1.41737e+07 1.27476e+07 1.19652e+07 7.61966e+06 7.00168e+06 6.59866e+06 6.38873e+06 6.02461e+06 4.56865e+06 3.50048e+06 3.4011e+06 3.36893e+06 3.34412e+06 3.16074e+06 3.15879e+06 3.05852e+06 2.89087e+06 2.85129e+06 2.84687e+06
threshold=114744.6067617894 109750.64051708872 119635.34500000002 112277.08914130139 107727.54901985805 111082.12781581875 113424.41000000002 106480.50298998444 116512.1489549081 108579.54977630488 121961.85088250476 110427.00025428382 120854.83500000001 111623.23169181914 105249.4458113507 107122.87961675139 122728.84000000001 112891.60172053344 109125.25657004963 0.00016787595880698335 115386.48161525191 0.00095366367217405827 117656.13500000001 108041.82500000001 0.00030918738108138015 -6.855354177828691e-06 0.0011351628540173626 -0.00011513663440307897 114308.04240503702 0.00021420447108760196
decision_type=2 2 2 2 2 2 2 2 2 2 2 2 2 2 2 2 2 2 2 2 2 2 2 2 2 2 2 2 2 2
left_child=1 4 8 5 7 11 17 14 20 19 12 24 21 27 -1 -9 -12 29 -11 23 -2 -4 -10 -6 -3 -13 -19 -7 -8 -5
right_child=2 3 10 6 9 13 28 15 22 18 16 25 -14 -15 -16 -17 -18 26 -20 -21 -22 -23 -24 -25 -26 -27 -28 -29 -30 -31
leaf_value=-70.254135359296157 35.729288538331126 -16.334666613467675 90.849376262318003 8.0311044677656938 -39.258509305905662 -4.6327395875770749 24.316673050820828 -48.187768918515999 56.450211718749998 -27.765400366168407 109.26943574595387 -9.7603208630244467 100.69051026762202 3.0901751304488974 -57.417507227455701 -42.280416454352121 120.8718653663429 15.975326329572253 -21.328145799917337 -31.868161078373276 42.163682259034012 75.58001125169838 69.799309419330811 -34.461074085428258 -10.083732872378471 -6.2035251936638005 29.847627258300783 -1.0996323593151542 30.374811089979175 14.13669169038636
leaf_weight=161 699 824 176 548 671 873 384 1638 125 861 363 1241 1246 1719 410 723 185 523 629 753 303 46 76 792 268 1256 43 1719 393 293
leaf_count=161 699 824 176 548 671 873 384 1638 125 861 363 1241 1246 1719 410 723 185 523 629 753 303 46 76 792 268 1256 43 1719 393 293
internal_value=0.0263468 -15.3414 79.8584 0.274446 -39.0639 -4.64418 18.0662 -49.2334 41.6554 -31.0183 102.655 -10.0491 98.7238 -0.14443 -61.0369 -46.3788 113.186 12.9223 -25.0479 -35.0327 37.675 87.6855 61.4976 -36.6614 -14.8006 -7.97124 17.0292 -2.2896 27.3808 10.1583
internal_weight=19941 16722 3219 10084 6638 7900 2184 2932 1203 3706 2016 3589 1468 4311 571 2361 548 1407 1490 2216 1002 222 201 1463 1092 2497 566 2592 777 841
internal_count=19941 16722 3219 10084 6638 7900 2184 2932 1203 3706 2016 3589 1468 4311 571 2361 548 1407 1490 2216 1002 222 201 1463 1092 2497 566 2592 777 841
is_linear=0
shrinkage=0.05


Tree=32
num_leaves=31
num_cat=0
split_feature=46 46 45 46 46 46 42 46 46 46 45 42 46 52 46 45 42 45 46 18 18 18 45 18 20 54 45 18 18 18
split_gain=8.83138e+09 2.17485e+09 1.12423e+09 2.73168e+08 2.00101e+08 5.91149e+07 3.8264e+07 3.70774e+07 3.59172e+07 3.11152e+07 2.06546e+07 2.02411e+07 1.13133e+07 8.83182e+06 8.13988e+06 7.83477e+06 6.52761e+06 6.39172e+06 5.2159e+06 5.07025e+06 4.27572e+06 3.47252e+06 3.35633e+06 2.98388e+06 2.97196e+06 2.95134e+06 2.76504e+06 2.74945e+06 2.66549e+06 2.61133e+06
threshold=114660.53500000002 109892.70500000002 117879.51500000001 112167.91000000002 107838.81000000001 111032.17000000001 113119.15400000002 106528.79000000002 121794.64500000002 108628.94500000002 120427.91500000001 115667.46100000001 111529.79000000002 122713.09000000001 110581.58 107145.19000000002 105238.41500000002 108998.84000000001 113654.56500000002 0.00021420447108760196 -0.00016958823710327712 4.123560749892811e-05 121279.94000000002 -0.00045602723146822443 -0.00011351202000723901 0.31124713295371392 112473.88000000002 7.3396356486514733e-05 0.00029152359980489425 -2.1136396653631177e-05
decision_type=2 2 2 2 2 2 2 2 2 2 2 2 2 2 2 2 2 2 2 2 2 2 2 2 2 2 2 2 2 2
left_child=1 4 11 5 7 14 19 16 10 20 25 24 23 -10 27 -9 -1 28 -8 26 -6 -14 -12 -7 -2 -4 -5 -3 -11 -20
right_child=2 3 8 6 9 12 18 15 13 17 22 -13 21 -15 -16 -17 -18 -19 29 -21 -22 -23 -24 -25 -26 -27 -28 -29 -30 -31
leaf_value=-66.472065137780234 31.488494851085932 -15.265145662206653 66.464708516135147 5.0990100204365127 -36.237436115133356 -8.220850722214271 17.378423876142357 -45.4978041813944 102.09836269540243 -28.655305078471446 91.112055447594116 51.314668573397341 -0.23980330219025123 114.25749096916718 -7.9393806829414295 -39.089129412266352 -54.598998945662117 -20.667455755269756 21.981313795994666 13.841001150018537 -31.474516632493149 3.8190076822026442 96.471366266618702 -2.816924228595306 36.783979050709895 80.572177675545944 10.670378441923843 -10.546183121182382 -21.844832802828027 28.394061611428249
leaf_weight=161 469 717 67 540 725 290 323 1814 543 599 547 214 1216 206 1715 647 412 795 318 457 1346 930 627 2144 609 83 379 542 189 317
leaf_count=161 469 717 67 540 725 290 323 1814 543 599 547 214 1216 206 1715 647 412 795 318 457 1346 930 627 2144 609 83 379 542 189 317
internal_value=0.0250295 -14.9671 73.8763 -0.0721634 -36.9888 -4.69164 14.8788 -46.4801 96.6922 -29.108 91.742 37.2685 -1.12739 105.443 -10.1806 -43.813 -57.9351 -23.8306 22.5514 9.53697 -33.1419 1.51914 93.9743 -3.46078 34.4801 74.2708 7.39667 -13.2336 -27.0218 25.1826
internal_weight=19941 16576 3365 9888 6688 7554 2334 3034 2073 3654 1324 1292 4580 749 2974 2461 573 1583 958 1376 2071 2146 1174 2434 1078 150 919 1259 788 635
internal_count=19941 16576 3365 9888 6688 7554 2334 3034 2073 3654 1324 1292 4580 749 2974 2461 573 1583 958 1376 2071 2146 1174 2434 1078 150 919 1259 788 635
is_linear=0
shrinkage=0.05


Tree=33
num_leaves=31
num_cat=0
