tree
version=v4
num_class=1
num_tree_per_iteration=1
label_index=0
max_feature_idx=84
objective=regression
feature_names=return_1 return_2 return_5 return_10 log_return_1 log_return_5 momentum_5 momentum_10 momentum_20 acceleration_5 hl_range hl_range_pct oc_range oc_range_pct body_to_range gap gap_pct ema_5 price_to_ema_5 ema_10 price_to_ema_10 ema_20 price_to_ema_20 ema_50 price_to_ema_50 macd macd_signal macd_histogram rsi_7 rsi_14 rsi_21 stoch_k stoch_d bb_upper bb_middle bb_lower bb_width bb_position atr atr_pct volume_ma_20 volume_ratio close_mean_5 close_std_5 close_zscore_5 close_min_5 close_max_5 position_in_range_5 return_volatility_5 close_mean_10 close_std_10 close_zscore_10 close_min_10 close_max_10 position_in_range_10 return_volatility_10 close_mean_20 close_std_20 close_zscore_20 close_min_20 close_max_20 position_in_range_20 return_volatility_20 close_mean_50 close_std_50 close_zscore_50 close_min_50 close_max_50 position_in_range_50 return_volatility_50 trend_short trend_medium trend_long is_bullish upper_shadow_ratio lower_shadow_ratio consecutive_up volume_increasing hour minute day_of_week hour_sin hour_cos day_sin day_cos
feature_infos=[-0.036853574788713206:0.04619534062507169] [-0.037140054986575022:0.048488340097681881] [-0.067616378639265284:0.051692942456302404] [-0.10216162424466269:0.052855773567884512] [-0.037549827640545534:0.045160098326669687] [-0.070010938082998991:0.050401191915930982] [-260.58000000000038:183.41999999999962] [-398.32000000000016:201.85999999999967] [-377.36999999999989:331.9699999999998] [-280.79999999999973:395.62999999999965] [0.009999999999308784:491] [2.4381740025573478e-06:0.12073790284902107] [-137.5:169.28999999999996] [-0.036856156452373806:0.046135370928726271] [0:0.99999999999606615] [-21.409999999999854:13.170000000000073] [-0.0058775407117835918:0.0036685236768802432] [3557.7839544234798:4391.2926343636627] [-0.031981650710391531:0.029516484642403057] [3603.8163384095087:4390.2227768939065] [-0.047524029914825898:0.041752684291532123] [3654.0627532601675:4388.5513974177629] [-0.068826939652301702:0.057155423782952006] [3688.4604791377969:4385.1479142920471] [-0.094581684312264935:0.067945285924709636] [-106.38809147753727:62.544016709623065] [-82.250622653752004:54.27439392563268] [-34.078558197256214:31.064414686270155] [0.53411747224954809:99.356226721187554] [3.0804781740676219:97.221901743507047] [6.2202317829276836:95.017973285700236] [0:100] [0:100] [3696.7685095542311:4404.4588547777767] [3624.4720000000002:4388.5445] [3417.2861494072731:4383.7117543491195] [0.044576797994229291:15.901907758324715] [-0.49801699640573388:1.5042746743671604] [0.41077007133332993:181.13758807174301] [0.00010440210225780403:0.044542102873548074] [24:10091.75] [0.021511158913674909:15.296988713120209] [3551.0659999999998:4391.5300000000007] [0.0044701341445851552:86.74177061823147] [-1.7887084072395281:1.7887985847537295] [3488.8800000000001:4390.0100000000002] [3623.1399999999999:4392.6700000000001] [0:0.9999999999994158] [2.4698658076395975e-05:0.026264001148313967] [3584.9929999999999:4390.1880000000001] [0.24040705105210611:130.26209574461217] [-2.7887539648142532:2.8043812012500609] [3488.8800000000001:4387.5900000000001] [3658.0500000000002:4392.6700000000001] [0:0.99999999999963018] [7.660985038562441e-05:0.021786561405860484] [3624.4720000000002:4388.5445] [0.43920861555953855:149.79791906711921] [-3.9920679855619325:4.0170986973044043] [3488.8800000000001:4385.0100000000002] [3691.7199999999998:4392.6700000000001] [0:0.99999999999972289] [0.0001324159197934864:0.017512645450823573] [3684.6016:4385.2184000000007] [0.75588185195861535:166.17944753689534] [-6.0315477517493417:5.7805916432141551] [3488.8800000000001:4376.04] [3711.3200000000002:4392.6700000000001] [0:0.99999999999982681] [0.00016970648274278283:0.014300323963410345] [-1:1] [-1:1] [-1:1] [0:1] [0:0.99999999996610167] [0:0.99999999997663547] [0:11] [0:1] [0:23] [0:59] [0:6] [-1:1] [-1:1] [-0.97492791218182362:0.97492791218182362] [-0.90096886790241903:1]
tree_sizes=2752 2802 2811 2807 2815 2804 2798 2800 2799 2797 2798 2805 2803 2798 2796 2793 2803 2806 2797 2809 2803 2794 2801 2805 2803 2805 2807 2821 2818 2802 2831 2832 2841 2836 2828 2857 2814 2830 2856 2843 2823 2851 2851 2828 2833 2822 2870 2854 2878 2887 2840 2870 2849 2872 2873 2881 2880 2862 2866 2869 2845 2871 2861 2865 2873 2875 2887 2878 2872 2876 2878 2857 2857 2880 2886 2851 2828 2846 2879 2854 2869 2865 2853 2862 2884 2868 2884 2885 2858 2868 2878 2876 2896 2859 2886 2888 2859 2871 2846 2843 2855 2857 2788 2858 2848 2851 2863 2900 2870 2238 2882 2866 2878 2877 2873 2878 2848 2864 2861 2858 2276 2442 2102 1909 2693 2853 2856 2531 2254 2085 1829 2345 2258 2860 2864 2855 2520 2854 2865 2519 2239 2506 2614 2847 2170 2065 1817 2025 1627 1902 1839 1668 1836 1579 1914 1902 1785 2336 2149 1986 1719 2098 1721 1553 1713 2701 2447 2683 2345 1297 1465 1454 1792 1456 1815 1363 1464 1565 1469 1484 1811 1718 2408 2069 1717 1897 1702 1364 1363 1370 1882 1368 1470 1471 1895 2498 1623 1638 1799 1710 1480 2163 1361 1475 1617 1706 1611 1625 1460 2126 1372 1640 1484 1491 1816 2037 1706 1795 1724 2851 1561 2158 2581 2062 1979 2627 2516 1370 1368 1547 1794 2812 1792 2441 2219 1105 1453 1642 1555 1716 2329 2230 2269 1818 1981 2352 2160 1920 1466 2012 2046 1379 1572 1885 1284 1961

Tree=0
num_leaves=31
num_cat=0
split_feature=17 46 17 17 17 17 17 17 17 17 17 46 17 17 17 17 17 17 17 17 17 17 17 8 17 17 46 17 45 17
split_gain=3.11025e+08 5.14917e+07 3.767e+07 1.07531e+07 8.22374e+06 5.91212e+06 4.57358e+06 2.39602e+06 1.59486e+06 1.50026e+06 859013 568759 430235 389781 305959 258243 258212 230467 195173 137544 130801 128442 115200 97165.7 86633.9 84695.5 73012.7 68949.9 61991.5 58312.5
threshold=4017.4097214810845 3902.0350000000003 4188.993731317566 3814.9583446527154 4095.9713272604431 4273.9499279544534 3959.6606372461756 3855.6383977619748 3766.4262647724013 4140.4784968579606 4056.1012771568221 3937.4550000000004 3987.7872113795297 4232.0729317003261 3877.1378450264406 3835.1624355495637 4119.4273240870561 3729.2351556083026 4352.3430467770195 4162.3218874134718 3919.845395575805 3793.4376615551596 4077.3297742842533 59.664999999999743 4035.742894170246 3975.4675062891188 3949.7100000000005 4001.581878128578 4207.1350000000011 3709.1259658703898
decision_type=2 2 2 2 2 2 2 2 2 2 2 2 2 2 2 2 2 2 2 2 2 2 2 2 2 2 2 2 2 2
left_child=1 3 4 8 10 13 11 15 17 16 24 20 25 28 -9 -5 -6 29 -7 -11 23 -10 -12 -3 -2 -8 -13 -14 -4 -1
right_child=2 6 5 7 9 18 12 14 21 19 22 26 27 -15 -16 -17 -18 -19 -20 -21 -22 -23 -24 -25 -26 -27 -28 -29 -30 -31
leaf_value=3967.9636180767388 3984.7714594510571 3978.8018693551717 3993.3958216513984 3974.681217884463 3988.8607574106836 4000.0577195993014 3981.7829721672147 3976.7536359764649 3972.5691037505412 3991.0028813338226 3986.7740678412579 3980.4024359914342 3983.1112203544862 3995.9922921569132 3977.7110459905903 3975.6888944599173 3989.8978973514418 3970.8509290863503 4001.790482365293 3992.0147927582398 3979.7910057618265 3973.7020800864434 3987.7539343700387 3982.3408080832191 3985.6926642329495 3982.4999542482356 3981.0184823640316 3983.8525725954187 3994.401554706631 3969.5554946766929
leaf_weight=85 516 642 311 1306 1231 445 710 1761 427 776 707 986 788 345 1586 1239 1171 531 256 592 1150 604 521 20 505 981 939 521 302 178
leaf_count=85 516 642 311 1306 1231 445 710 1761 427 776 707 986 788 345 1586 1239 1171 531 256 592 1150 604 521 20 505 981 939 521 302 178
internal_value=3982.4 3978.08 3990.53 3975.29 3988.69 3997.2 3981.27 3976.33 3971.94 3990.12 3986.3 3980.1 3982.73 3994.65 3977.21 3975.17 3989.37 3970.25 4000.69 3991.44 3979.47 3973.23 3987.19 3978.91 3985.23 3982.2 3980.7 3983.41 3993.89 3969.04
internal_weight=22132 14454 7678 7717 6019 1659 6737 5892 1825 3770 2249 3737 3000 958 3347 2545 2402 794 701 1368 1812 1031 1228 662 1021 1691 1925 1309 613 263
internal_count=22132 14454 7678 7717 6019 1659 6737 5892 1825 3770 2249 3737 3000 958 3347 2545 2402 794 701 1368 1812 1031 1228 662 1021 1691 1925 1309 613 263
is_linear=0
shrinkage=1


Tree=1
num_leaves=31
num_cat=0
split_feature=17 46 17 17 46 66 17 17 17 17 17 46 17 45 17 17 17 17 17 17 46 17 17 17 17 46 17 23 17 17
split_gain=2.807e+08 4.64792e+07 3.40064e+07 9.54787e+06 7.75341e+06 4.84448e+06 4.30885e+06 2.30984e+06 1.5135e+06 1.20017e+06 803211 576626 389307 303169 274806 256028 224042 176717 169498 165433 149768 120491 112982 84866 78187 75538.6 54762.7 50370.6 54670.2 47016.4
threshold=4017.4097214810845 3899.8250000000003 4195.9851418836779 3809.1661046350491 4100.6350000000011 4259.8900000000012 3959.6606372461756 3854.2740230474633 4140.4784968579606 3758.2591787247461 4056.1012771568221 3936.4950000000003 3988.9786544404537 4232.7650000000003 3874.2901110090711 3833.5670919812915 4122.0513006669362 4166.873470747495 3721.8727713859635 4352.3430467770195 3909.8650000000002 3788.4425588349382 4077.3297742842533 3975.4675062891188 4035.742894170246 3949.7100000000005 4003.0711077517799 3881.5427346471943 3923.6165957478997 3884.9727603968881
decision_type=2 2 2 2 2 2 2 2 2 2 2 2 2 2 2 2 2 2 2 2 2 2 2 2 2 2 2 2 2 2
left_child=1 3 4 9 10 13 11 15 16 18 24 20 23 -4 -9 -5 -6 -10 -1 -7 -3 -11 -12 -8 -2 -13 -14 -22 -29 -16
right_child=2 6 5 7 8 19 12 14 17 21 22 25 26 -15 29 -17 -18 -19 -20 -21 27 -23 -24 -25 -26 -27 -28 28 -30 -31
leaf_value=-13.089380946439855 2.2474282475404963 -3.8007376242767807 11.128784532329112 -7.4388534714678221 6.2127593017578135 16.814881408132731 -0.59163479253249562 -5.4701393730332049 8.2699097235577916 -9.6193369786133402 4.148872143958851 -1.9311980314545878 0.7428444864789292 13.076300053782276 -4.8231930259713334 -6.4503771691864973 7.1972071859040261 9.4243690251369099 -11.278641281411025 18.415498447418212 -0.22046855744861424 -8.4824241875688688 5.1037383763686472 0.11355643673520195 3.1225726643175182 -1.3179000606679054 1.4424255090924454 -3.0763500492495321 -2.4425774421821647 -4.3064666129447318
leaf_weight=170 516 352 569 1390 1375 437 710 1585 947 421 706 1079 787 308 873 1239 997 510 539 256 21 522 552 1069 505 939 434 554 882 888
leaf_count=170 516 352 569 1390 1375 437 710 1585 947 421 706 1079 787 308 873 1239 997 510 539 256 21 522 552 1069 505 939 434 554 882 888
internal_value=-0.00759086 -4.11162 7.71834 -6.79414 6.03129 14.2817 -1.11476 -5.86393 7.40564 -10.1586 3.72222 -2.22692 0.303987 11.8127 -4.99252 -6.973 6.62654 8.67401 -11.7128 17.4062 -2.87515 -8.99 4.56786 -0.167886 2.68029 -1.64582 0.991508 -2.65153 -2.68708 -4.56263
internal_weight=22132 14454 7678 7627 6108 1570 6827 5975 3829 1652 2279 3827 3000 877 3346 2629 2372 1457 709 693 1809 943 1258 1779 1021 2018 1221 1457 1436 1761
internal_count=22132 14454 7678 7627 6108 1570 6827 5975 3829 1652 2279 3827 3000 877 3346 2629 2372 1457 709 693 1809 943 1258 1779 1021 2018 1221 1457 1436 1761
is_linear=0
shrinkage=0.05


Tree=2
num_leaves=31
num_cat=0
split_feature=42 46 42 46 46 66 46 46 46 46 46 46 46 45 42 42 46 46 42 46 42 46 46 46 46 45 42 8 42 42
split_gain=2.53312e+08 4.20862e+07 3.06028e+07 8.61712e+06 6.93771e+06 4.37341e+06 3.91621e+06 1.74058e+06 1.43637e+06 1.28137e+06 791075 566610 319212 273961 212653 201705 196175 195596 148960 142640 137091 124130 118878 75062 71602.9 65580.1 64975.3 53620.3 53183.5 46562.3
threshold=4018.2210000000005 3899.8250000000003 4196.1930000000002 3820.5100000000007 4103.3500000000013 4259.8900000000012 3965.0400000000004 3860.3100000000004 3773.5200000000004 4147.8750000000009 4061.5000000000005 3937.4550000000004 3994.8850000000007 4232.7650000000003 3879.1440000000007 4122.1090000000013 3841.7050000000004 3740.9000000000005 4351.5600000000013 3909.8650000000002 4172.1900000000014 3799.8150000000005 4085.0750000000003 4041.0550000000007 3949.7100000000005 3698.1300000000006 3977.4720000000002 59.664999999999743 3923.7820000000006 3868.0710000000004
decision_type=2 2 2 2 2 2 2 2 2 2 2 2 2 2 2 2 2 2 2 2 2 2 2 2 2 2 2 2 2 2
left_child=1 3 4 8 10 13 11 16 17 15 23 19 26 -4 29 -6 -5 25 -7 -3 -11 -10 -12 -2 -13 -1 -8 28 -21 -9
right_child=2 6 5 7 9 18 12 14 21 20 22 24 -14 -15 -16 -17 -18 -19 -20 27 -22 -23 -24 -25 -26 -27 -28 -29 -30 -31
leaf_value=-13.100015258789064 2.1674262272260427 -3.6107005834579469 10.571160073439559 -6.8865454872599869 5.9498465957402811 15.976520604521173 -0.45573799087316902 -5.3227073182888383 -8.8608875239660971 8.0070006565784855 4.0373416801394546 -1.8065841815957677 1.0012277341305196 12.422484615870886 -4.2145447996820096 6.8741000611019221 -5.9955413481864994 -10.2632488216132 17.49659314922258 -2.9140832085491493 9.158095700046859 -7.7870229219135485 5.0057912293919982 3.0181124832606554 -1.2124361798110137 -11.473497844349254 0.16282007868505752 0.076427521705627444 -2.3034823959793789 -4.8245120706290843
leaf_weight=80 533 352 569 1319 1278 438 691 835 436 1016 788 986 1117 308 1306 1097 1162 441 255 566 347 703 530 505 1044 275 1101 20 964 1070
leaf_count=80 533 352 569 1319 1278 438 691 835 436 1016 788 986 1117 308 1306 1097 1162 441 255 566 347 703 530 505 1044 275 1101 20 964 1070
internal_value=-0.00721132 -3.90045 7.34239 -6.45444 5.7387 13.5672 -1.05302 -5.47454 -9.33691 7.07805 3.6137 -2.082 0.337821 11.2213 -4.70597 6.37675 -6.46924 -10.9665 16.5359 -2.70209 8.30005 -8.19809 4.42678 2.5813 -1.50102 -11.84 -0.0756976 -2.49574 -2.52936 -5.04288
internal_weight=22132 14468 7664 7627 6094 1570 6841 5692 1935 3738 2356 3932 2909 877 3211 2375 2481 796 693 1902 1363 1139 1318 1038 2030 355 1792 1550 1530 1905
internal_count=22132 14468 7664 7627 6094 1570 6841 5692 1935 3738 2356 3932 2909 877 3211 2375 2481 796 693 1902 1363 1139 1318 1038 2030 355 1792 1550 1530 1905
is_linear=0
shrinkage=0.05


Tree=3
num_leaves=31
num_cat=0
split_feature=17 46 17 17 17 17 17 17 17 17 17 17 17 17 17 17 17 17 45 17 17 46 17 46 21 17 17 45 17 22
split_gain=2.28659e+08 3.71017e+07 2.82122e+07 7.79146e+06 6.43839e+06 4.3537e+06 3.33536e+06 1.78365e+06 1.17411e+06 1.08091e+06 648810 472508 291188 278626 224796 188660 187975 145135 145039 139831 117808 114229 83785.1 69820.6 64488.5 61925.7 53334.1 49443.2 49273.6 40987.9
threshold=4014.7114270079796 3899.8250000000003 4188.993731317566 3812.5651917082109 4092.9651001461616 4273.9499279544534 3959.6606372461756 3854.2740230474633 4134.3154846083107 3758.2591787247461 4052.7589314679713 3932.6314005019531 4225.6303721179202 3985.383240692895 3874.2901110090711 3835.1624355495637 4155.3870641249123 4114.3970263577867 4343.0400000000018 3721.8727713859635 3788.4425588349382 3909.8650000000002 4072.0933798409751 3948.4500000000003 3888.9361528042923 4030.3490085622798 3998.0482574282682 4244.8350000000009 3971.8410145754401 -0.0059867839779738545
decision_type=2 2 2 2 2 2 2 2 2 2 2 2 2 2 2 2 2 2 2 2 2 2 2 2 2 2 2 2 2 2
left_child=1 3 4 9 10 12 11 15 17 19 25 21 -4 28 -9 -5 -10 -6 -7 29 -11 -3 -12 -13 -23 -2 -15 -14 -8 -1
right_child=2 6 5 7 8 18 13 14 16 20 22 23 27 26 -16 -17 -18 -19 -20 -21 -22 24 -24 -25 -26 -27 -28 -29 -30 -31
leaf_value=-13.951317176818847 1.8232847379796646 -3.4301656947894532 9.710359836347175 -6.6531623484074389 5.3462472437335986 15.019483347870116 -0.6293026497502896 -4.9366813557381137 7.0372889448956748 -8.6812256285243823 3.575861539453026 -1.7889059062389767 10.931792077271071 0.47248204659891924 -4.1158904077247218 -5.7877368681534485 8.0873380661010739 6.1725144654487085 16.46267667024032 -10.18045841705379 -7.5934839518003674 0.32953225090390159 4.4015335312883712 -1.2136721039307306 -2.4628389240554833 2.6118676347462788 1.0929659497245285 12.004145415400117 -0.029055174972067499 -11.541624710083008
leaf_weight=20 425 352 528 1392 969 379 528 1585 861 421 615 1088 217 810 1761 1150 844 1177 322 539 609 21 614 1024 1342 601 605 213 970 150
leaf_count=20 425 352 528 1392 969 379 528 1585 861 421 615 1088 217 810 1761 1150 844 1177 322 539 609 21 614 1024 1342 601 605 213 970 150
internal_value=-0.00685073 -3.74315 6.90615 -6.13171 5.3352 12.6881 -1.04025 -5.26322 6.57761 -9.07232 3.21345 -2.01065 10.497 0.234638 -4.5047 -6.26164 7.55708 5.79942 15.6824 -10.5748 -8.03809 -2.62719 3.98836 -1.51 -2.41982 2.28521 0.737777 11.463 -0.240624 -11.8251
internal_weight=22132 14367 7765 7627 6106 1659 6740 5888 3851 1739 2255 3827 958 2913 3346 2542 1705 2146 701 709 1030 1715 1229 2112 1363 1026 1415 430 1498 170
internal_count=22132 14367 7765 7627 6106 1659 6740 5888 3851 1739 2255 3827 958 2913 3346 2542 1705 2146 701 709 1030 1715 1229 2112 1363 1026 1415 430 1498 170
is_linear=0
shrinkage=0.05


Tree=4
num_leaves=31
num_cat=0
split_feature=17 42 17 17 17 17 33 17 17 17 17 17 17 17 17 17 17 17 17 17 17 17 17 17 17 17 17 20 22 17
split_gain=2.06365e+08 3.47704e+07 2.45585e+07 7.05148e+06 5.58638e+06 3.3601e+06 3.19855e+06 1.54017e+06 1.10249e+06 1.062e+06 675238 496225 287718 192535 172579 171836 161869 141195 126426 126242 125245 123466 102843 82113.8 65615.3 56018.8 47027.5 46068.4 44807.5 43260
threshold=4020.8683604097828 3895.9310000000009 4201.9873267642124 3814.9583446527154 4102.2366769730261 3962.7946270491348 4300.5933534703299 3855.6383977619748 4143.0999593963525 3758.2591787247461 4065.7772242152419 3934.4425383045868 3993.1148180643263 3879.0876831008959 4241.762526986894 3837.2229381269954 4169.4269516667482 4124.9480650805626 3729.2351556083026 4362.0329057111239 3914.7063117376315 3788.4425588349382 4042.1266459598737 4082.6822687193539 3947.220795879909 3979.7623837844667 4332.3339230133097 0.0039130308462762154 -0.0050030717967681267 3867.8792706490053
decision_type=2 2 2 2 2 2 2 2 2 2 2 2 2 2 2 2 2 2 2 2 2 2 2 2 2 2 2 2 2 2
left_child=1 3 4 9 10 11 14 15 17 18 22 20 25 29 -4 -5 -10 -6 28 26 27 -11 -2 -12 -13 -7 -8 -3 -1 -9
right_child=2 5 6 7 8 12 19 13 16 21 23 24 -14 -15 -16 -17 -18 -19 -20 -21 -22 -23 -24 -25 -26 -27 -28 -29 -30 -31
leaf_value=-12.845021876582393 2.1009472161883247 -3.1394322497799245 9.7439158363487337 -6.2643053391400514 5.4663071680253079 -0.32575334681223583 13.843719369561009 -4.8262279713221963 7.1815348602719684 -8.2471643488650663 3.8264950673572304 -1.6185639016190718 1.024616420569874 -3.7821204192556808 11.316589451932359 -5.4388348066527152 8.2835748355821295 6.272345978989561 -9.5333504608393778 16.084737545320358 -2.1813283081558965 -7.162133818701875 3.0260155344244297 4.6469172306868467 -1.0612772635124517 0.22717085865920272 14.857982620368936 -0.69849963188171393 -10.694790316436251 -4.3519297207418512
leaf_weight=27 593 577 526 1394 1295 801 169 875 934 421 606 1068 1050 1315 261 1151 518 936 446 174 1286 695 609 614 1045 1070 353 20 236 1067
leaf_count=27 593 577 526 1394 1295 801 169 875 934 421 606 1068 1050 1315 261 1151 518 936 446 174 1286 695 609 614 1045 1070 353 20 236 1067
internal_value=-0.00650819 -3.49389 6.6778 -5.82206 5.27584 -0.926743 12.4492 -4.9694 6.50237 -8.53282 3.41072 -1.86894 0.362202 -4.24929 10.2655 -5.89098 7.57469 5.80447 -10.0461 14.9184 -2.45917 -7.57145 2.56964 4.2394 -1.34295 -0.00954335 14.5296 -3.05766 -10.9155 -4.56563
internal_weight=22132 14544 7588 7627 6105 6917 1483 5802 3683 1825 2422 3996 2921 3257 787 2545 1452 2231 709 696 1883 1116 1202 1220 2113 1871 522 597 263 1942
internal_count=22132 14544 7588 7627 6105 6917 1483 5802 3683 1825 2422 3996 2921 3257 787 2545 1452 2231 709 696 1883 1116 1202 1220 2113 1871 522 597 263 1942
is_linear=0
shrinkage=0.05


Tree=5
num_leaves=31
num_cat=0
split_feature=17 46 17 17 17 35 17 46 17 17 17 17 17 17 46 17 17 17 17 17 17 17 17 46 46 17 17 17 17 50
split_gain=1.85626e+08 2.9554e+07 2.30522e+07 6.0492e+06 5.40011e+06 3.53145e+06 2.9485e+06 1.42039e+06 1.01137e+06 757631 479583 441386 296311 252238 208476 155578 140648 125390 119663 115321 86691.7 85244.9 67075.9 67017.1 65367.7 45100.5 41322.9 41107.1 39505.5 37368.7
threshold=4014.7114270079796 3895.7250000000004 4188.993731317566 3809.1661046350491 4090.3729942742707 4262.6887343915632 3955.71173480982 3853.3900000000008 4134.3154846083107 3752.5786450596097 4049.1018267641039 3925.3853246086996 3981.8649622597964 4225.6303721179202 3873.6100000000001 4158.0984724668597 4112.9554024256577 3828.9458154316967 4344.4309404300575 3780.2403255090053 3939.8750290694929 3709.1259658703898 4068.1146399905183 3999.4450000000002 3909.8650000000002 3967.7302292852205 4252.8553300633821 4030.3490085622798 3882.5476817202493 17.569751179643522
decision_type=2 2 2 2 2 2 2 2 2 2 2 2 2 2 2 2 2 2 2 2 2 2 2 2 2 2 2 2 2 2
left_child=1 3 4 9 10 13 11 17 16 21 27 24 25 -4 -9 -10 -6 -5 -7 -11 -13 -1 -12 -14 -3 -8 -15 -2 -16 -26
right_child=2 6 5 7 8 18 12 14 15 19 22 20 23 26 28 -17 -18 -19 -20 -21 -22 -23 -24 -25 29 -27 -28 -29 -30 -31
leaf_value=-11.177626609802246 1.6383808018643853 -3.1530948603264641 8.7593294948679414 -6.1849921933363783 4.7442607195568485 13.534194018923003 -0.74955797559849113 -4.6285690354822471 6.3951852859334748 -8.1846050937195667 3.0506920906805224 -1.8708710469083194 0.29404796116234133 9.9753694819653145 -4.0486154897311861 7.3561898222757041 5.5500567453585257 -5.4465553554237314 14.852125151066486 -7.0771661796233731 -1.2870167009664852 -9.4576786357894722 3.7984424506110708 0.93020810921768282 -2.4845592673181276 -0.17359669758921409 10.964045133643388 2.2882684320099793 -3.5993133493545479 -0.34347287132626492
leaf_weight=84 447 535 526 1051 948 348 606 1495 940 359 527 1307 993 254 1085 763 1263 1269 341 681 1238 506 696 710 689 774 181 534 891 21
leaf_count=84 447 535 526 1051 948 348 606 1495 940 359 527 1307 993 254 1085 763 1263 1269 341 681 1238 506 696 710 689 774 181 534 891 21
internal_value=-0.0116584 -3.39265 6.20975 -5.58063 4.79524 11.4546 -1.03022 -4.82327 5.90995 -8.27137 2.81566 -1.96426 0.118015 9.49599 -4.18307 6.82575 5.20456 -5.78108 14.1865 -7.45945 -1.58686 -9.70255 3.47623 0.55927 -2.73573 -0.426519 10.3867 1.99214 -3.84602 -2.42123
internal_weight=22062 14294 7768 7421 6118 1650 6873 5791 3914 1630 2204 3790 3083 961 3471 1703 2211 2320 689 1040 2545 590 1223 1703 1245 1380 435 981 1976 710
internal_count=22062 14294 7768 7421 6118 1650 6873 5791 3914 1630 2204 3790 3083 961 3471 1703 2211 2320 689 1040 2545 590 1223 1703 1245 1380 435 981 1976 710
is_linear=0
shrinkage=0.05


Tree=6
num_leaves=31
num_cat=0
split_feature=17 46 17 17 17 49 17 46 17 17 17 46 46 17 46 17 17 17 17 17 17 17 46 17 17 17 17 17 17 17
split_gain=1.67539e+08 2.61151e+07 2.11881e+07 5.46169e+06 4.9979e+06 3.44354e+06 2.52119e+06 1.35729e+06 828110 614686 484658 398616 270776 236511 188443 142559 129267 110830 103579 86210.1 78923.2 70965.8 67364.8 61347.3 45875.3 44470 43147.9 40703.2 39276.5 39182.2
threshold=4011.1788665681911 3895.7250000000004 4182.0311647968874 3806.5310306834049 4090.3729942742707 4275.2410000000009 3955.71173480982 3853.3900000000008 4130.9349065891147 3752.5786450596097 4049.1018267641039 3929.4800000000005 4226.1450000000013 3981.8649622597964 3872.7550000000006 4152.988567915826 3827.8954194357161 4362.0329057111239 4111.457737056814 3774.0239870944738 3721.8727713859635 3941.6926705555593 3909.8650000000002 4070.1416918307509 4030.3490085622798 3994.7279353770086 4252.8553300633821 3967.7302292852205 3882.5476817202493 4332.3339230133097
decision_type=2 2 2 2 2 2 2 2 2 2 2 2 2 2 2 2 2 2 2 2 2 2 2 2 2 2 2 2 2 2
left_child=1 3 4 9 10 12 11 16 18 20 24 22 -4 27 -9 -10 -5 29 -6 -11 -1 -13 -3 -12 -2 -15 -14 -8 -16 -7
right_child=2 6 5 7 8 17 13 14 15 19 23 21 26 25 28 -17 -18 -19 -20 -21 -22 -23 -24 -25 -26 -27 -28 -29 -30 -31
leaf_value=-10.122647697047185 1.5193749640906991 -2.9954401884346367 8.1933274087689512 -5.9366249518043794 4.4733823855260715 12.491603208843031 -0.71208005443664124 -4.4198639329861518 5.927364950833824 -7.9221900741406976 2.9497409211696168 -1.7204125102043832 9.4312822683233968 0.26516037213725702 -3.8597842439042829 6.8219641270460913 -5.1975155555500709 14.563733603737573 5.1921943851419403 -6.8656370804323785 -8.8479907670851841 -1.1770349842043404 -2.2708431280805228 3.6579937134666007 2.1738549873623509 0.7979154228274502 10.416767480871179 -0.16491686699211658 -3.419347757495748 13.419017787273328
leaf_weight=171 537 535 573 1047 869 171 606 1408 919 269 614 1403 285 943 1172 864 1360 176 1184 684 419 1051 801 609 534 670 182 774 891 341
leaf_count=171 537 535 573 1047 869 171 606 1408 919 269 614 1403 285 943 1172 864 1360 176 1184 684 419 1051 801 609 534 670 182 774 891 341
internal_value=-0.0110755 -3.2519 5.84699 -5.3016 4.46851 10.7371 -1.00941 -4.60663 5.57256 -7.94909 2.62232 -1.86604 8.92168 0.0753369 -3.97392 6.36087 -5.51901 13.4813 4.88793 -7.16387 -9.21743 -1.48769 -2.56101 3.30242 1.8457 0.486454 9.81535 -0.405193 -3.66956 13.1093
internal_weight=22062 14204 7858 7421 6130 1728 6783 5878 3836 1543 2294 3790 1040 2993 3471 1783 2407 688 2053 953 590 2454 1336 1223 1071 1613 467 1380 2063 512
internal_count=22062 14204 7858 7421 6130 1728 6783 5878 3836 1543 2294 3790 1040 2993 3471 1783 2407 688 2053 953 590 2454 1336 1223 1071 1613 467 1380 2063 512
is_linear=0
shrinkage=0.05


Tree=7
num_leaves=31
num_cat=0
split_feature=17 46 45 17 17 17 17 17 17 17 17 17 17 45 17 17 17 45 17 17 17 17 17 7 46 17 17 22 17 17
split_gain=1.51204e+08 2.35689e+07 1.91252e+07 4.93164e+06 4.63251e+06 2.93433e+06 2.27681e+06 1.09491e+06 807548 685359 437404 343018 237487 211094 170139 138934 130644 101663 92475.5 87547.2 68595.4 55370 54371.9 50783.6 50549.5 43609.6 41402.5 35718.7 34948.1 31654.9
threshold=4011.1788665681911 3895.7250000000004 4183.2350000000006 3812.5651917082109 4090.3729942742707 4273.9499279544534 3954.525826267407 3858.4847903714895 4137.2848246506937 3766.4262647724013 4049.1018267641039 3923.6165957478997 3979.7623837844667 4225.6350000000011 3838.9925615454008 4114.3970263577867 3735.193904850797 4349.1850000000004 4158.0984724668597 3876.0870587674349 3939.8750290694929 4068.1146399905183 3793.4376615551596 41.634999999999998 3996.4700000000003 3911.1914034791321 4030.3490085622798 -0.0059867839779738545 4207.4495376032692 3825.2163425621379
decision_type=2 2 2 2 2 2 2 2 2 2 2 2 2 2 2 2 2 2 2 2 2 2 2 2 2 2 2 2 2 2
left_child=1 3 4 9 10 13 11 14 15 16 26 23 -8 28 29 -6 27 -7 -10 -9 -13 -12 -11 25 -14 -3 -2 -1 -4 -5
right_child=2 6 5 7 8 17 12 19 18 22 21 20 24 -15 -16 -17 -18 -19 -20 -21 -22 -23 -24 -25 -26 -27 -28 -29 -30 -31
leaf_value=-11.132576585852583 1.4434062198109689 -2.806567144183242 7.5459484032944317 -5.6282611345840721 4.3131236530617239 12.350794093667528 -0.46999592399834988 -3.9195105284613536 5.8418986810286953 -6.8847520402229296 2.7506704819044083 -1.7056039000483061 0.18194611452054232 9.4482858815144013 -4.5937237680251002 5.0839769751121997 -7.9203201125268228 13.61973777833532 6.622806857221871 -3.3709320767275934 -1.183555347894564 3.4300472506161395 -6.1245330106644404 -0.070415287926083522 0.71764728260002564 -2.1764399094074771 2.0651622456111265 -9.0906186548459953 8.316223174352988 -5.1769419643521726
leaf_weight=23 537 679 283 708 1035 447 1297 1480 773 441 527 1391 995 388 1222 1343 441 244 744 1430 1149 696 504 21 790 461 534 311 307 861
leaf_count=23 537 679 283 708 1035 447 1297 1480 773 441 527 1391 995 388 1222 1343 441 244 744 1430 1149 696 504 21 790 461 534 311 307 861
internal_value=-0.0105217 -3.08931 5.55464 -5.03652 4.27369 10.3047 -0.958939 -4.32854 5.3235 -7.38316 2.4912 -1.79489 0.0449036 8.54245 -5.03608 4.74847 -8.48528 12.7989 6.22489 -3.64993 -1.46945 3.1373 -6.4793 -2.50687 0.419035 -2.55175 1.75341 -9.23123 7.94675 -5.3806
internal_weight=22062 14204 7858 7421 6189 1669 6783 5701 3895 1720 2294 3701 3082 978 2791 2378 775 691 1517 2910 2540 1223 945 1161 1785 1140 1071 334 590 1569
internal_count=22062 14204 7858 7421 6189 1669 6783 5701 3895 1720 2294 3701 3082 978 2791 2378 775 691 1517 2910 2540 1223 945 1161 1785 1140 1071 334 590 1569
is_linear=0
shrinkage=0.05


Tree=8
num_leaves=31
num_cat=0
split_feature=17 46 17 46 17 35 17 17 17 17 17 46 46 17 17 17 17 17 17 17 17 17 17 17 2 17 17 17 17 17
split_gain=1.36463e+08 2.1729e+07 1.69565e+07 4.61744e+06 4.15871e+06 2.347e+06 2.00437e+06 857536 854189 752037 435557 318376 149031 148243 117906 117851 111754 95319.5 94356.9 92351.7 88192.7 65334.3 65206.5 56250.8 41804.5 40549.5 34371.9 33612.2 27808.3 27061.2
threshold=4014.7114270079796 3899.8250000000003 4195.9851418836779 3823.6550000000002 4095.9713272604431 4262.6887343915632 3961.3973432073781 3766.4262647724013 3859.7980630640172 4140.4784968579606 4052.7589314679713 3932.5950000000007 3990.6400000000008 4232.0729317003261 3735.193904850797 4118.1453530389217 3841.5104850628127 3881.2807419539354 3797.7330709124403 4362.0329057111239 4164.3581540523555 3944.7744528422259 4074.4218949814335 3914.7063117376315 0.0074348777625316007 4032.7702839264466 4332.3339230133097 3709.1259658703898 3971.8410145754401 4001.581878128578
decision_type=2 2 2 2 2 2 2 2 2 2 2 2 2 2 2 2 2 2 2 2 2 2 2 2 2 2 2 2 2 2
left_child=1 3 4 7 10 13 11 14 16 15 25 23 28 -4 27 -6 -5 -10 -9 26 -11 -13 -12 24 -3 -2 -7 -1 -8 -14
right_child=2 6 5 8 9 19 12 18 17 20 22 21 29 -15 -16 -17 -18 -19 -20 -21 -22 -23 -24 -25 -26 -27 -28 -29 -30 -31
leaf_value=-9.6349881853376118 1.4571462839283749 -2.5646571347524505 7.7218073517199191 -4.9639606023233007 4.2513952296340918 11.250934769386468 -0.46736531959093636 -6.4887327982191882 -3.6332837280256927 5.7419969918592919 2.7914168660976375 -1.4391771582027444 0.44986872043661252 9.0515879110856492 -7.5243041806210202 4.9566512675530356 -4.2933640810934168 -3.053330056412102 -5.6214900711347475 13.154560019753198 6.5329731462013676 -0.92051668054143276 3.4993965901337662 -1.8694697820303734 -0.24047841310501097 2.0716116020414566 12.117874897260471 -8.4789240951538094 0.010083553937160686 0.94673698333924861
leaf_weight=84 534 593 518 1377 1114 172 423 518 1848 848 689 1303 803 352 441 1265 1132 1149 795 176 603 1137 616 912 20 540 341 250 1093 416
leaf_count=84 534 593 518 1377 1114 172 423 518 1848 848 689 1303 803 352 441 1265 1132 1149 795 176 603 1137 616 912 20 540 341 250 1093 416
internal_value=-0.00999564 -2.90889 5.3243 -4.74 4.15373 9.98628 -0.833443 -6.74212 -3.98076 5.17358 2.51185 -1.5517 0.207829 8.25983 -8.06102 4.62641 -4.6614 -3.41094 -5.96363 12.1663 6.07071 -1.19749 3.1256 -2.11843 -2.48883 1.7661 11.8272 -8.76967 -0.123136 0.619432
internal_weight=22062 14294 7768 7594 6209 1559 6700 2088 5506 3830 2379 3965 2735 870 775 2379 2509 2997 1313 689 1451 2440 1305 1525 613 1074 513 334 1516 1219
internal_count=22062 14294 7768 7594 6209 1559 6700 2088 5506 3830 2379 3965 2735 870 775 2379 2509 2997 1313 689 1451 2440 1305 1525 613 1074 513 334 1516 1219
is_linear=0
shrinkage=0.05


Tree=9
num_leaves=31
num_cat=0
split_feature=17 46 17 17 17 49 17 17 17 17 17 17 46 17 17 17 17 46 17 17 17 46 46 23 46 45 45 17 17 46
split_gain=1.23163e+08 1.92022e+07 1.55976e+07 3.95759e+06 3.67604e+06 2.53133e+06 1.93752e+06 966710 655526 456918 317245 316554 199599 193660 137500 104083 92956 86264.9 82721.2 68905.4 64528.3 60768.2 45596 42464.1 41569.5 34932.5 31212.4 27563.8 25666.7 24565.3
threshold=4011.1788665681911 3894.3150000000005 4182.0311647968874 3806.5310306834049 4086.3987782948916 4275.2410000000009 3954.525826267407 3848.9374172180969 4130.9349065891147 3752.5786450596097 3919.845395575805 4045.918187878397 4226.1450000000013 3979.7623837844667 3869.8143335096643 4150.5456052257605 4107.8968864564649 3832.9900000000002 4362.0329057111239 3938.7340100626475 3780.2403255090053 3714.3250000000003 4069.7250000000008 3862.8997442537188 3998.0250000000005 4244.8350000000009 4332.2700000000013 3965.0779749775606 4027.4093304841363 3740.9000000000005
decision_type=2 2 2 2 2 2 2 2 2 2 2 2 2 2 2 2 2 2 2 2 2 2 2 2 2 2 2 2 2 2
left_child=1 3 4 9 11 12 10 17 16 21 23 28 -4 27 -9 -10 -6 -5 26 -12 -11 -1 -13 -3 -15 -14 -7 -8 -2 -23
right_child=2 6 5 7 8 18 13 14 15 20 19 22 25 24 -16 -17 -18 -19 -20 -21 -22 29 -24 -25 -26 -27 -28 -29 -30 -31
leaf_value=-9.1488205494600177 1.2513578085042951 -0.098191416263580328 7.0270310779724658 -5.0493815625724148 3.7272470002246991 10.750674875537356 -0.66748135503430195 -3.7963912538108184 5.0512680167514556 -6.67068209209814 -1.5896940921876519 2.4011549442155022 7.9918064667006679 0.18401803360204105 -3.1566714996071976 5.8166836955559944 4.4104727124321395 -4.4449195080142623 12.496831971948797 -1.0850814719866162 -5.8215971107033369 -8.0490749074898513 3.0132900962600484 -2.424131118323686 0.67749086182575047 8.8567368148209216 11.551558948553408 -0.20575050099810627 1.7645302065363471 -7.3515868461608891
leaf_weight=85 451 20 573 1180 788 199 612 1475 838 359 1496 560 236 1079 1951 945 1352 1181 176 1235 594 255 666 1041 706 231 313 685 530 250
leaf_count=85 451 20 573 1180 788 199 612 1475 838 359 1496 560 236 1079 1951 945 1352 1181 176 1235 594 255 666 1041 706 231 313 685 530 250
internal_value=-0.00949586 -2.78818 5.0132 -4.56848 3.83048 9.20887 -0.889775 -3.96856 4.74886 -6.81845 -1.64656 2.19803 7.65237 0.0413453 -3.43209 5.45694 4.15889 -4.74702 11.5617 -1.3615 -6.14145 -7.91197 2.73369 -2.38029 0.379196 8.41964 11.2403 -0.423622 1.52861 -7.70378
internal_weight=22062 14204 7858 7330 6130 1728 6874 5787 3923 1543 3792 2207 1040 3082 3426 1783 2140 2361 688 2731 953 590 1226 1061 1785 467 512 1297 981 505
internal_count=22062 14204 7858 7330 6130 1728 6874 5787 3923 1543 3792 2207 1040 3082 3426 1783 2140 2361 688 2731 953 590 1226 1061 1785 467 512 1297 981 505
is_linear=0
shrinkage=0.05


Tree=10
num_leaves=31
num_cat=0
split_feature=17 17 17 17 17 34 17 17 17 17 17 17 17 17 45 17 17 17 17 17 17 17 17 45 17 17 17 42 17 42
split_gain=1.10782e+08 1.76999e+07 1.39706e+07 3.65274e+06 3.25772e+06 2.27309e+06 1.78891e+06 694510 623536 591891 288118 282660 181416 174027 103957 103088 95404.1 83800.4 73595.9 62401.2 56251.9 55229.9 43008.2 38529.2 32863.3 32603.8 32164.2 29065.7 26731.9 25124.2
threshold=4011.1788665681911 3891.3802255662627 4182.0311647968874 3816.9165623614449 4086.3987782948916 4274.8517500000007 3954.525826267407 3858.4847903714895 3766.4262647724013 4130.9349065891147 3921.8530366878886 4049.1018267641039 3981.8649622597964 4217.8086541398552 3698.1300000000006 3838.9925615454008 4152.988567915826 4105.8120407742308 4344.4309404300575 3875.1539566961806 3937.8695106720238 3797.7330709124403 3741.9585783239104 4244.8350000000009 3993.1148180643263 4065.7772242152419 3969.8148176014006 4027.7490000000003 4373.9285458280474 3901.9060000000004
decision_type=2 2 2 2 2 2 2 2 2 2 2 2 2 2 2 2 2 2 2 2 2 2 2 2 2 2 2 2 2 2
left_child=1 3 4 8 11 13 10 15 14 17 29 27 26 -4 -1 -5 -11 -6 -7 -9 -12 -10 -16 -15 -14 -13 -8 -2 -20 -3
right_child=2 6 5 7 9 18 12 19 21 16 20 25 24 23 22 -17 -18 -19 28 -21 -22 -23 -24 -25 -26 -27 -28 -29 -30 -31
leaf_value=-8.8871296052009203 1.1971297120729376 -2.4867474372676384 6.6159177686836861 -4.5707842350048962 3.4982118603858083 10.462635452498251 -0.56705748050748395 -3.3777223456928667 -5.8472351357340813 4.8264214923817628 -1.5063111358646983 2.3019786951493244 0.1996439134355894 7.5437092950899318 -7.4988744093024211 -3.9412221932391667 5.5577017095292049 4.163546658883134 11.247976617594713 -2.9070454379734603 -1.0407246942551416 -5.1507476458397745 -6.7064786532345941 8.4198976100574843 0.64396622449233942 2.8502576237375088 -0.10026348668629609 1.7307838325371396 12.259526097089395 -2.013113973250515
leaf_weight=93 449 519 511 1391 704 335 783 1422 544 930 1299 441 865 292 345 1221 857 1444 262 1395 1296 597 340 220 802 704 698 591 87 608
leaf_count=93 449 519 511 1391 704 335 783 1422 544 930 1299 441 865 292 345 1221 857 1444 262 1395 1296 597 340 220 802 704 698 591 87 608
internal_value=-0.0163426 -2.64617 4.76083 -4.35198 3.64519 8.76064 -0.821675 -3.6892 -6.22705 4.50481 -1.56369 2.0971 0.0556426 7.26869 -7.31853 -4.27649 5.17712 3.94549 10.992 -3.14464 -1.27379 -5.48282 -7.10557 7.9202 0.413409 2.63909 -0.347056 1.50039 11.5001 -2.23123
internal_weight=22045 14218 7827 7348 6120 1707 6870 5429 1919 3935 3722 2185 3148 1023 778 2612 1787 2148 684 2817 2595 1141 685 512 1667 1145 1481 1040 349 1127
internal_count=22045 14218 7827 7348 6120 1707 6870 5429 1919 3935 3722 2185 3148 1023 778 2612 1787 2148 684 2817 2595 1141 685 512 1667 1145 1481 1040 349 1127
is_linear=0
shrinkage=0.05


Tree=11
num_leaves=31
num_cat=0
split_feature=46 46 17 17 46 33 17 17 17 17 17 17 46 46 17 17 17 17 45 17 17 46 17 17 17 17 6 17 45 17
split_gain=9.99971e+07 1.68072e+07 1.21121e+07 3.61009e+06 2.89417e+06 1.53553e+06 1.47943e+06 730586 613001 551556 341614 195449 129170 114671 97572.9 84790.6 79477.4 76860.4 65386.6 64013.6 55650.9 50312.1 40515.3 35627.7 34978 33812.9 33874.4 26054.9 25929 19513.2
threshold=4022.8550000000005 3904.0450000000005 4201.9873267642124 3822.3581955044351 4105.4100000000008 4300.5933534703299 3962.7946270491348 3774.0239870944738 3862.4472618472887 4148.2707776997004 4059.566168625076 3934.4425383045868 3993.4100000000003 3740.9000000000005 4126.619526456735 4241.762526986894 3844.4200572949831 3884.9727603968881 4359.9350000000004 4171.8731564727414 3801.0816931860891 4081.7900000000004 3709.1259658703898 3947.220795879909 4042.1266459598737 3919.845395575805 30.205000000000158 4005.0816044516237 4332.2700000000013 3977.1423538732083
decision_type=2 2 2 2 2 2 2 2 2 2 2 2 2 2 2 2 2 2 2 2 2 2 2 2 2 2 2 2 2 2
left_child=1 3 4 7 10 15 11 13 16 14 24 25 29 22 -6 -4 -5 -10 28 -11 -9 -12 -1 -13 -2 26 -3 -14 -7 -8
right_child=2 6 5 8 9 18 12 20 17 19 21 23 27 -15 -16 -17 -18 -19 -20 -21 -22 -23 -24 -25 -26 -27 -28 -29 -30 -31
leaf_value=-8.4615546216021524 1.4335193405222537 -2.0245539600124949 6.8202985902197941 -4.174131896934564 3.8213547054937744 9.7082793328069883 -0.27053466108729268 -5.4109907982291681 -3.0501788379227528 5.1200864988248025 2.5300563870763488 -1.1423322402388001 0.47526401964141779 -6.3830790371221546 4.4623006596284753 7.9231895331616675 -3.6089385132883445 -2.5183481015994316 11.337264027595522 5.8700391658258333 -4.7626887172287891 3.1400471461804167 -7.2363470289442278 -0.72786237444875335 2.0134051307229437 -1.4917010379392048 0.068006920814514163 0.96893133012776456 10.444491768452659 0.087968490559776458
leaf_weight=91 670 586 509 1402 1421 186 607 537 1952 845 652 1033 831 517 1020 265 1118 1042 160 429 863 702 261 1041 425 1118 20 394 335 1013
leaf_count=91 670 586 509 1402 1421 186 607 537 1952 845 652 1033 831 517 1020 265 1118 1042 160 429 863 702 261 1041 425 1118 20 394 335 1013
internal_value=-0.0155255 -2.46281 4.61823 -4.03953 3.64966 8.7215 -0.615518 -5.71822 -3.34875 4.52932 2.31526 -1.26132 0.246608 -6.85701 4.08918 7.1979 -3.92338 -2.86509 10.4532 5.37262 -5.01136 2.84631 -7.55309 -0.934298 1.65859 -1.65473 -1.95549 0.634044 10.1817 -0.0463595
internal_weight=22045 14426 7619 7783 6164 1455 6643 2269 5514 3715 2449 3798 2845 869 2441 774 2520 2994 681 1274 1400 1354 352 2074 1095 1724 606 1225 521 1620
internal_count=22045 14426 7619 7783 6164 1455 6643 2269 5514 3715 2449 3798 2845 869 2441 774 2520 2994 681 1274 1400 1354 352 2074 1095 1724 606 1225 521 1620
is_linear=0
shrinkage=0.05


Tree=12
num_leaves=31
num_cat=0
split_feature=46 46 17 17 17 33 17 17 17 17 17 17 46 17 17 17 17 17 45 17 17 17 17 17 20 10 17 46 17 45
split_gain=9.02474e+07 1.51685e+07 1.09312e+07 3.2581e+06 2.61477e+06 1.38581e+06 1.33518e+06 659354 553233 480895 326985 176839 116576 104048 81781.5 76523.5 71728.3 69585.1 59011.4 58337.4 50224.9 42942.2 40965.3 36066.1 35767.5 31007.6 26842.2 23879.3 23514.6 23401
threshold=4022.8550000000005 3904.0450000000005 4201.9873267642124 3822.3581955044351 4102.2366769730261 4300.5933534703299 3962.7946270491348 3774.0239870944738 3862.4472618472887 4148.2707776997004 4063.1704008996439 3936.7445073451399 3993.4100000000003 3729.2351556083026 4126.619526456735 4241.762526986894 3844.4200572949831 3883.4886204689733 4359.9350000000004 4176.5192191769756 3801.0816931860891 4082.6822687193539 4042.1266459598737 3919.845395575805 -0.0027759951269866723 26.610000000000131 3951.0951396330888 3752.4350000000004 4005.0816044516237 4332.2700000000013
decision_type=2 2 2 2 2 2 2 2 2 2 2 2 2 2 2 2 2 2 2 2 2 2 2 2 2 2 2 2 2 2
left_child=1 3 4 7 10 15 11 13 16 14 22 23 -8 24 -6 -4 -5 -10 29 -11 -9 -12 -2 25 -1 -3 -13 -15 -14 -7
right_child=2 6 5 8 9 18 12 20 17 19 21 26 28 27 -16 -17 -18 -19 -20 -21 -22 -23 -24 -25 -26 -27 -28 -29 -30 -31
leaf_value=-8.9150002717971812 1.3618433818977271 -1.9271359776797412 6.4792836921856782 -3.9654252354071589 3.6471995660861625 9.2228653179701947 -0.044041565544369714 -5.1404413299631591 -2.9093785976276965 4.8986233499201237 2.498363388759989 -1.0143602882711187 0.45150082442913964 -6.5145840387380618 4.2391857102338006 7.5270300177808087 -3.4284915726598557 -2.4120224398569898 10.770400776863099 5.6614155849979504 -4.5245543284322265 3.0693720174534702 1.9555536195781031 -1.3902560215538451 -7.130396593918447 -0.0149840615012429 -0.63240593169075066 -5.8821058054678685 0.9204847720068724 9.9222671144400074
leaf_weight=32 670 584 509 1402 1363 186 1620 537 1865 931 710 1117 831 263 1020 265 1118 1129 160 343 863 614 513 1293 229 22 782 345 394 335
leaf_count=32 670 584 509 1402 1363 186 1620 537 1865 931 710 1117 831 263 1020 265 1118 1129 160 343 863 614 513 1293 229 22 782 345 394 335
internal_value=-0.0147492 -2.33967 4.38731 -3.83755 3.46717 8.28543 -0.584742 -5.43231 -3.18131 4.31982 2.2234 -1.19825 0.234278 -6.51416 3.90059 6.83801 -3.72721 -2.72183 9.93051 5.10399 -4.76079 2.76317 1.6193 -1.53943 -7.3492 -1.85772 -0.857073 -6.15569 0.602341 9.67258
internal_weight=22045 14426 7619 7783 6164 1455 6643 2269 5514 3657 2507 3798 2845 869 2383 774 2520 2994 681 1274 1400 1324 1183 1899 261 606 1899 608 1225 521
internal_count=22045 14426 7619 7783 6164 1455 6643 2269 5514 3657 2507 3798 2845 869 2383 774 2520 2994 681 1274 1400 1324 1183 1899 261 606 1899 608 1225 521
is_linear=0
shrinkage=0.05


Tree=13
num_leaves=31
num_cat=0
split_feature=46 46 42 46 46 66 46 46 46 42 42 46 42 46 46 46 46 42 42 46 42 46 46 46 42 42 42 10 2 42
split_gain=8.145e+07 1.28843e+07 1.03783e+07 2.68436e+06 2.48196e+06 1.67032e+06 1.27685e+06 625862 399392 338773 255647 214391 133619 123789 80104.2 70200.2 64313.2 58316.3 54947.1 53691.6 48187.2 35482.1 33841.9 33394.9 28938.1 25987.9 25570.7 25304.5 21323.5 15575.7
threshold=4014.4200000000005 3894.3150000000005 4181.8290000000006 3811.6500000000005 4095.1700000000005 4259.8900000000012 3957.6000000000008 3854.5500000000006 4138.7650000000003 3752.6700000000005 4049.3600000000001 3928.0300000000002 4218.2180000000017 3982.2450000000003 3873.6100000000001 3835.1200000000003 4118.2050000000008 3707.9900000000002 4155.5560000000014 4356.9350000000004 3783.8030000000003 4074.2050000000004 3909.8650000000002 3943.8650000000002 4253.1370000000006 3995.0570000000002 4027.7490000000003 18.545000000000076 -0.0044298031312434696 4326.4260000000004
decision_type=2 2 2 2 2 2 2 2 2 2 2 2 2 2 2 2 2 2 2 2 2 2 2 2 2 2 2 2 2 2
left_child=1 3 4 9 10 12 11 15 16 17 26 22 -4 -8 -9 -5 -6 28 -10 29 -11 -12 -3 -13 -14 -15 -2 -24 -1 -7
right_child=2 6 5 7 8 19 13 14 18 20 21 23 24 25 -16 -17 -18 -19 -20 -21 -22 -23 27 -25 -26 -27 -28 -29 -30 -31
leaf_value=-8.9849033702503558 1.0099138546407225 -2.1207713111729536 5.6633799374923264 -4.0833178834089869 3.1689494865447223 8.4846076873411622 -0.3523086280533646 -3.0598623963528677 4.2135207435680746 -5.3636353964240229 2.0580789899678424 -1.2185232423001453 6.5334338859693553 0.15822641781181349 -2.5607427801806892 -3.5488605575397809 3.7107476868325096 -6.2672516898080417 4.7978161035582074 10.026976441555336 -4.6649663056306094 2.5880324098284575 -1.6633845007329957 -0.84510580226137311 7.3211350044507659 0.54947438238699298 1.4949846268501603 0.14166229248046877 -7.2062740061018209 9.2456235961051991
leaf_weight=22 500 619 509 1300 1026 83 1216 1414 838 447 646 1402 338 1199 1863 1165 1175 510 774 244 551 618 665 1045 178 657 595 20 72 354
leaf_count=22 500 619 509 1300 1026 83 1216 1414 838 447 646 1402 338 1199 1863 1165 1175 510 774 244 551 618 665 1045 178 657 595 20 72 354
internal_value=-0.0140117 -2.28038 4.06159 -3.73377 3.10747 7.51341 -0.716 -3.22885 3.89612 -5.54355 1.83272 -1.335 6.23817 0.0398147 -2.77611 -3.83072 3.45819 -6.47818 4.49407 9.43283 -4.9779 2.31719 -1.85282 -1.05905 6.80516 0.296723 1.27349 -1.61068 -7.62255 9.10108
internal_weight=22045 14167 7878 7344 6172 1706 6823 5742 3813 1602 2359 3751 1025 3072 3277 2465 2201 604 1612 681 998 1264 1304 2447 516 1856 1095 685 94 437
internal_count=22045 14167 7878 7344 6172 1706 6823 5742 3813 1602 2359 3751 1025 3072 3277 2465 2201 604 1612 681 998 1264 1304 2447 516 1856 1095 685 94 437
is_linear=0
shrinkage=0.05


Tree=14
num_leaves=31
num_cat=0
split_feature=46 46 17 17 17 33 17 17 17 46 46 17 46 17 45 17 17 17 45 17 17 17 17 17 17 10 17 17 18 2
split_gain=7.35119e+07 1.23562e+07 8.91262e+06 2.66258e+06 2.13408e+06 1.12682e+06 1.09196e+06 537211 451717 352280 313641 155149 87265.2 86162.7 62636.4 58496.8 57966.3 53740.5 49289 46970.7 43630.7 40231.3 36254.5 30572.6 29817 31341.6 24999.6 19691.3 19412.3 15732.4
threshold=4022.8550000000005 3904.0450000000005 4201.9873267642124 3822.3581955044351 4105.8120407742308 4300.5933534703299 3965.0779749775606 3774.0239870944738 3862.4472618472887 4152.6400000000012 4066.9300000000003 3936.7445073451399 3740.9000000000005 3993.1148180643263 4232.7650000000003 3886.0421683275376 3842.9190876944099 4126.619526456735 4359.9350000000004 4171.8731564727414 4082.6822687193539 3801.0816931860891 4042.1266459598737 3709.1259658703898 3917.6433308714254 26.610000000000131 3951.0951396330888 4339.503964563125 0.0024686092051321609 -0.0044298031312434696
decision_type=2 2 2 2 2 2 2 2 2 2 2 2 2 2 2 2 2 2 2 2 2 2 2 2 2 2 2 2 2 2
left_child=1 3 4 7 10 14 11 12 16 17 22 24 23 -8 -4 -10 -5 -6 27 -11 -12 -9 -2 29 25 -3 -13 -7 -14 -1
right_child=2 6 5 8 9 18 13 21 15 19 20 26 28 -15 -16 -17 -18 -19 -20 -21 -22 -23 -24 -25 -26 -27 -28 -29 -30 -31
leaf_value=-8.4783913021995918 1.2277260039368674 -1.791891256441553 5.807691275483819 -3.5953295579253024 3.3359701355699745 8.3984294012250231 0.020569700491882264 -4.6388466321778257 -2.6061244153906351 4.3924584312393398 2.2666359307313004 -0.91533219289157997 -5.5328693127872972 0.60042276114181314 6.7261260751767455 -2.1316705600912651 -3.1154409352931807 3.8295842844496897 9.7305318498611459 5.0359001097423501 2.8135045523570881 -4.087628557729003 1.7771700406775754 -6.2137975203123128 -1.2691111844273084 0.22678005695343018 -0.5581994326356351 9.0145996285857048 -4.0149808916178618 -6.9180165972028469
leaf_weight=21 670 498 465 1303 1188 243 1740 537 2041 837 679 1117 495 1014 309 953 1217 1029 160 429 788 863 544 261 1381 20 873 278 22 70
leaf_count=21 670 498 465 1303 1188 243 1740 537 2041 837 679 1117 495 1014 309 953 1217 1029 160 429 788 863 544 261 1381 20 873 278 22 70
internal_value=-0.0133111 -2.11162 3.95968 -3.46353 3.12883 7.47953 -0.527711 -4.9052 -2.87029 3.94507 2.06842 -1.06716 -5.88171 0.234067 6.17435 -2.4551 -3.36357 3.56508 8.96294 4.6105 2.56039 -4.29906 1.47393 -6.48894 -1.39045 -1.71395 -0.75866 8.72721 -5.46828 -7.2781
internal_weight=22045 14426 7619 7783 6164 1455 6643 2269 5514 3483 2681 3889 869 2754 774 2994 2520 2217 681 1266 1467 1400 1214 352 1899 518 1990 521 517 91
internal_count=22045 14426 7619 7783 6164 1455 6643 2269 5514 3483 2681 3889 869 2754 774 2994 2520 2217 681 1266 1467 1400 1214 352 1899 518 1990 521 517 91
is_linear=0
shrinkage=0.05


Tree=15
num_leaves=31
num_cat=0
split_feature=17 46 17 17 17 45 17 17 17 17 17 46 17 17 46 17 17 17 17 17 17 46 17 46 46 17 17 45 17 2
split_gain=6.67701e+07 1.06744e+07 8.07415e+06 2.27557e+06 2.03521e+06 1.14769e+06 974178 500121 360786 350208 230892 154606 95200 87709 72995.8 54532.9 52625.3 46583.2 41385.3 36813.8 35843.8 29000.2 28636 27921 26644.9 22392 18923.9 16776.6 16351.7 16315
threshold=4014.7114270079796 3899.8250000000003 4195.9851418836779 3823.9548256420699 4098.4381791147853 4319.9900000000007 3958.2574198209395 3774.0239870944738 3864.8671757142324 4140.4784968579606 4056.1012771568221 3931.7750000000005 3986.4669610367264 4232.0729317003261 3740.9000000000005 3845.6918422953509 4120.5496431053762 4166.873470747495 3801.0816931860891 4373.9285458280474 3881.2807419539354 4079.0750000000003 3911.1914034791321 4037.9850000000001 3945.6350000000007 3971.8410145754401 3709.1259658703898 4255.1750000000011 4212.9961448835111 0.0031028105709528524
decision_type=2 2 2 2 2 2 2 2 2 2 2 2 2 2 2 2 2 2 2 2 2 2 2 2 2 2 2 2 2 2
left_child=1 3 4 7 10 13 11 14 15 16 23 22 25 28 26 -5 -6 -11 -9 -7 -10 -12 -3 -2 -13 -8 -1 -15 -4 -16
right_child=2 6 5 8 9 19 12 18 20 17 21 24 -14 27 29 -17 -18 -19 -20 -21 -22 -23 -24 -25 -26 -27 -28 -29 -30 -31
leaf_value=-6.8078352975845338 1.0095592100551165 -1.8234238599940817 5.1084001412069 -3.3625702510661934 3.0258963992715966 8.4193025630155045 -0.38399229489564596 -4.4173378745561402 -2.4871281329323267 4.0335455499534492 2.0027834330232914 -1.0249653292281484 0.43132878798495322 6.0934352594778076 -5.3066584803549093 -2.9062357435116462 3.50071643785382 4.6241798008298414 -3.8656586859537208 9.536570380715764 -2.1158862208076146 2.4778554717392609 -1.3541029853509003 1.5038905270196297 -0.68676545615010764 -0.00096919541135229268 -5.9288384960072253 6.7640335059604766 5.6665366493136728 -4.5001901992379798
leaf_weight=80 552 513 266 1421 1209 556 610 518 1496 949 638 1204 1284 218 445 1214 1128 515 989 85 1150 647 887 592 1128 1019 261 163 259 73
leaf_count=80 552 513 266 1421 1209 556 610 518 1496 949 638 1204 1284 218 445 1214 1128 515 989 85 1150 647 887 592 1128 1019 261 163 259 73
internal_value=-0.0129743 -2.04173 3.71532 -3.31552 2.91251 6.94836 -0.575866 -4.60412 -2.73819 3.63494 1.78202 -1.11073 0.109373 5.80284 -5.56697 -3.15233 3.25508 4.24132 -4.05529 8.56746 -2.32578 2.24198 -1.52608 1.26537 -0.861376 -0.144397 -6.13505 6.38033 5.38375 -5.19301
internal_weight=22069 14292 7777 7647 6230 1547 6645 2366 5281 3801 2429 3732 2913 906 859 2635 2337 1464 1507 641 2646 1285 1400 1144 2332 1629 341 381 525 518
internal_count=22069 14292 7777 7647 6230 1547 6645 2366 5281 3801 2429 3732 2913 906 859 2635 2337 1464 1507 641 2646 1285 1400 1144 2332 1629 341 381 525 518
is_linear=0
shrinkage=0.05


Tree=16
num_leaves=31
num_cat=0
split_feature=17 46 17 17 46 35 17 17 17 17 46 17 46 45 17 17 17 53 46 17 46 17 46 17 17 17 18 46 28 17
split_gain=6.02709e+07 9.26048e+06 7.54206e+06 1.91178e+06 1.88776e+06 1.23453e+06 940770 406302 283050 278168 215159 151122 134419 98638.1 56492.1 45910.9 43831.4 43273.6 42256.3 36318.5 34894.1 26710.5 25474.9 24957.8 22397.6 16536.2 14688.5 13684 13491.6 12149.3
threshold=4007.3667136112904 3893.2300000000005 4182.0311647968874 3812.5651917082109 4098.4700000000012 4262.6887343915632 3950.0651101519684 3851.5574355299773 3758.2591787247461 4135.8530424697092 4054.7750000000005 3917.6433308714254 3976.4600000000005 4218.3450000000003 3869.8143335096643 3830.063053369181 4114.3970263577867 4353.0700000000006 3735.7950000000005 4158.0984724668597 3794.5500000000006 4072.0933798409751 3990.6400000000008 3933.3302271787766 4027.4093304841363 4252.8553300633821 0.0015956274503042365 4377.8450000000003 32.012485658746222 4207.4495376032692
decision_type=2 2 2 2 2 2 2 2 2 2 2 2 2 2 2 2 2 2 2 2 2 2 2 2 2 2 2 2 2 2
left_child=1 3 4 8 10 13 11 15 18 16 24 28 -8 29 -9 -5 -6 -7 -1 -11 -10 -12 -14 -13 -2 -15 -24 -19 -3 -4
right_child=2 6 5 7 9 17 12 14 20 19 21 23 22 25 -16 -17 -18 27 -20 -21 -22 -23 26 -25 -26 -27 -28 -29 -30 -31
leaf_value=-5.9578042164444929 0.84662700372099187 -2.0341129189950449 4.6994684504366466 -3.4954120316170334 2.7401820742927789 7.7188309080088491 -0.46156142550258183 -2.6380244521036724 -4.484167181607547 3.6599034910833383 1.8071522016510884 -1.1841970928026748 0.013038845217022938 5.6385753230044715 -2.2083097963660925 -3.0543594611916922 3.1915401827621168 8.3232643998376865 -5.1450056794663555 4.1456079288460748 -3.9021519085509713 2.262739931335449 0.31948822172437913 -0.86115651913677105 1.2877125196100951 6.2531852878325171 1.188944237839942 9.0944979154146637 -1.6238985690022496 5.1748324076334633
leaf_weight=256 521 270 348 1053 916 377 1267 1298 441 861 663 1110 1034 304 1862 1342 1303 219 426 696 619 625 1022 1296 643 171 51 78 778 219
leaf_count=256 521 270 348 1053 916 377 1267 1298 441 861 663 1110 1034 304 1862 1342 1303 219 426 696 619 625 1022 1296 643 171 51 78 778 219
internal_value=-0.0123255 -1.97188 3.47191 -3.2103 2.66322 6.40693 -0.648401 -2.75709 -4.65552 3.3647 1.58297 -1.22847 -0.054583 5.32833 -2.38482 -3.24828 3.00522 8.07443 -5.4501 3.87702 -4.14429 2.02823 0.190145 -1.01019 1.09029 5.85983 0.360814 8.52581 -1.72958 4.88307
internal_weight=22069 14125 7944 7297 6228 1716 6828 5555 1742 3776 2452 3454 3374 1042 3160 2395 2219 674 682 1557 1060 1288 2107 2406 1164 475 1073 297 1048 567
internal_count=22069 14125 7944 7297 6228 1716 6828 5555 1742 3776 2452 3454 3374 1042 3160 2395 2219 674 682 1557 1060 1288 2107 2406 1164 475 1073 297 1048 567
is_linear=0
shrinkage=0.05


Tree=17
num_leaves=31
num_cat=0
split_feature=17 46 17 17 17 35 17 17 17 17 17 17 46 45 17 17 17 46 45 17 46 17 17 46 17 17 18 17 23 17
split_gain=5.43945e+07 8.3584e+06 6.80671e+06 1.70493e+06 1.69378e+06 1.11416e+06 886647 352165 292128 256352 152772 151764 121313 89020.9 56496.1 47338.3 41694 40820.6 40227.3 32967.5 29327.5 25583.7 23300.1 19309.7 16533.3 14923.9 14599.6 14067.1 13164.7 12089.4
threshold=4007.3667136112904 3891.7950000000005 4182.0311647968874 4086.3987782948916 3812.5651917082109 4262.6887343915632 3950.0651101519684 3848.9374172180969 4132.5847112817728 3752.5786450596097 4045.918187878397 3914.7063117376315 3976.4600000000005 4218.3450000000003 3867.8792706490053 4109.6815043732731 4155.3870641249123 3789.6950000000002 4338.7850000000008 3830.063053369181 3735.7950000000005 3933.3302271787766 3986.4669610367264 4069.7250000000008 4373.9285458280474 4252.8553300633821 0.00011664293721540184 4027.4093304841363 3863.6594172399823 3709.1259658703898
decision_type=2 2 2 2 2 2 2 2 2 2 2 2 2 2 2 2 2 2 2 2 2 2 2 2 2 2 2 2 2 2
left_child=1 4 3 10 9 13 11 19 15 20 27 28 -8 -4 -9 -5 -10 -11 -7 -6 29 -13 -14 -12 -20 -15 -19 -2 -3 -1
right_child=2 6 5 8 7 18 12 14 16 17 23 21 22 25 -16 -17 -18 26 24 -21 -22 -23 -24 -25 -26 -27 -28 -29 -30 -31
leaf_value=-6.1695532941818243 0.80429564490199335 -0.41833963021636011 4.6389208771774593 2.4845174853971432 -3.3206414424908921 7.2054205128062865 -0.43848335783226289 -2.5555166432896002 3.4165090963101621 -4.363789142342501 1.5990598447446978 -1.138489814799279 0.0040234446207195462 5.3566465641322889 -2.129864107122152 2.956606193258291 3.909918193017361 -3.9481595557353217 7.8239348053172897 -2.9346155047109712 -4.9557238559722903 -0.81809869744099195 0.33717127589245421 2.0010899896207066 8.6100071088005521 5.9405260454144404 -3.4903157490950365 1.1706726522554256 -1.7135516894049037 -5.4282595352693042
leaf_weight=80 521 20 567 857 1053 275 1267 1301 939 430 557 1200 990 304 1945 1396 787 394 314 1165 350 1296 1117 644 85 171 312 527 1029 176
leaf_count=80 521 20 567 857 1053 275 1267 1301 939 430 557 1200 990 304 1945 1396 787 394 314 1165 350 1296 1117 644 85 171 312 527 1029 176
internal_value=-0.0117093 -1.87329 3.29831 2.53006 -3.06511 6.08658 -0.632029 -2.63228 3.15201 -4.42275 1.42968 -1.18422 -0.0518538 5.06192 -2.30047 2.77703 3.64149 -3.97974 7.67071 -3.11788 -5.2532 -0.972133 0.180638 1.81464 7.99139 5.56684 -3.74583 0.988533 -1.68886 -5.65991
internal_weight=22069 14125 7944 6228 7206 1716 6919 5464 3979 1742 2249 3545 3374 1042 3246 2253 1726 1136 674 2218 606 2496 2107 1201 399 475 706 1048 1049 256
internal_count=22069 14125 7944 6228 7206 1716 6919 5464 3979 1742 2249 3545 3374 1042 3246 2253 1726 1136 674 2218 606 2496 2107 1201 399 475 706 1048 1049 256
is_linear=0
shrinkage=0.05


Tree=18
num_leaves=31
num_cat=0
split_feature=46 46 17 17 46 17 46 17 46 17 17 46 17 46 17 17 17 17 17 17 17 17 46 17 46 17 17 17 20 22
split_gain=4.90913e+07 8.09406e+06 5.80027e+06 1.74218e+06 1.49819e+06 713474 663465 368797 309421 290418 162884 96706.3 67936.4 55527 49737.2 42007.3 37448 37315.3 36129.4 30410.1 28774 22111 22025 19157.9 15813.2 14315.7 13353.4 12482.2 12397.3 12184.1
threshold=4022.8550000000005 3904.0450000000005 4207.4495376032692 3823.9548256420699 4105.4100000000008 3961.3973432073781 4325.8350000000009 3774.0239870944738 4152.6400000000012 3863.8739498466653 4059.566168625076 3932.5950000000007 3988.9786544404537 3747.1600000000003 4123.455156808358 4176.5192191769756 4241.762526986894 3883.4886204689733 3844.4200572949831 3803.821892336096 4362.0329057111239 4082.6822687193539 3945.6350000000007 4039.0496000906019 3714.3250000000003 4003.0711077517799 3914.7063117376315 3971.8410145754401 0.00074353005128853229 0.0051767124845257459
decision_type=2 2 2 2 2 2 2 2 2 2 2 2 2 2 2 2 2 2 2 2 2 2 2 2 2 2 2 2 2 2
left_child=1 3 4 7 10 11 16 13 14 18 23 26 27 24 28 -10 -4 -11 -5 -9 -8 -12 -13 -2 -1 -14 -3 -7 -6 -24
right_child=2 5 6 9 8 12 20 19 15 17 21 22 25 -15 -16 -17 -18 -19 -20 -21 -22 -23 29 -25 -26 -27 -28 -29 -30 -31
leaf_value=-5.7898846256031717 0.95797627987761946 -1.4697387540103677 4.847768217038781 -2.8949658655385879 2.5535894408653252 -0.28853995824276013 7.1459863582240892 -3.7498424253105926 3.6063660823574106 -2.1291167276353069 1.8104303709375813 -0.86992320902412557 0.30007893777172279 -4.3751954072020771 3.087436396813354 4.2006551769044664 5.5821409967210558 -1.7629811038125949 -2.5181927716956949 -3.2926106462542641 7.9058632348416129 2.2280855185897264 -0.58798651078104747 1.3748791553389352 -5.0282981085222822 0.64995136852002844 -1.1293106891510842 0.025531387836154964 2.922740989582306 0.5731129741539126
leaf_weight=85 574 428 437 1331 971 430 474 613 954 1753 767 1119 763 430 1218 432 288 1154 1219 894 169 540 1280 530 344 474 881 1197 297 23
leaf_count=85 574 428 437 1331 971 430 474 613 954 1753 767 1119 763 430 1218 432 288 1154 1219 894 169 540 1280 530 344 474 881 1197 297 23
internal_value=-0.0111238 -1.72898 3.22611 -2.81671 2.58373 -0.438716 6.17648 -3.9499 3.19299 -2.3254 1.60528 -0.89436 0.154862 -4.77673 2.85925 3.7916 5.13949 -1.98377 -2.71485 -3.4786 7.34571 1.98299 -0.707219 1.15812 -5.1792 0.434145 -1.24062 -0.0574746 2.64005 -0.567491
internal_weight=22069 14418 7651 7823 6283 6595 1368 2366 3872 5457 2411 3731 2864 859 2486 1386 725 2907 2550 1507 643 1307 2422 1104 429 1237 1309 1627 1268 1303
internal_count=22069 14418 7651 7823 6283 6595 1368 2366 3872 5457 2411 3731 2864 859 2486 1386 725 2907 2550 1507 643 1307 2422 1104 429 1237 1309 1627 1268 1303
is_linear=0
shrinkage=0.05


Tree=19
num_leaves=31
num_cat=0
split_feature=17 17 17 17 17 17 17 17 17 17 17 17 17 17 17 17 17 17 17 17 17 17 17 17 17 17 8 24 17 18
split_gain=4.43085e+07 6.81119e+06 5.54497e+06 1.40608e+06 1.39039e+06 909224 695908 284439 228029 198189 167556 117966 89328.2 72155.6 43111.6 34979.2 33738.6 28995.9 28508.1 27636.9 24352 20012.3 19903.4 17564.9 16187.9 14633.7 14587.3 14287.2 13795.4 11820.3
threshold=4007.3667136112904 3890.0702880022095 4182.0311647968874 3814.9583446527154 4095.9713272604431 4273.9499279544534 3951.0951396330888 3857.0645334668557 3758.2591787247461 4137.2848246506937 4052.7589314679713 3925.3853246086996 3975.4675062891188 4217.8086541398552 3832.3108321343861 4339.503964563125 4116.9421116556578 3873.4471541581029 3784.108467170106 3721.8727713859635 4160.6454974298913 4074.4218949814335 4032.7702839264466 3907.7132574272964 3988.9786544404537 4373.9285458280474 28.750000000000004 0.0097275080230776832 4252.8553300633821 0.00063104092183591677
decision_type=2 2 2 2 2 2 2 2 2 2 2 2 2 2 2 2 2 2 2 2 2 2 2 2 2 2 2 2 2 2
left_child=1 3 4 8 10 13 11 14 19 16 22 23 29 -4 -5 -7 -6 -9 -10 -1 -11 -12 -2 -3 -14 -17 -19 -13 -15 -8
right_child=2 6 5 7 9 15 12 17 18 20 21 27 24 28 -16 25 -18 26 -20 -21 -22 -23 -24 -25 -26 -27 -28 -29 -30 -31
leaf_value=-5.2282205682642324 0.77585307051276065 -1.5575090829645977 4.1497517370172847 -2.9540100846315642 2.3944769215013424 6.455466061689723 -0.41298488858073273 -2.1725610293579689 -3.9037274917890863 3.1804978389322969 1.5888963564179786 -0.82235809805006088 0.043778864454299932 4.8039125896115022 -2.5469387887567185 7.0502927069127912 2.7823940222671548 -1.8690612893881551 -3.3603332593797606 -4.4924410268664365 3.5952676648470625 1.9841347480863836 1.1833215874916192 -1.2004815846778198 0.33028686839861043 7.7842136517693028 -0.57202611186287622 0.52026702608913189 5.355374181838263 0.023354396410286429
leaf_weight=170 688 780 522 1142 1045 254 1127 1301 344 869 695 2134 1038 349 1511 338 1209 1479 809 512 597 594 531 617 939 85 22 20 168 180
leaf_count=170 688 780 522 1142 1045 254 1127 1301 344 869 695 2134 1038 349 1511 338 1209 1479 809 512 597 594 531 617 939 85 22 20 168 180
internal_value=-0.0105676 -1.69072 2.97686 -2.75386 2.28346 5.49346 -0.556797 -2.35111 -3.95113 2.89687 1.3736 -1.04198 -0.0321706 4.56443 -2.72217 6.91927 2.60255 -1.9998 -3.52246 -4.67585 3.3494 1.77103 0.953348 -1.39982 0.179859 7.19777 -1.85005 -0.809892 4.98311 -0.352892
internal_weight=22069 14125 7944 7290 6228 1716 6835 5455 1835 3720 2508 3551 3284 1039 2653 677 2254 2802 1153 682 1466 1289 1219 1397 1977 423 1501 2154 517 1307
internal_count=22069 14125 7944 7290 6228 1716 6835 5455 1835 3720 2508 3551 3284 1039 2653 677 2254 2802 1153 682 1466 1289 1219 1397 1977 423 1501 2154 517 1307
is_linear=0
shrinkage=0.05


Tree=20
num_leaves=31
num_cat=0
split_feature=46 46 46 46 17 45 17 17 46 17 17 8 17 17 45 46 46 17 22 17 46 17 17 17 17 17 46 17 45 18
split_gain=3.96238e+07 6.37891e+06 4.8971e+06 1.34577e+06 1.24319e+06 697782 609928 248396 239730 202949 146138 104249 110022 57406.7 53211.7 42079.7 39150.9 37835.7 28280.6 25766.1 24704.7 23611.7 19288.7 18170.1 17897.4 17320.5 15878.1 12664.1 11455.6 10626.5
threshold=4017.8950000000004 3895.7250000000004 4198.8500000000013 3821.9850000000001 4098.4381791147853 4319.9900000000007 3957.02480007233 3752.5786450596097 3862.6800000000007 4143.0999593963525 4056.1012771568221 75.204999999999941 3927.0161987634951 3983.6299550391236 4225.6350000000011 3794.5500000000006 4125.0250000000005 3841.5104850628127 -0.0068241860067924228 3879.0876831008959 4366.755000000001 4164.3581540523555 4074.4218949814335 3941.6926705555593 4035.742894170246 3911.1914034791321 3740.9000000000005 3999.7853376526086 4255.1750000000011 8.6504787072240753e-05
decision_type=2 2 2 2 2 2 2 2 2 2 2 2 2 2 2 2 2 2 2 2 2 2 2 2 2 2 2 2 2 2
left_child=1 3 4 7 10 14 11 18 17 16 24 12 25 -8 -4 -9 -6 -5 -1 -10 -7 -11 -12 -14 -2 -3 -20 -15 -16 -18
right_child=2 6 5 8 9 20 13 15 19 21 22 -13 23 27 28 -17 29 -19 26 -21 -22 -23 -24 -25 -26 -27 -28 -29 -30 -31
leaf_value=-6.3359844207763674 0.7905699888227592 -1.4648932247381183 4.1357337928304867 -2.7040135562868048 2.3340362021230883 6.4717098292538289 -0.16034310961325715 -3.6818756217813675 -1.9920954158859392 3.1170840004847982 1.5219321116706395 2.7062375522404913 -0.84213943153619764 0.1858836228589591 4.68594810217619 -3.1179077197822247 2.5971052201792073 -2.3167840144567604 -4.6917700285135311 -1.6820270429143751 7.1955610530391629 3.5417065601985778 1.9082233884523241 -0.57083335975724092 1.1821379440665476 -1.0958756926936715 -4.172876760201861 0.50105280691761855 5.2126487776034143 2.8995182874897751
leaf_weight=21 670 674 490 1463 1240 473 1431 534 1672 771 604 20 1370 1043 256 869 626 1109 344 1118 157 569 695 1123 517 602 258 459 173 542
leaf_count=21 670 674 490 1463 1240 473 1431 534 1672 771 604 20 1370 1043 256 869 626 1109 344 1118 157 569 695 1123 517 602 258 459 173 542
internal_value=-0.00977561 -1.58959 2.85431 -2.60365 2.22912 5.37038 -0.475052 -3.70149 -2.18884 2.80417 1.36215 -0.89409 -0.913195 0.0662833 4.49173 -3.33256 2.52971 -2.53705 -4.53231 -1.86785 6.6521 3.29739 1.72861 -0.719927 0.961118 -1.2908 -4.46939 0.282197 4.89835 2.73744
internal_weight=21893 14110 7783 7388 6234 1549 6722 2026 5362 3748 2486 3789 3769 2933 919 1403 2408 2572 623 2790 630 1340 1299 2493 1187 1276 602 1502 429 1168
internal_count=21893 14110 7783 7388 6234 1549 6722 2026 5362 3748 2486 3789 3769 2933 919 1403 2408 2572 623 2790 630 1340 1299 2493 1187 1276 602 1502 429 1168
is_linear=0
shrinkage=0.05


Tree=21
num_leaves=31
num_cat=0
split_feature=46 46 46 46 46 45 46 46 46 42 46 42 46 63 45 46 46 46 42 22 42 46 45 45 46 46 44 18 18 46
split_gain=3.57605e+07 5.75719e+06 4.41964e+06 1.1579e+06 1.12233e+06 629748 615147 271122 170165 148479 137172 109437 60576.8 52924.4 48023.5 40195.2 33253.3 26339.4 23111.4 22392 22337.2 22296 20296.4 17328.8 14759.6 14463.1 13281.7 11710.5 11460.1 10954.6
threshold=4017.8950000000004 3891.7950000000005 4198.8500000000013 3809.3100000000009 4105.4100000000008 4319.9900000000007 3957.6000000000008 3850.3100000000004 4150.295000000001 4063.1040000000003 3752.4350000000004 3927.0050000000006 3984.4000000000001 3851.2588000000005 4225.6350000000011 3871.4400000000001 4127.9050000000016 3829.1200000000003 4039.2530000000002 -0.0059867839779738545 3780.136 4366.755000000001 3906.5000000000005 4164.9250000000002 3942.5050000000006 4085.0750000000003 -1.0000000180025095e-35 0.00095000009220373943 -0.00028056186072995126 3714.3250000000003
decision_type=2 2 2 2 2 2 2 2 2 2 2 2 2 2 2 2 2 2 2 2 2 2 2 2 2 2 2 2 2 2
left_child=1 3 4 10 9 14 11 17 16 18 19 13 -8 -3 -4 -9 28 -5 27 -1 -12 -7 -15 -10 -13 -11 -14 -2 -6 -21
right_child=2 6 5 7 8 21 12 15 23 25 20 24 26 22 -16 -17 -18 -19 -20 29 -22 -23 -24 -25 -26 -27 -28 -29 -30 -31
leaf_value=-5.9422896125099882 0.70821113391196067 1.3230327926576138 3.928947134601827 -2.7960612010068218 2.0463745485231715 6.1481243819061344 -0.21014829150326883 -2.0809539175411511 3.0284269111678448 1.5530443971739043 -3.6566170690199913 -0.81268922465809856 0.093942829490310131 -1.4160495667929178 4.653429790310093 -1.7317374470223368 2.6381035911767192 -2.4530151594116028 1.1980057033826206 -4.8721163711547852 -3.1732214064825151 6.8357831383966348 -1.0449273492773823 3.4255552418401849 -0.56264044115111445 1.8940922065321448 0.37225898062269674 1.298738780617714 2.3669621135685115 -4.2184689329324669
leaf_weight=22 669 20 490 967 412 473 1356 1514 845 635 425 1219 834 910 429 1808 1105 1328 594 75 546 157 619 407 1144 609 882 96 862 441
leaf_count=22 669 20 490 967 412 473 1356 1514 845 635 425 1219 834 910 429 1808 1105 1328 594 75 546 157 619 407 1144 609 882 96 862 441
internal_value=-0.00928683 -1.51011 2.71159 -2.50997 2.11767 5.10186 -0.489915 -2.17962 2.68569 1.32531 -3.73965 -0.905747 0.0396223 -1.23238 4.26714 -1.89089 2.43738 -2.59756 0.964009 -4.38008 -3.3848 6.31949 -1.2658 3.15753 -0.691633 1.72 0.236993 0.782317 2.26329 -4.31348
internal_weight=21893 14110 7783 7126 6234 1549 6984 5617 3631 2603 1509 3912 3072 1549 919 3322 2379 2295 1359 538 971 630 1529 1252 2363 1244 1716 765 1274 516
internal_count=21893 14110 7783 7126 6234 1549 6984 5617 3631 2603 1509 3912 3072 1549 919 3322 2379 2295 1359 538 971 630 1529 1252 2363 1244 1716 765 1274 516
is_linear=0
shrinkage=0.05


Tree=22
num_leaves=31
num_cat=0
split_feature=46 46 42 46 46 46 45 46 46 46 46 46 46 6 42 46 46 45 45 46 46 46 42 5 45 45 18 44 18 28
split_gain=3.2275e+07 5.53174e+06 3.78919e+06 1.1793e+06 937115 493956 437450 232649 203456 164701 133490 61343.4 45568.4 39992.1 31677 29961.4 27096.4 26767 26144.4 24893.9 21991.7 20122.1 18266.8 15548.6 15053.5 14599.6 13947.1 11343.9 11024.4 9973.6
threshold=4025.9350000000004 3904.0450000000005 4207.572000000001 3821.9850000000001 4112.5650000000014 3967.8100000000004 4319.9900000000007 3862.6800000000007 3765.2300000000005 4152.6400000000012 4071.7200000000007 3937.4550000000004 3999.4450000000002 25.590000000000149 3880.3390000000004 3841.7050000000004 3735.7950000000005 4171.4800000000005 4244.8350000000009 3803.3850000000007 4132.4400000000014 4366.755000000001 4042.3870000000006 -0.0050791114318230182 4081.8350000000005 3910.2000000000003 -0.00012038320197484515 -0.30386329747361546 -3.0799083027923262e-05 52.68801717244127
decision_type=2 2 2 2 2 2 2 2 2 2 2 2 2 2 2 2 2 2 2 2 2 2 2 2 2 2 2 2 2 2
left_child=1 3 4 8 10 11 18 15 16 20 22 13 26 25 27 -5 23 29 -4 -10 -6 -8 -2 -1 -12 -3 -7 -9 -14 -11
right_child=2 5 6 7 9 12 21 14 19 17 24 -13 28 -15 -16 -17 -18 -19 -20 -21 -22 -23 -24 -25 -26 -27 -28 -29 -30 -31
leaf_value=-5.6907401518388232 0.84484907097923456 -1.2334280822225798 3.9750911679547158 -2.4674327329595567 2.2426363861330612 -0.13991926307233085 5.8407182391047732 -1.933875898147623 -3.204299919636219 2.7846780069909918 1.5633669319351171 -0.52700404391209321 0.26775752174775158 1.2923812937736512 -1.4696779558796813 -2.1258874398478862 -3.7810715560999393 3.4132686031823876 4.5990788835467713 -2.7681896362741902 2.5666174679516471 6.4939939462455216 1.2219467593545326 -4.3037910173016209 1.8980772096719314 -0.87902694485341026 0.13607815506116677 -1.6781969219894564 0.60946971511671899 3.1140607215863567
leaf_weight=22 585 372 461 1238 1191 786 473 768 616 495 577 2084 452 20 1380 1334 442 435 264 698 935 157 712 248 804 1328 1096 997 494 429
leaf_count=22 585 372 461 1238 1191 786 473 768 616 495 577 2084 452 20 1380 1334 442 435 264 698 935 157 712 248 804 1328 1096 997 494 429
internal_value=-0.00882248 -1.39717 2.6458 -2.30492 2.11947 -0.337356 5.03977 -1.93758 -3.34147 2.65994 1.41612 -0.709414 0.163108 -0.930428 -1.64914 -2.29029 -4.02215 3.08986 4.20231 -2.97264 2.38512 6.00352 1.05186 -4.4168 1.75823 -0.956578 0.0208104 -1.78945 0.446199 2.93761
internal_weight=21893 14375 7518 7743 6163 6632 1355 5717 2026 3485 2678 3804 2828 1720 3145 2572 712 1359 725 1314 2126 630 1297 270 1381 1700 1882 1765 946 924
internal_count=21893 14375 7518 7743 6163 6632 1355 5717 2026 3485 2678 3804 2828 1720 3145 2572 712 1359 725 1314 2126 630 1297 270 1381 1700 1882 1765 946 924
is_linear=0
shrinkage=0.05


Tree=23
num_leaves=31
num_cat=0
split_feature=17 17 17 17 46 45 17 17 17 17 17 46 46 17 17 3 17 17 46 22 17 17 18 18 45 46 28 45 18 18
split_gain=2.91445e+07 4.5694e+06 3.68455e+06 952874 911873 548718 507197 206097 177484 113717 84723.9 80032.7 66311.9 46811.7 31255.1 28748.6 27569 25084.3 22158 21759 19125.6 18608.5 15526.4 12734.4 12450.4 11611.5 11553 10921.2 10827.1 10806.2
threshold=4007.3667136112904 3887.585947682353 4188.993731317566 4086.3987782948916 3809.3100000000009 4319.9900000000007 3950.0651101519684 3847.4081813564658 4130.9349065891147 3746.6313426842294 3919.845395575805 4054.7750000000005 3976.4600000000005 4225.6303721179202 4160.6454974298913 0.010443146925787629 3866.7793221697589 4109.6815043732731 3829.1200000000003 -0.0068241860067924228 3780.2403255090053 4344.4309404300575 0.0010263002112838656 0.0024686092051321609 3988.1250000000005 3937.4550000000004 47.055130685288475 4255.1750000000011 0.00081068208761347676 0.0018133470434933999
decision_type=2 2 2 2 2 2 2 2 2 2 2 2 2 2 2 2 2 2 2 2 2 2 2 2 2 2 2 2 2 2
left_child=1 4 3 11 9 13 10 18 17 19 15 -2 -8 -4 -10 -3 -9 -5 -6 -1 -11 -7 24 -21 -14 -12 -20 -15 -13 -18
right_child=2 6 5 8 7 21 12 16 14 20 25 28 22 27 -16 -17 29 -19 26 23 -22 -23 -24 -25 -26 -27 -28 -29 -30 -31
leaf_value=-5.5795047950744632 0.75984777361395628 -1.221377963573838 3.4828484968367612 1.8149385349777925 -2.5248466345738727 5.4174299769576981 -0.32670640002225382 -1.8935466326033195 2.5337978812569903 -3.3053760808398467 -0.81382412950501737 1.3020190040635042 0.002414993159341506 3.9896408903076996 2.9575715941654606 0.68820198029279711 -1.6056717669141705 2.1631165242867785 -2.377125122874078 -3.9547440330349666 -2.8587312733169892 5.96161421461768 0.61036937164142735 -2.7978466835021973 0.26498090501218824 -0.59074534428328451 -2.0842781815238189 4.4893906742162093 1.8148191916424297 -0.46474088487170989
leaf_weight=20 1159 1358 513 870 967 299 1216 1319 1205 426 1136 981 1240 297 681 20 1769 1276 598 490 548 331 160 25 710 1199 771 173 115 21
leaf_count=20 1159 1358 513 870 967 299 1216 1319 1205 426 1136 981 1240 297 681 20 1769 1276 598 490 548 331 160 25 710 1199 771 173 115 21
internal_value=-0.00838137 -1.37912 2.41956 1.87261 -2.28816 4.55139 -0.481057 -1.98674 2.33295 -3.37577 -0.882757 1.04951 -0.0326172 3.81311 2.68681 -1.19366 -1.7201 2.02196 -2.34162 -3.96142 -3.05408 5.70334 0.136867 -3.89858 0.0980159 -0.699275 -2.2122 4.17359 1.35583 -1.59229
internal_weight=21893 13993 7900 6287 6954 1613 7039 5445 4032 1509 3713 2255 3326 983 1886 1378 3109 2146 2336 535 974 630 2110 515 1950 2335 1369 470 1096 1790
internal_count=21893 13993 7900 6287 6954 1613 7039 5445 4032 1509 3713 2255 3326 983 1886 1378 3109 2146 2336 535 974 630 2110 515 1950 2335 1369 470 1096 1790
is_linear=0
shrinkage=0.05


Tree=24
num_leaves=31
num_cat=0
split_feature=46 46 45 46 46 42 45 46 46 46 42 23 46 46 46 46 45 42 42 46 42 46 9 46 18 47 18 18 18 18
split_gain=2.62996e+07 4.50884e+06 3.08988e+06 978656 748538 384771 372318 211971 152805 142846 93630.8 73615.4 50501.6 35941.2 28565.4 23692.4 23541.3 23235.4 22243.5 19583.7 19123.9 17581.8 15564.7 14180 11859.2 11043.6 10906.5 10874.4 9368.98 9349.67
threshold=4025.9350000000004 3906.4850000000006 4201.5600000000004 3827.8050000000007 4109.005000000001 3965.3450000000007 4319.9900000000007 3773.5200000000004 3866.4750000000004 4150.295000000001 4063.1040000000003 3870.999899622288 3939.6350000000007 4002.9600000000005 3740.9000000000005 3806.0350000000003 4244.8350000000009 3884.8510000000001 4172.1900000000014 3850.3100000000004 4128.166000000002 4377.8450000000003 -28.599999999999905 4085.0750000000003 0.00033997585702379482 0.52399158781223287 -0.00010946445157096451 -0.00032957823358135258 0.0021631270863080956 0.00021983210145710071
decision_type=2 2 2 2 2 2 2 2 2 2 2 2 2 2 2 2 2 2 2 2 2 2 2 2 2 2 2 2 2 2
left_child=1 3 4 7 10 11 16 14 19 20 25 -3 27 26 22 -9 -4 -10 -11 -5 24 -8 -1 -12 -6 -2 -7 -13 -16 -14
right_child=2 5 6 8 9 13 21 15 17 18 23 12 29 -15 28 -17 -18 -19 -20 -21 -22 -23 -24 -25 -26 -27 -28 -29 -30 -31
leaf_value=-5.263750743865967 0.7426981353574813 2.4041948527097703 3.56799111211203 -2.1121677790175784 1.8976718476510819 -0.093036722734426425 5.318159720945272 -2.8225166554982519 -1.5666136824683814 2.6174420691907598 1.3358039111790694 -1.0502668451358923 -0.53357223708988311 0.44544082691475828 -3.3589229387059198 -2.427308262599988 4.1532684998078784 -1.2777631422664439 3.03702086400585 -1.8280138087384579 2.2970395860322026 6.1157545596738405 -3.8284692730623138 1.6538594714211077 2.2221179806359923 1.0606540732510643 0.14310042774275897 -0.7602537724503049 -2.2765533855983189 -0.29585563030125217
leaf_weight=20 568 20 492 1408 930 848 551 619 1840 939 635 422 1357 768 417 979 264 1120 476 1065 872 79 340 782 404 526 1155 1381 21 595
leaf_count=20 568 20 492 1408 930 848 551 619 1840 939 635 422 1357 768 417 979 264 1120 476 1065 872 79 340 782 404 526 1155 1381 21 595
internal_value=-0.0079623 -1.26122 2.38836 -2.07093 1.90644 -0.292797 4.52047 -2.91273 -1.69969 2.36647 1.24305 -0.621227 -0.637341 0.154632 -3.57824 -2.5804 3.77237 -1.45732 2.75859 -1.9898 2.11495 5.41818 -3.90821 1.51133 1.99593 0.895573 0.0431282 -0.828133 -3.30703 -0.461113
internal_weight=21893 14375 7518 7829 6132 6546 1386 2396 5433 3621 2511 3775 3755 2771 798 1598 756 2960 1415 2473 2206 630 360 1417 1334 1094 2003 1803 438 1952
internal_count=21893 14375 7518 7829 6132 6546 1386 2396 5433 3621 2511 3775 3755 2771 798 1598 756 2960 1415 2473 2206 630 360 1417 1334 1094 2003 1803 438 1952
is_linear=0
shrinkage=0.05


Tree=25
num_leaves=31
num_cat=0
split_feature=17 42 17 17 17 17 45 17 17 17 17 17 17 17 17 20 17 17 17 52 17 20 17 2 68 69 17 17 47 17
split_gain=2.41787e+07 4.13976e+06 2.90318e+06 847522 659291 412940 333738 171778 140445 130591 82624 58002 40608.9 28211 25341.5 25336.7 19936.3 19284.1 18807.2 17266.6 16904.5 15081 14360.3 14149.9 12780.6 25441.2 12428.8 10615.5 9883.3 9616.4
threshold=4023.8086632413761 3895.9310000000009 4207.4495376032692 3816.9165623614449 4105.8120407742308 3961.3973432073781 4319.9900000000007 3861.1499824653342 3766.4262647724013 4150.5456052257605 4063.1704008996439 3930.0034755232164 3998.0482574282682 3838.9925615454008 3721.8727713859635 0.0039130308462762154 4124.9480650805626 4252.8553300633821 3881.2807419539354 4342.2100000000009 4169.4269516667482 -0.00053745128172615682 4079.4799662861474 0.0034855605676362704 0.30261183588260404 0.0018460528059405271 3944.7744528422259 3978.7224210939717 0.56315540055101121 3911.1914034791321
decision_type=2 2 2 2 2 2 2 2 2 2 2 2 2 2 2 2 2 2 2 2 2 2 2 2 2 2 2 2 2 2
left_child=1 3 4 8 10 11 17 13 14 16 -2 15 23 -5 24 29 -6 -4 -9 -8 -11 -10 -12 27 25 -1 -13 -7 -16 -3
right_child=2 5 6 7 9 12 19 18 21 20 22 26 -14 -15 28 -17 -18 -19 -20 -21 -22 -23 -24 -25 -26 -27 -28 -29 -30 -31
leaf_value=-3.887751590504366 0.87280005309041231 -1.0992441428931494 3.4374501603250289 -2.1216108992164382 1.8874047903107927 -0.16378504464230081 4.8992631874832462 -1.5181033941283484 -2.7758276215306039 2.4986559681878413 1.2610987324379759 -0.60397744885307147 0.41589275298713013 -1.8036216323588699 -3.4352545063670088 0.77938633994622675 2.1791212537053997 4.0054954090757233 -1.2588154695083187 5.404623618675541 2.8650006703433828 -2.4031052435587532 1.578638070659204 0.60886500526513709 -3.3288450248905868 -5.798844310215542 -0.38226116082185285 0.070012230916172855 -3.0284300704942133 -0.82784043311379674
leaf_weight=102 1067 526 524 1402 1136 763 357 1752 432 682 598 1408 869 1388 328 22 1209 209 1164 321 585 730 880 95 61 21 1147 1335 274 860
leaf_count=102 1067 526 524 1402 1136 763 357 1752 432 682 598 1408 869 1388 328 22 1209 209 1164 321 585 730 880 95 61 21 1147 1335 274 860
internal_value=-0.00236888 -1.18594 2.2933 -1.99037 1.82449 -0.309481 4.33897 -1.68295 -2.89084 2.25879 1.2081 -0.646443 0.126633 -1.96341 -3.40705 -0.904118 2.0378 3.59942 -1.4146 5.13853 2.6678 -2.54167 1.45016 0.0120112 -3.92058 -4.21404 -0.504444 -0.0150151 -3.25009 -0.930841
internal_weight=22247 14679 7568 7654 6157 7025 1411 5706 1948 3612 2545 3963 3062 2790 786 1408 2345 733 2916 678 1267 1162 1478 2193 184 123 2555 2098 602 1386
internal_count=22247 14679 7568 7654 6157 7025 1411 5706 1948 3612 2545 3963 3062 2790 786 1408 2345 733 2916 678 1267 1162 1478 2193 184 123 2555 2098 602 1386
is_linear=0
shrinkage=0.05


Tree=26
num_leaves=31
num_cat=0
split_feature=17 42 45 46 46 17 46 45 46 17 46 17 46 2 17 17 17 17 8 17 17 20 17 17 17 45 68 69 18 18
split_gain=2.18213e+07 3.73633e+06 2.6218e+06 744650 613111 400758 277885 145754 124801 120665 82763 57603.5 43253.2 25290.8 22808.7 18440.4 18285.8 16254.1 16253.9 17259.9 16201.9 15951.4 15794.8 13749.8 13504.2 11652.4 11582.5 23314.8 11265.7 10030.5
threshold=4023.8086632413761 3892.5520000000001 4207.1350000000011 3823.6550000000002 4112.5650000000014 3958.2574198209395 4325.8350000000009 3759.2100000000005 3862.6800000000007 4150.5456052257605 4066.9300000000003 3930.0034755232164 3990.6400000000008 0.0062530090110176637 3721.8727713859635 3841.5104850628127 4176.5192191769756 3793.4376615551596 36.285000000000089 3873.4471541581029 4373.9285458280474 0.0016584080669207865 4129.6786322132057 4252.8553300633821 4082.6822687193539 3906.5000000000005 0.29100462270693256 0.0018460528059405271 0.00026273944818538589 -0.00017309624383840254
decision_type=2 2 2 2 2 2 2 2 2 2 2 2 2 2 2 2 2 2 2 2 2 2 2 2 2 2 2 2 2 2
left_child=1 3 4 7 10 11 23 14 15 22 -2 13 -7 25 26 -5 -11 -9 19 -10 -8 -14 28 -4 -12 -3 27 -1 -6 -16
right_child=2 5 6 8 9 12 20 17 18 16 24 -13 21 -15 29 -17 -18 -19 -20 -21 -22 -23 -24 -25 -26 -27 -28 -29 -30 -31
leaf_value=-3.7031699671889799 0.83531566462551443 -1.0640349319877005 3.3046084460806342 -1.9750296946098258 1.7273823242119943 -0.074693622942285459 4.7912616684477207 -2.6270726476698916 -1.5268079129561001 2.4075687398118664 1.2313567652166073 -0.49505820243712795 0.23828507951183875 0.83888600497018728 -3.3196557803587483 -1.7000403067093666 2.7926743978383595 -2.2596480803199896 0.051802703142166145 -1.2765088614202096 5.5185407378456812 0.77773496171361522 2.1031392165736147 3.7920586763956901 1.5305199898206272 -0.78792957123432561 -3.1877877455491288 -5.5748304939270028 2.0369606094360351 -2.9086121265163816
leaf_weight=99 1101 676 470 1377 847 1690 590 451 1163 831 658 2383 1392 21 264 1094 490 905 20 1689 88 152 950 209 884 879 65 20 450 339
leaf_count=99 1101 676 470 1377 847 1690 590 451 1163 831 658 2383 1392 21 264 1094 490 905 20 1689 88 152 950 209 884 879 65 20 450 339
internal_value=-0.00225043 -1.12664 2.17863 -1.90858 1.74363 -0.312847 4.16963 -2.69599 -1.59276 2.17119 1.16644 -0.65016 0.100085 -0.884683 -3.23726 -1.85328 2.55042 -2.38185 -1.36862 -1.37858 4.88566 0.291392 1.94825 3.45465 1.40286 -0.90796 -3.72455 -4.01773 1.83479 -3.08857
internal_weight=22247 14679 7568 7486 6211 7193 1357 2143 5343 3568 2643 3959 3234 1576 787 2471 1321 1356 2872 2852 678 1544 2247 679 1542 1555 184 119 1297 603
internal_count=22247 14679 7568 7486 6211 7193 1357 2143 5343 3568 2643 3959 3234 1576 787 2471 1321 1356 2872 2852 678 1544 2247 679 1542 1555 184 119 1297 603
is_linear=0
shrinkage=0.05


Tree=27
num_leaves=31
num_cat=0
split_feature=42 42 45 46 46 46 46 45 46 45 46 46 46 19 46 46 18 47 46 45 52 45 18 11 18 46 46 45 18 18
split_gain=1.96855e+07 3.31489e+06 2.40365e+06 672378 586171 346643 250791 123817 119276 107666 85259.2 60609.4 26688.5 21694.1 19694.1 18018.6 17204.8 16313.2 14880.4 14678.9 14456.8 14111.7 13883.6 13497.5 13224.8 12771.7 12602.7 11495.3 10446.8 10243.9
threshold=4021.5140000000006 3892.5520000000001 4207.1350000000011 3821.9850000000001 4112.5650000000014 3967.8100000000004 4325.8350000000009 3759.2100000000005 3862.6800000000007 4148.7500000000009 4064.6550000000002 3931.7750000000005 3996.4700000000003 3891.2562062176958 3735.7950000000005 3841.7050000000004 0.00053403373224722894 0.373619458229832 4179.9850000000006 4122.3100000000004 4342.2100000000009 4085.1700000000005 0.0015956274503042365 0.006239020856143954 -0.00063991658762187166 3948.4500000000003 4262.4850000000015 3906.5000000000005 0.0024686092051321609 -6.5534862206334256e-05
decision_type=2 2 2 2 2 2 2 2 2 2 2 2 2 2 2 2 2 2 2 2 2 2 2 2 2 2 2 2 2 2
left_child=1 3 4 7 10 11 26 14 15 16 -2 13 29 -3 -1 -5 19 -10 -11 -6 -8 -12 -14 -19 -9 -13 -4 -15 -16 -7
right_child=2 5 6 8 9 12 20 24 17 18 21 25 22 27 28 -17 -18 23 -20 -21 -22 -23 -24 -25 -26 -27 -28 -29 -30 -31
leaf_value=-3.4234689399377625 0.74692055379591837 0.75867078843570901 3.1579150891771506 -1.9063193210273166 1.639269265365378 -0.13305396746248052 4.4224425361269999 -2.5670495609904447 -1.4334571457208138 2.2978567903692073 1.1883268836529359 -0.54909191271224689 0.26297881680123725 -1.0177840781211853 -2.9417285781308831 -1.6406553976606615 2.118210791048472 -1.2100144999281406 2.6514661182758781 1.9241144394103877 4.8848604410236867 1.4849180288623323 0.98076816002527867 0.097120248079299934 -2.1877215929551919 -0.3292068294777451 3.6561195791120364 -0.74331551591115719 -1.8032619726090204 0.10927908875486021
leaf_weight=268 1093 21 510 1242 856 815 357 301 1276 748 920 1422 1047 660 498 1313 511 1576 494 959 321 711 72 20 971 1233 169 904 21 938
leaf_count=268 1093 21 510 1242 856 815 357 301 1276 748 920 1422 1047 660 498 1313 511 1576 494 959 321 711 72 20 971 1233 169 904 21 938
internal_value=-0.00213791 -1.07876 2.05258 -1.81315 1.64095 -0.305746 3.96114 -2.58247 -1.52128 2.06263 1.08863 -0.593039 0.118391 -0.837705 -3.0754 -1.7698 1.86193 -1.30019 2.4385 1.78977 4.64137 1.31762 0.309164 -1.19363 -2.27748 -0.446976 3.28192 -0.85914 -2.89566 -0.00338574
internal_weight=22247 14598 7649 7486 6292 7112 1357 2059 5427 3568 2724 4240 2872 1585 787 2555 2326 2872 1242 1815 678 1631 1119 1596 1272 2655 679 1564 519 1753
internal_count=22247 14598 7649 7486 6292 7112 1357 2059 5427 3568 2724 4240 2872 1585 787 2555 2326 2872 1242 1815 678 1631 1119 1596 1272 2655 679 1564 519 1753
is_linear=0
shrinkage=0.05


Tree=28
num_leaves=31
num_cat=0
split_feature=42 42 45 42 42 53 45 45 45 45 42 33 42 5 42 42 22 59 28 42 47 42 18 18 42 42 45 42 20 18
split_gain=1.77683e+07 3.05591e+06 2.13088e+06 621956 491455 305259 224504 145984 99059.7 83007.9 65960.1 39601.4 31772.1 28931.7 22424.1 18264 17140.5 17315.9 16610.4 15529.4 15291.1 13975.6 13887.1 13555 12951.6 12618.8 11863.3 11459.6 11343.8 10731.6
threshold=4024.2400000000002 3895.9310000000009 4207.1350000000011 3809.2830000000004 4107.7660000000005 3966.0450000000005 4319.9900000000007 3854.1950000000002 4148.7500000000009 3747.3350000000005 4070.1090000000008 3939.8978616912159 3998.4940000000001 0.0056206915356416115 3832.3370000000009 3874.3520000000003 -0.0012754405324823996 3687.9400000000005 53.362774872574825 4128.166000000002 0.60762567938261003 4373.8010000000004 0.00085040898943224889 0.00040606372914619093 4172.1900000000014 4042.3870000000006 4244.8350000000009 3911.3690000000006 -0.00035479406929565875 0.0028928465196492803
decision_type=2 2 2 2 2 2 2 2 2 2 2 2 2 2 2 2 2 2 2 2 2 2 2 2 2 2 2 2 2 2
left_child=1 3 4 9 10 11 26 14 19 16 25 27 18 28 -5 -9 17 -1 -7 -6 -11 -8 -12 -16 -10 -2 -4 -3 -13 -18
right_child=2 5 6 7 8 12 21 15 24 20 22 13 -14 -15 23 -17 29 -19 -20 -21 -22 -23 -24 -25 -26 -27 -28 -29 -30 -31
leaf_value=-4.3539142479767667 0.61497261080411125 -0.93468238748103671 2.9603925272683118 -1.8776631440564053 1.6416839054486343 -0.10989391634006847 4.3195834539061675 -1.370257500210224 2.1709808218740201 -2.462574379796425 1.2474336912779316 -0.61064298716707399 0.36020631102700817 1.4762183659151198 -1.686247326638868 -1.1265007286643338 -2.8782865171847098 -3.17110545849674 0.1656530970103175 1.8993825893658696 -2.0832869202081414 4.9983436935249417 1.7589678656260173 -1.3486554027631366 2.4956341450689514 0.93109872793695736 3.3933533695114564 -0.65285936661213151 -0.36027306638410023 -1.6890200310945511
leaf_weight=37 528 515 428 1321 1229 1306 591 1354 685 582 1149 642 878 20 1111 1777 368 189 941 1115 489 87 150 406 557 785 251 1204 1532 20
leaf_count=37 528 515 428 1321 1229 1306 591 1354 685 582 1149 642 878 20 1111 1777 368 189 941 1115 489 87 150 406 557 785 251 1204 1532 20
internal_value=-0.00203102 -1.01532 1.96849 -1.7068 1.57557 -0.263318 3.76309 -1.46733 1.95556 -2.55512 1.05389 -0.55759 0.105158 -0.416794 -1.72705 -1.23191 -3.01861 -3.36475 0.00549983 1.76427 -2.2894 4.40668 1.3065 -1.5959 2.31658 0.803974 3.12044 -0.737292 -0.434209 -2.81698
internal_weight=22247 14692 7555 7654 6198 7038 1357 5969 3586 1685 2612 3913 3125 2194 2838 3131 614 226 2247 2344 1071 678 1299 1517 1242 1313 679 1719 2174 388
internal_count=22247 14692 7555 7654 6198 7038 1357 5969 3586 1685 2612 3913 3125 2194 2838 3131 614 226 2247 2344 1071 678 1299 1517 1242 1313 679 1719 2174 388
is_linear=0
shrinkage=0.05


Tree=29
num_leaves=31
num_cat=0
split_feature=17 17 45 17 17 17 46 46 17 17 17 33 10 46 17 17 46 17 17 45 31 59 20 20 17 17 67 44 47 28
split_gain=1.60442e+07 2.46068e+06 2.12022e+06 603821 505019 269186 234054 114317 101768 75066.4 61422.1 45668.3 37141.1 33654.1 17406.7 15618.6 13724.5 13607.8 13006.9 12820.8 12716.9 14812.6 12467.1 12294.2 11798.3 11246.2 9458.67 8872.25 8328.58 8181.59
threshold=4005.0816044516237 3887.585947682353 4201.5600000000004 4098.4381791147853 3803.821892336096 3950.0651101519684 4325.8350000000009 3850.3100000000004 4145.3645215291062 4045.918187878397 3746.6313426842294 3931.4718301216312 26.610000000000131 3982.2450000000003 4118.1453530389217 3867.8792706490053 4252.2150000000011 4169.4269516667482 3826.5832218583555 4338.7850000000008 56.066561038639911 3687.9400000000005 0.0028867932854711948 0.0034619468342856619 4074.4218949814335 3784.108467170106 3799.0550000000007 0.26944851026111144 0.5111923601405135 46.795529076689228
decision_type=2 2 2 2 2 2 2 2 2 2 2 2 2 2 2 2 2 2 2 2 2 2 2 2 2 2 2 2 2 2
left_child=1 4 3 9 10 11 16 18 14 27 20 -3 29 -7 -5 23 -4 -10 -6 -8 21 -1 -15 28 -11 -12 -22 -2 -9 -13
right_child=2 5 6 8 7 13 19 15 17 24 25 12 -14 22 -16 -17 -18 -19 -20 -21 26 -23 -24 -25 -26 -27 -28 -29 -30 -31
leaf_value=-3.9518626130145531 0.39672804078282536 -0.86065081245174602 2.7670102340374214 1.448490182224073 -1.857678947771229 -0.19657351557313524 3.9105660587549211 -1.5281164815937969 2.0095592817614594 0.92639734573364274 -2.410984367076062 -0.62663729017841552 1.6380323338508607 0.096428455239428446 1.7147012285612988 -1.1664888003796123 3.2218265709329827 2.32829027038684 -1.6197191248245018 4.3590701306600712 -2.7358981813703265 -2.9824851025668058 0.84856752240866951 -0.26684308598438899 1.2020185875346121 -2.0704156078030711 -1.6404699222608046 0.67841630747288839 -1.2835530309952894 -0.43556983338749378
leaf_weight=46 658 1530 518 1045 1035 1622 256 710 842 875 531 1066 20 1648 1489 1783 244 556 1290 422 189 275 57 24 698 446 22 486 683 1181
leaf_count=46 658 1530 518 1045 1035 1622 256 710 842 875 531 1066 20 1648 1489 1783 244 556 1290 422 189 275 57 24 698 446 22 486 683 1181
internal_value=-0.00192947 -1.01687 1.77449 1.39777 -1.68024 -0.361875 3.51394 -1.45883 1.79386 0.824573 -2.49091 -0.649576 -0.507121 -0.0335316 1.60492 -1.26496 2.91265 2.13632 -1.72565 4.18972 -2.9232 -3.1214 0.121573 -1.38887 1.0487 -2.25551 -2.62168 0.516396 -1.4082 -0.526214
internal_weight=22247 14158 8089 6649 7034 7124 1440 5525 3932 2717 1509 3797 2267 3327 2534 3200 762 1398 2325 678 532 321 1705 1417 1573 977 211 1144 1393 2247
internal_count=22247 14158 8089 6649 7034 7124 1440 5525 3932 2717 1509 3797 2267 3327 2534 3200 762 1398 2325 678 532 321 1705 1417 1573 977 211 1144 1393 2247
is_linear=0
shrinkage=0.05


Tree=30
num_leaves=31
num_cat=0
split_feature=17 17 17 46 17 17 46 17 46 17 17 17 23 46 17 18 18 18 17 17 46 18 46 18 18 18 22 46 46 18
split_gain=1.42898e+07 2.18088e+06 1.85565e+06 485912 409359 272204 264973 100647 78121.8 59237.1 51417.4 43354.3 28951 25324.8 24234.4 15270.1 14991.8 14581.3 12030.2 10805.9 10720 10094.1 9811.44 9729.92 9368.8 9261.02 8343 8335.62 7615.5 7240.86
threshold=4005.0816044516237 3884.9727603968881 4188.993731317566 4095.1700000000005 3797.7330709124403 3952.1947579666303 4325.8350000000009 3845.6918422953509 4137.4050000000007 3917.6433308714254 4045.918187878397 3746.6313426842294 3864.6112784997345 3982.2450000000003 4217.8086541398552 -0.00027363827898414794 -0.00022258300467602261 -0.00030106815801533865 3865.8779869388459 4339.503964563125 3714.3250000000003 0.00097261892204443111 3832.0050000000006 0.00081068208761347676 0.00036087451390371745 0.0010263002112838656 0.0014497014151160375 4166.3950000000013 4119.5650000000014 -0.00024336752096149362
decision_type=2 2 2 2 2 2 2 2 2 2 2 2 2 2 2 2 2 2 2 2 2 2 2 2 2 2 2 2 2 2
left_child=1 4 3 10 11 9 14 15 17 12 25 20 -3 -7 -4 -6 -10 -5 -9 -8 -1 -13 -17 -12 -15 -2 -11 -18 -19 -14
right_child=2 5 6 8 7 13 19 18 16 26 23 21 29 24 -16 22 27 28 -20 -21 -22 -23 -24 -25 -26 -27 -28 -29 -30 -31
leaf_value=-3.2888861287723894 0.45671195690972771 1.0195310443639756 2.3810066704480155 1.2475192906563741 -1.8364207384730014 -0.16940207907012669 3.6876280545138052 -1.341572369959817 1.7008363535930944 -0.51262606361744012 0.91265906057464596 -2.2769846986207449 -1.0545009397046454 0.041959107341801 2.884244490104078 -1.6837144812256861 1.9025430201212565 1.4170701650617008 -1.1392614082994825 4.114563896840294 -2.6812033624464764 -1.8117835624350442 -1.4364294190624445 1.3506811806853389 0.30231661007681276 0.94732771954446471 -0.20238706014361704 2.194421831241324 1.6444295711731642 -0.82256237788262254
leaf_weight=88 1039 20 424 684 838 1433 227 1340 688 2422 1183 613 489 1214 549 901 750 763 1627 427 414 144 723 142 483 106 238 363 712 1079
leaf_count=88 1039 20 424 684 838 1433 227 1340 688 2422 1183 613 489 1214 549 901 750 763 1627 427 414 144 723 142 483 106 238 363 712 1079
internal_value=0.000551031 -0.961201 1.67959 1.29789 -1.61512 -0.36844 3.18808 -1.42674 1.64117 -0.629132 0.747536 -2.42743 -0.870784 -0.0146313 2.66495 -1.66307 1.88432 1.43833 -1.23063 3.96638 -2.78773 -2.18849 -1.57362 0.959602 0.116062 0.502131 -0.484868 1.99774 1.52682 -0.894895
internal_weight=22123 14066 8057 6430 6688 7378 1627 5429 3960 4248 2470 1259 1588 3130 973 2462 1801 2159 2967 654 502 757 1624 1325 1697 1145 2660 1113 1475 1568
internal_count=22123 14066 8057 6430 6688 7378 1627 5429 3960 4248 2470 1259 1588 3130 973 2462 1801 2159 2967 654 502 757 1624 1325 1697 1145 2660 1113 1475 1568
is_linear=0
shrinkage=0.05


Tree=31
num_leaves=31
num_cat=0
split_feature=17 17 17 17 17 17 45 17 17 17 63 45 17 17 17 18 18 17 18 44 47 18 45 18 45 31 35 18 20 18
split_gain=1.28966e+07 1.96825e+06 1.67473e+06 438541 370036 246394 239284 76601.3 74472 55259.8 48967.3 47696 40420.8 36043.8 21847 14237.6 12797.6 12204.6 11335.8 11028.2 10921.1 10287.5 10237.1 9004.96 8938.37 8773.85 11771.6 7658.16 7139.44 6950.34
threshold=4005.0816044516237 3884.9727603968881 4188.993731317566 4086.3987782948916 3806.5310306834049 3945.7845504599027 4319.9900000000007 4132.5847112817728 3847.4081813564658 3746.6313426842294 3852.9164000000005 3906.5000000000005 4042.1266459598737 3969.8148176014006 4217.8086541398552 -6.5534862206334256e-05 7.0472282310965741e-05 4160.6454974298913 -0.00013613803518316224 1.0000000180025095e-35 0.9999999999959085 0.0010823043571323444 4359.9350000000004 0.00033172781357997837 4108.9750000000013 56.066561038639911 3681.2398017802775 0.00028417598119580436 0.0034619468342856619 -5.3475680919370881e-05
decision_type=2 2 2 2 2 2 2 2 2 2 2 2 2 2 2 2 2 2 2 2 2 2 2 2 2 2 2 2 2 2
left_child=1 4 3 12 9 10 14 15 16 25 -3 -12 27 -7 -4 24 -6 29 -10 -11 -17 -14 -8 -15 -5 26 -1 -2 -18 -9
right_child=2 5 6 7 8 13 22 17 18 19 11 -13 21 23 -16 20 28 -19 -20 -21 -22 -23 -24 -25 -26 -27 -28 -29 -30 -31
leaf_value=-3.6265587268731529 0.36657487564206881 1.8381423854827881 2.2619563028497516 1.0627618671971777 -1.6528163486342731 -0.24936326890801919 3.6557020048380866 1.5575827057735683 -1.2853018914054717 -2.1718474051915111 -0.87462120476040828 -0.50703373171804234 0.83898338114172477 0.011099848185885566 2.7397639618545284 1.4483936917840747 -1.4336255861372929 1.959808529086579 -1.0823945105075836 -1.8435150066233896 2.5984486806960336 1.4019599223959036 4.1158771944046029 0.23540940756397399 1.3568083187750786 -2.386062951607582 -2.6968287346968012 0.65325482856331529 -0.47968751788139347 1.8049532551166481
leaf_weight=39 713 20 424 494 1251 1396 494 529 1141 512 1397 2396 1206 1538 549 1214 1016 665 1735 511 21 87 160 631 542 195 268 346 20 613
leaf_count=39 713 20 424 494 1251 1396 494 529 1141 512 1397 2396 1206 1538 549 1214 1016 665 1735 511 21 87 160 631 542 195 268 346 20 613
internal_value=0.000523478 -0.913141 1.59561 1.233 -1.53436 -0.350018 3.02868 1.54659 -1.33223 -2.21868 -0.629409 -0.64242 0.689277 -0.0511911 2.53155 1.35329 -1.54518 1.78952 -1.16289 -2.00784 1.46795 0.876863 3.76828 0.0763554 1.2166 -2.64834 -2.81494 0.46024 -1.41521 1.69037
internal_weight=22123 14066 8057 6430 6688 7378 1627 4078 5163 1525 3813 3793 2352 3565 973 2271 2287 1807 2876 1023 1235 1293 654 2169 1036 502 307 1059 1036 1142
internal_count=22123 14066 8057 6430 6688 7378 1627 4078 5163 1525 3813 3793 2352 3565 973 2271 2287 1807 2876 1023 1235 1293 654 2169 1036 502 307 1059 1036 1142
is_linear=0
shrinkage=0.05


Tree=32
num_leaves=31
num_cat=0
split_feature=42 45 46 46 46 53 46 46 46 46 46 33 63 42 46 18 6 45 18 18 51 11 18 28 18 45 18 28 28 46
split_gain=1.16362e+07 2.01178e+06 1.3682e+06 405128 327300 199026 140991 89095.5 66928.4 58381.1 48140.1 27874.8 19748.1 19170.3 17527.4 14388.9 13103.4 12373.5 12089.5 11435.9 10991.9 11067.7 10835.3 10826.4 9516.6 9274.47 9089.58 8628.51 7977 7902.48
threshold=4024.2400000000002 3893.9450000000002 4215.3850000000011 3826.3000000000006 4114.045000000001 3971.3300000000004 4325.8350000000009 3784.5450000000005 3864.0850000000005 4150.295000000001 4071.7200000000007 3942.9237943207904 3829.4985000000006 3998.4940000000001 3727.8200000000002 -0.00017309624383840254 22.699999999999594 4171.4800000000005 -0.00026619615753281173 -0.00062646028212569066 -0.91447403664480753 0.0046856151703873307 -5.226904506266396e-06 33.189219517819566 -0.0036382669328204938 4338.7850000000008 -0.00030841192924462545 52.125950458865667 52.923637725094316 3925.1450000000004
decision_type=2 2 2 2 2 2 2 2 2 2 2 2 2 2 2 2 2 2 2 2 2 2 2 2 2 2 2 2 2 2
left_child=1 3 4 7 10 11 -4 14 18 23 -2 29 -10 20 -1 24 27 28 -5 -9 -7 -22 -12 -6 -14 -8 -16 -13 -11 -3
right_child=2 5 6 8 9 13 25 19 12 17 22 16 15 -15 26 -17 -18 -19 -20 -21 21 -23 -24 -25 -26 -27 -28 -29 -30 -31
leaf_value=-2.7701963140205907 0.6478670706224442 -0.69415016904171134 2.5477124953698258 -1.5046726120226761 1.2214417934157271 -0.16190435703044162 3.3434352309336308 -1.9507209240022254 0.57770750626921652 1.6166032846624203 0.93271358838148599 -0.41572068896737058 -2.1944469542730425 0.30318275581523441 -2.4395200925515899 -0.91325488126764454 0.96499208107590673 2.0537740699433584 -1.2650439355366137 -1.6019673250477489 0.078061383094198286 1.1390742924213411 1.2042245743573115 1.4957048579282775 -1.119952871768205 3.7300434416963579 -2.0797284023992479 -0.211144840461299 1.8980968867910322 -0.48740818729243618
leaf_weight=176 1250 789 668 774 472 573 253 305 20 550 727 1113 21 878 282 1856 20 479 1645 1025 1458 25 743 1514 1101 401 465 960 464 1116
leaf_count=176 1250 789 668 774 472 573 253 305 20 550 727 1113 21 878 282 1856 20 479 1645 1025 1458 25 743 1514 1101 401 465 960 464 1116
internal_value=0.000497304 -0.822475 1.5983 -1.38041 1.28687 -0.205138 3.05863 -1.94388 -1.14606 1.60811 0.875976 -0.434649 -0.988192 0.107605 -2.32131 -0.998708 -0.308694 1.84434 -1.34172 -1.68194 0.0240852 0.0959476 1.06995 1.43052 -1.14006 3.58048 -2.21555 -0.320982 1.74541 -0.573035
internal_weight=22123 14602 7521 7670 6199 6932 1322 2253 5417 3479 2720 3998 2998 2934 923 2978 2093 1493 2419 1330 2056 1483 1470 1986 1122 654 747 2073 1014 1905
internal_count=22123 14602 7521 7670 6199 6932 1322 2253 5417 3479 2720 3998 2998 2934 923 2978 2093 1493 2419 1330 2056 1483 1470 1986 1122 654 747 2073 1014 1905
is_linear=0
shrinkage=0.05


Tree=33
num_leaves=31
num_cat=0
split_feature=46 45 46 46 46 45 53 45 46 46 42 46 20 45 44 24 45 18 23 18 18 18 62 18 46 45 69 46 18 18
split_gain=1.05026e+07 1.65093e+06 1.33446e+06 366165 357513 164105 139642 85151.1 57316.8 54659.9 48523.8 24903.9 15415.5 15881.8 12945.9 12771.6 12613.7 11709.4 11582 11537.7 11302 11118.2 10019.6 9903.73 8984.08 8781.65 8698.03 8211.1 7908.07 7670.49
threshold=4014.4200000000005 3893.9450000000002 4203.920000000001 3827.8050000000007 4105.4100000000008 4319.9900000000007 3971.3300000000004 3768.5400000000004 3871.4400000000001 4143.6350000000011 4059.9310000000005 3941.4650000000006 0.0046442655624164232 3698.1300000000006 0.39877580811977614 0.0097275080230776832 4232.7650000000003 -0.0002113418528623696 3849.2695435944984 0.00040606372914619093 -0.00049977760635278436 -0.00038294868800577278 0.0024955870103221707 -0.00024336752096149362 4377.8450000000003 3840.0250000000005 0.0018210934525563121 3988.1350000000007 -0.00063991658762187166 0.00012141932524377153
decision_type=2 2 2 2 2 2 2 2 2 2 2 2 2 2 2 2 2 2 2 2 2 2 2 2 2 2 2 2 2 2
left_child=1 3 4 7 10 16 11 12 14 21 19 22 13 26 25 20 -4 -11 -10 -2 -8 -6 -3 -20 -7 -5 -1 -22 -9 -12
right_child=2 6 5 8 9 24 15 28 18 17 29 -13 -14 -15 -16 -17 -18 -19 23 -21 27 -23 -24 -25 -26 -27 -28 -29 -30 -31
leaf_value=-2.57475199508667 0.41235023241869861 -0.53405303168685525 2.1829661904686173 -1.4466615875401156 1.1145746147512792 3.3338767975620422 -0.15175239693678114 -1.8298634299749061 0.26901962416512626 1.5128411751228359 0.82468635151583958 -0.2726956589354585 -0.95963983908295636 -2.2013770536032471 -1.1013082116791499 1.2101822902758919 2.5806432300143776 1.791151111560096 -1.0581106527610118 0.7407677889525236 0.0026608671682717671 1.3684801314294954 0.59012732990086081 -0.83955860077179245 3.9088697210534828 -1.2205415566450935 -3.7022492665510911 0.20742828695468407 -1.5485774215641532 1.0693642041576443
leaf_weight=50 1008 2211 497 741 597 577 538 316 21 614 796 1767 23 738 1174 24 333 983 767 364 961 1552 20 1599 77 1021 26 998 1194 536
