tree
version=v4
num_class=1
num_tree_per_iteration=1
label_index=0
max_feature_idx=84
objective=regression
feature_names=return_1 return_2 return_5 return_10 log_return_1 log_return_5 momentum_5 momentum_10 momentum_20 acceleration_5 hl_range hl_range_pct oc_range oc_range_pct body_to_range gap gap_pct ema_5 price_to_ema_5 ema_10 price_to_ema_10 ema_20 price_to_ema_20 ema_50 price_to_ema_50 macd macd_signal macd_histogram rsi_7 rsi_14 rsi_21 stoch_k stoch_d bb_upper bb_middle bb_lower bb_width bb_position atr atr_pct volume_ma_20 volume_ratio close_mean_5 close_std_5 close_zscore_5 close_min_5 close_max_5 position_in_range_5 return_volatility_5 close_mean_10 close_std_10 close_zscore_10 close_min_10 close_max_10 position_in_range_10 return_volatility_10 close_mean_20 close_std_20 close_zscore_20 close_min_20 close_max_20 position_in_range_20 return_volatility_20 close_mean_50 close_std_50 close_zscore_50 close_min_50 close_max_50 position_in_range_50 return_volatility_50 trend_short trend_medium trend_long is_bullish upper_shadow_ratio lower_shadow_ratio consecutive_up volume_increasing hour minute day_of_week hour_sin hour_cos day_sin day_cos
feature_infos=[-0.024515655357383648:0.015970138521177013] [-0.023676935920058817:0.018769916030995093] [-0.03544368916036944:0.024118297781916542] [-0.035323209999524319:0.032744337499401421] [-0.024821167594530208:0.015843957505045837] [-0.036087064888417633:0.02383204512244947] [-141.93000000000029:84.769999999999982] [-141.12999999999965:102.57000000000016] [-137.78999999999996:134.72000000000025] [-154.12000000000035:150.75999999999976] [0.009999999999308784:99.099999999999909] [2.4381740025573478e-06:0.0253698597873642] [-98.179999999999836:48.850000000000364] [-0.024518091394694283:0.015966817782165004] [0:0.99999999999339062] [-0.32999999999992724:1.3099999999999454] [-9.4500094500077868e-05:0.00038628368555916642] [3094.3109329988592:4248.2615006028363] [-0.015528828689712301:0.010702411936055502] [3105.9404734556929:4245.5428266442059] [-0.020731044943652986:0.015992414889955533] [3120.5370321849846:4240.1449772926644] [-0.02765674675753238:0.019720675987774654] [3147.2631468659515:4235.169857221752] [-0.035399777073791425:0.025631626899165347] [-34.899293818622027:29.395385821035688] [-27.997413811683856:27.109165240278813] [-13.692727913004553:10.50100669099375] [0.53411747224954809:99.356226721187554] [3.0804781740676219:96.385608854846311] [5.317547044231091:93.006736169856964] [0:100] [0:100] [3163.4016661518458:4256.8052340998975] [3115.1665000000003:4242.3490000000002] [3056.4164611935421:4231.9272274478544] [0.044576798434652662:6.021556930679683] [-0.53990395306051664:1.5042746738016892] [0.41077007133332993:28.338089870163753] [0.00010440210225780403:0.0082089070655969234] [19.5:4831.8500000000004] [0.021511158913674909:15.700815087097427] [3088.4499999999998:4248.402] [0.0044719995259101305:45.651205570056554] [-1.7888545311885229:1.7888543983495691] [3059.46:4245.9700000000003] [3108.3200000000002:4251.1300000000001] [0:0.99999999999880163] [2.037708755826753e-05:0.012216323216993674] [3096.7660000000001:4247.2049999999999] [0.24040706559618485:56.930666106593094] [-2.807445894738275:2.8043812010847207] [3059.46:4244.7200000000003] [3116.4499999999998:4251.1300000000001] [0:0.99999999999885625] [7.660985038337465e-05:0.0091807795031913567] [3115.1665000000003:4242.3490000000002] [0.4392086198989445:59.316076659438011] [-4.1596158122239943:4.0170986950426313] [3059.46:4232.3000000000002] [3147.9400000000001:4251.1300000000001] [0:0.99999999999926081] [0.000132415919793648:0.0072130582044666863] [3151.1417999999999:4236.0151999999998] [0.75588186247986788:66.681403103933349] [-6.070288672964586:5.7805916425474537] [3059.46:4227.5799999999999] [3200.3200000000002:4251.1300000000001] [0:0.99999999999952205] [0.00016970648274226139:0.0054188707351315929] [-1:1] [-1:1] [-1:1] [0:1] [0:0.99999999996710531] [0:0.99999999995614031] [0:11] [0:1] [0:23] [0:59] [0:6] [-1:1] [-1:1] [-0.97492791218182362:0.97492791218182362] [-0.90096886790241903:1]
tree_sizes=2768 2809 2812 2807 2815 2800 2809 2800 2805 2799 2800 2796 2806 2804 2772 2799 2793 2783 2797 2788 2799 2797 2785 2796 2791 2797 2786 2794 2796 2803 2800 2804 2807 2808 2810 2802 2801 2810 2813 2816 2792 2813 2818 2803 2805 2819 2839 2843 2835 2841 2809 2839 2835 2850 2857 2852 2878 2845 2863 2861 2828 2881 2877 2871 2890 2867 2893 2875 2893 2881 2881 2864 2843 2900 2873 2872 2862 2880 2876 2887 2900 2867 2890 2873 2865 2892 2891 2875 2885 2875 2869 2878 2865 2873 2885 2871 2898 2867 2874 2888 2843 2884 2867 2877 2866 2886 2874 2872 2865 2894 2867 2875 2863 2853 2845 2881 2875 2841 2884 2877 2886 2876 2864 2853 2880 2871 2883 2873 2868 2850 2891 2880 2874 2873 2903 2869 2866 2870 2181 2875 2857 2853 2885 2893 2873 2776 2855 2803 2874 2843 2892 2877 2850 2850 2860 2869 2886 2888 2864 2882 2845 2847 2863 2837 2841 2868 2909 2875 2866 2076 2885 1636 2880 2347 2077 2533 2867 2847 2885 2857 2877 2861 2856 2880 2877 2507 2093 2891 2441 2501 2344 2855 2419 2497 2055 2448 2867 2867 2441 2856 2650 2872 2867 2480 2828 2868 2864 2901 2863 2921 1734 1703 2798 2437 1627 2513 2225 2868 2335 2077 1555 2712 1540 2856 1384 2860 2825 2829 2796 2833 2804

Tree=0
num_leaves=31
num_cat=0
split_feature=45 17 17 17 17 17 17 45 17 17 17 46 17 46 17 45 17 17 17 17 17 17 46 17 17 46 17 17 17 17
split_gain=1.08184e+09 1.46576e+08 4.85735e+07 2.68104e+07 2.3426e+07 1.10261e+07 7.86998e+06 5.16838e+06 4.68825e+06 2.73952e+06 2.60944e+06 2.43997e+06 1.10798e+06 920269 685187 490931 485751 370865 363898 357779 320440 265587 264654 248989 246757 175358 168308 160588 158020 92274.6
threshold=3660.9750000000004 3973.7511093356457 3444.4037483175039 3872.3627229902499 4087.3970523661342 3789.2937826009529 3339.6862866449951 3541.2500000000005 3914.9769146974709 4023.286407937795 4155.2842105181799 3275.8000000000006 3839.6681399721792 3394.1650000000004 3739.2178747623457 4187.2150000000011 3945.9247303889283 3613.5478391189754 4053.3553132200473 3309.599203705613 3196.8084657243421 3890.1724717312777 3488.2350000000001 3996.9270520482573 4123.864550440343 3374.8550000000005 3857.5785747248942 3818.5048645096372 3417.6498382358945 3765.3064345190955
decision_type=2 2 2 2 2 2 2 2 2 2 2 2 2 2 2 2 2 2 2 2 2 2 2 2 2 2 2 2 2 2
left_child=2 3 6 5 9 14 11 22 21 23 24 20 27 25 -2 -12 -10 -9 -11 -13 -1 -5 -4 -3 -6 -8 -14 -7 -15 -16
right_child=1 4 7 8 10 12 13 17 16 18 15 19 26 28 29 -17 -18 -19 -20 -21 -22 -23 -24 -25 -26 -27 -28 -29 -30 -31
leaf_value=3789.1927212129026 3816.3272557418536 3829.7385496001393 3803.6330006042431 3824.457885935064 3835.9460290825318 3820.8011217481048 3798.1858431062819 3809.9992701327647 3827.1458908040972 3832.2705850921266 3838.8984229580028 3795.2665408855623 3822.958525451048 3800.513545949093 3818.0809533887414 3841.1605159628066 3828.3396064906674 3812.2897256153565 3833.9505881847958 3796.8115410606547 3792.543305840928 3825.4812691108918 3805.8053189088314 3830.9285579241955 3837.3845865780727 3799.678302326281 3823.6788653123908 3821.9768201497859 3802.0622821118154 3819.4067246063451
leaf_weight=89 660 1208 206 1654 688 436 460 316 2159 612 468 712 1667 308 261 492 1408 401 681 791 360 1028 439 691 526 344 1579 870 354 264
leaf_count=89 660 1208 206 1654 688 436 460 316 2159 612 468 712 1667 308 261 492 1408 401 681 791 360 1028 439 691 526 344 1579 870 354 264
internal_value=3821.44 3827.24 3800.37 3824.16 3834.11 3821.7 3797.19 3808.36 3826.43 3831.38 3838.11 3795.11 3822.81 3799.96 3817.4 3840.06 3827.62 3811.28 3833.16 3796.08 3791.88 3824.85 3805.11 3830.17 3836.57 3798.82 3823.31 3821.58 3801.34 3818.75
internal_weight=22132 17352 4780 11986 5366 5737 3418 1362 6249 3192 2174 1952 4552 1466 1185 960 3567 717 1293 1503 449 2682 645 1899 1214 804 3246 1306 662 525
internal_count=22132 17352 4780 11986 5366 5737 3418 1362 6249 3192 2174 1952 4552 1466 1185 960 3567 717 1293 1503 449 2682 645 1899 1214 804 3246 1306 662 525
is_linear=0
shrinkage=1


Tree=1
num_leaves=31
num_cat=0
split_feature=45 17 17 17 17 17 17 17 45 17 17 17 17 17 17 45 17 17 17 17 17 17 17 46 17 46 17 17 17 46
split_gain=9.76363e+08 1.32304e+08 4.38376e+07 2.36831e+07 2.17627e+07 9.43229e+06 7.1044e+06 4.69416e+06 4.66446e+06 2.5787e+06 2.33422e+06 2.32154e+06 881238 706675 618381 443066 423721 379582 334706 321013 285122 279888 256911 238850 202445 177400 129738 123719 83277.9 75252.1
threshold=3660.9750000000004 3971.4730744361864 3444.4037483175039 3868.4014540727953 4079.4041885134052 3789.2937826009529 3344.6129838972197 3911.4315427359184 3541.2500000000005 4155.2842105181799 4020.2798992079292 3269.3112905865664 3837.7878638568986 3398.8211795945294 3739.2178747623457 4187.2150000000011 3942.1721107609033 3314.1748221053344 3613.5478391189754 4046.3561076441097 3196.8084657243421 4117.8800811278752 3886.5348195004558 3488.2350000000001 3992.8872841710331 3374.8550000000005 3814.7010270754449 3853.9328138313263 3765.3064345190955 3243.6150000000002
decision_type=2 2 2 2 2 2 2 2 2 2 2 2 2 2 2 2 2 2 2 2 2 2 2 2 2 2 2 2 2 2
left_child=2 3 6 5 10 14 11 22 23 21 24 20 26 25 -2 -11 -9 -13 -10 -12 -1 -6 -5 -4 -3 -8 -7 -14 -16 -22
right_child=1 4 8 7 9 12 13 16 18 15 19 17 27 -15 28 -17 -18 -19 -20 -21 29 -23 -24 -25 -26 -27 -28 -29 -30 -31
leaf_value=-30.653052923652567 -4.8752444689201591 7.7463863420401458 -16.934785861413456 2.7050339195689044 13.450005522962371 -0.75776265025909606 -21.980363603071737 5.2689715890681494 -10.886830622033228 16.567364397619524 10.098456125945049 -24.802530002237702 1.2920789055265429 -18.825590071191218 -3.2092317420404082 18.716353154376272 6.3608166535601072 -23.258841745883604 -8.7108977643628958 11.676363263011154 -28.215936827927493 14.92615247516332 3.6567779383542867 -14.87108418631934 8.7939807818767211 -20.532431989039239 0.38547414979267591 1.9401010676613855 -1.9497490109819353 -26.762037127205499
leaf_weight=89 660 1122 206 1761 594 348 374 1880 316 468 612 803 1314 519 261 492 1685 790 401 681 178 699 1187 439 783 487 865 1676 264 178
leaf_count=89 660 1122 206 1761 594 348 374 1880 316 468 612 803 1314 519 261 492 1685 790 401 681 178 699 1187 439 783 487 865 1676 264 178
internal_value=-0.0214734 5.49047 -20.0305 2.53566 11.9416 0.0833575 -23.0531 4.56438 -12.4451 15.7056 9.28987 -24.9289 1.19418 -20.2829 -3.85654 17.6687 5.78503 -24.037 -9.66989 10.9295 -28.1218 14.248 3.08825 -15.5302 8.17697 -21.1614 0.0574887 1.65532 -2.57589 -27.489
internal_weight=22132 17352 4780 11901 5451 5388 3418 6513 1362 2253 3198 2038 4203 1380 1185 960 3565 1593 717 1293 445 1293 2948 645 1905 861 1213 2990 525 356
internal_count=22132 17352 4780 11901 5451 5388 3418 6513 1362 2253 3198 2038 4203 1380 1185 960 3565 1593 717 1293 445 1293 2948 645 1905 861 1213 2990 525 356
is_linear=0
shrinkage=0.05


Tree=2
num_leaves=31
num_cat=0
split_feature=45 46 46 46 42 46 42 45 42 45 46 46 46 42 46 42 46 42 46 46 42 42 46 46 42 19 46 46 46 46
split_gain=8.81168e+08 1.19376e+08 3.95653e+07 2.15466e+07 1.94433e+07 8.87864e+06 6.67434e+06 3.92233e+06 3.84907e+06 2.32544e+06 2.10032e+06 2.08393e+06 759613 704840 692569 437019 368953 337002 304333 283257 262360 227870 223941 193934 182746 167654 117011 100386 93852.1 86967.4
threshold=3660.9750000000004 3975.2900000000004 3454.6400000000003 3873.9450000000002 4080.027000000001 3800.5150000000008 3344.8380000000006 3541.2500000000005 3915.4360000000006 4147.5250000000005 3275.8000000000006 4023.2650000000003 3843.8800000000006 3403.4200000000005 3749.4450000000002 4187.4410000000016 3950.6950000000002 3314.217000000001 3608.5400000000004 4057.3600000000006 3228.8470000000002 3890.4130000000009 4115.2650000000003 3374.8550000000005 3994.8550000000005 3490.5132587669368 3859.4850000000001 3827.2150000000006 3720.5350000000003 3936.0850000000005
decision_type=2 2 2 2 2 2 2 2 2 2 2 2 2 2 2 2 2 2 2 2 2 2 2 2 2 2 2 2 2 2
left_child=2 3 6 5 11 14 10 25 21 22 20 24 27 23 28 -11 29 -12 -9 -13 -1 -5 -6 -8 -3 -4 -14 -7 -2 -10
right_child=1 4 7 8 9 12 13 18 16 15 17 19 26 -15 -16 -17 -18 -19 -20 -21 -22 -23 -24 -25 -26 -27 -28 -29 -30 -31
leaf_value=-28.204888473857537 -5.1254460731917 7.4109456792928405 -15.711920708104186 2.6944573166732968 12.521914899671401 -0.31840190317563799 -20.882111145347679 -10.523712095339199 4.8257682628722858 15.641852479915029 -23.549974991587664 9.7135179427766456 1.3538163100719138 -17.618716234619665 -2.1773538709344233 17.732310722410215 6.2341154655141997 -22.09454352270199 -8.3929158376057948 11.206152227958178 -25.729154297545719 3.6352121787569973 13.950365328392337 -19.416008139405577 8.4252628562155731 -13.999421914999543 1.968187119705872 0.58099157985222705 -3.9780899461110431 5.4464542942311382
leaf_weight=176 353 1180 228 1736 407 508 372 267 1045 485 801 685 1512 467 544 516 1237 790 450 593 273 1023 842 573 712 383 1590 797 360 1227
leaf_count=176 353 1180 228 1736 407 508 372 267 1045 485 801 685 1512 467 544 516 1237 790 450 593 273 1023 842 573 712 383 1590 797 360 1227
internal_value=-0.0203997 5.21594 -19.029 2.42085 11.3693 0.185702 -21.8505 -11.6948 4.44061 14.9239 -23.6796 8.84628 1.24295 -19.2078 -3.52098 16.7195 5.53928 -22.8273 -9.18639 10.4061 -26.6996 3.04328 13.4849 -19.9931 7.79265 -14.6385 1.66873 0.230883 -4.54614 5.16097
internal_weight=22132 17352 4780 11932 5420 5664 3452 1328 6268 2250 2040 3170 4407 1412 1257 1001 3509 1591 717 1278 449 2759 1249 945 1892 611 3102 1305 713 2272
internal_count=22132 17352 4780 11932 5420 5664 3452 1328 6268 2250 2040 3170 4407 1412 1257 1001 3509 1591 717 1278 449 2759 1249 945 1892 611 3102 1305 713 2272
is_linear=0
shrinkage=0.05


Tree=3
num_leaves=31
num_cat=0
split_feature=52 17 17 17 17 17 17 46 42 45 17 46 17 17 17 17 17 17 17 46 17 17 17 17 17 17 17 17 17 46
split_gain=7.95285e+08 1.08324e+08 3.46435e+07 1.93385e+07 1.82279e+07 8.61498e+06 5.82091e+06 3.63075e+06 2.89876e+06 2.10454e+06 1.99959e+06 1.60506e+06 944530 891880 426671 397035 309184 276528 269809 252418 225943 209247 202723 196114 170997 153185 146516 114384 86441 83819.9
threshold=3653.4400000000005 3968.8518767056125 3444.4037483175039 3833.0691660892685 4079.4041885134052 3902.8075019062576 3334.0533853471593 3553.1350000000007 3765.4270000000006 4147.5250000000005 4016.358078761325 3261.4200000000005 3383.5269429358909 3866.5023693471971 3937.4529642967373 4186.7311629795222 4046.3561076441097 3803.4287279373807 3297.0524031299315 3608.5400000000004 3725.5893518345938 4120.4088847198373 3417.6498382358945 3478.1009640894731 3196.8084657243421 3881.8241688406133 3989.1644074581354 3849.8561786894788 3924.1723840054151 3359.5750000000003
decision_type=2 2 2 2 2 2 2 2 2 2 2 2 2 2 2 2 2 2 2 2 2 2 2 2 2 2 2 2 2 2
left_child=2 3 6 8 10 13 11 23 20 21 26 24 29 27 28 -11 -12 -10 -13 -9 -2 -6 -14 -4 -1 -15 -3 -5 -7 -8
right_child=1 4 7 5 9 14 12 19 17 15 16 18 22 25 -16 -17 -18 -19 -20 -21 -22 -23 -24 -25 -26 -27 -28 -29 -30 -31
leaf_value=-27.710154364082253 -4.7653749684571283 6.8827060076579958 -15.449290067499334 0.99600820994332073 12.218028461461884 4.0266342092915925 -20.352858792307075 -10.009917421694155 -1.4160276044620559 14.846032371520998 9.0460292712768045 -23.05509096331301 -18.167469377251734 2.3172888541115788 5.5838662600057196 16.839282791811311 10.54192086106355 0.12149871893899662 -21.573064849471251 -8.0558133174555966 -3.2161545541069723 13.516211109127855 -16.605022943356616 -13.490253250384024 -25.177082968657871 3.0513153499208241 7.7632807513238093 1.6431219645625956 4.7712794483720034 -19.31619317158837
leaf_weight=89 506 1035 176 1058 683 598 459 270 445 480 701 452 502 1577 2021 521 681 853 958 426 440 569 354 466 265 1294 869 1926 1119 339
leaf_count=89 506 1035 176 1058 683 598 459 270 445 480 701 452 502 1577 2021 521 681 853 958 426 440 569 354 466 265 1294 869 1926 1119 339
internal_value=-0.0193797 4.93931 -18.1359 2.23877 10.7105 3.21622 -20.8059 -11.3154 -1.93979 14.1744 8.33542 -22.8039 -18.675 2.01899 5.09149 15.8835 9.78315 -0.405619 -22.0482 -8.81387 -4.04481 12.808 -17.5213 -14.0273 -25.8139 2.64812 7.28461 1.41368 4.51193 -19.9125
internal_weight=22132 17376 4756 11837 5539 9593 3418 1338 2244 2253 3286 1764 1654 5855 3738 1001 1382 1298 1410 696 946 1252 856 642 354 2871 1904 2984 1717 798
internal_count=22132 17376 4756 11837 5539 9593 3418 1338 2244 2253 3286 1764 1654 5855 3738 1001 1382 1298 1410 696 946 1252 856 642 354 2871 1904 2984 1717 798
is_linear=0
shrinkage=0.05


Tree=4
num_leaves=31
num_cat=0
split_feature=45 17 17 17 17 17 17 17 45 17 17 17 17 17 17 17 17 17 45 17 17 17 17 17 17 17 45 17 17 19
split_gain=7.17753e+08 9.7285e+07 3.22237e+07 1.70362e+07 1.64611e+07 6.6519e+06 5.25337e+06 3.66105e+06 3.42469e+06 2.0012e+06 1.73232e+06 1.44808e+06 852439 585177 454178 283812 273422 253242 250710 243192 232526 230461 192095 182958 181974 156558 84493 83175.7 76801.7 62297.3
threshold=3660.9750000000004 3968.8518767056125 3444.4037483175039 3865.7582870771735 4087.3970523661342 3789.2937826009529 3334.0533853471593 3911.4315427359184 3541.2500000000005 4026.6347182116106 4160.3989417665789 3255.0902282494303 3383.5269429358909 3835.6077045322149 3739.2178747623457 3941.1131609163012 4198.3745539207275 4001.4917526053323 3614.1000000000004 3300.2637943075883 4128.6344164379598 3883.8910087146191 4059.4547066982836 3417.6498382358945 3490.2874337273383 3196.8084657243421 3808.1850000000004 3850.6128238554438 3359.3901399891311 3766.6498627107831
decision_type=2 2 2 2 2 2 2 2 2 2 2 2 2 2 2 2 2 2 2 2 2 2 2 2 2 2 2 2 2 2
left_child=2 3 6 5 9 14 11 21 24 17 20 25 28 26 -2 -9 -12 -3 -10 -13 -6 -5 -11 -14 -4 -1 -7 -15 -8 -16
right_child=1 4 8 7 10 13 12 15 18 22 16 19 23 27 29 -17 -18 -19 -20 -21 -22 -23 -24 -25 -26 -27 -28 -29 -30 -31
leaf_value=-26.324647161933814 -4.1845169058713045 6.7387140866657775 -14.332817825960474 2.2237514763085175 11.861219940185547 -0.67968687861018595 -19.265652935100054 4.4907881031217425 -9.2263410669183337 8.994668299732929 14.398770434905519 -21.78382701766424 -17.259096046842902 0.99658978931380049 -2.7596500935445309 5.3946688639594429 16.165484129051958 7.9466034621049877 -7.3564047296619952 -20.428723069459409 13.227786313797058 3.0794470686954245 10.258410491686478 -15.774770868161305 -12.621743857860565 -23.904289530284373 0.2749537375647968 1.5581910515918354 -18.227045070591256 -1.6703297459127331
leaf_weight=89 660 1561 261 1845 780 327 530 1791 359 609 437 533 502 1056 262 1686 439 601 358 874 518 1372 594 354 384 268 796 1755 268 263
leaf_count=89 660 1561 261 1845 780 327 530 1791 359 609 437 533 502 1056 262 1686 439 601 358 874 518 1372 594 354 384 268 796 1755 268 263
internal_value=-0.0184107 4.70751 -17.1741 2.14389 10.1749 -0.0274422 -19.7656 3.80434 -10.6707 7.98404 13.5661 -21.6637 -17.7412 0.961777 -3.31148 4.92908 15.2841 7.07449 -8.29268 -20.9421 12.4066 2.58869 9.61866 -16.6453 -13.3141 -24.5077 -0.00302265 1.34722 -18.9168 -2.21395
internal_weight=22132 17352 4780 11813 5539 5119 3418 6694 1362 3365 2174 1764 1654 3934 1185 3477 876 2162 717 1407 1298 3217 1203 856 645 357 1123 2811 798 525
internal_count=22132 17352 4780 11813 5539 5119 3418 6694 1362 3365 2174 1764 1654 3934 1185 3477 876 2162 717 1407 1298 3217 1203 856 645 357 1123 2811 798 525
is_linear=0
shrinkage=0.05


Tree=5
num_leaves=31
num_cat=0
split_feature=46 17 46 17 17 17 17 17 17 17 17 17 17 17 17 17 46 17 17 17 17 17 17 46 17 17 17 17 46 17
split_gain=6.34078e+08 8.72615e+07 2.87223e+07 1.5124e+07 1.49688e+07 6.59473e+06 4.84379e+06 2.90397e+06 2.40768e+06 1.89869e+06 1.57989e+06 1.41391e+06 652242 604084 365141 352998 229647 224826 213965 204872 188280 178048 169654 153884 136123 119212 100122 89859.6 85868.3 75751.5
threshold=3673.9400000000005 3965.7901884167163 3454.6400000000003 4075.186452729979 3835.6077045322149 3900.9843377136976 3339.6862866449951 3573.6895869497716 3774.3748605095061 4148.0790486452215 4016.358078761325 3269.3112905865664 3869.6417707180212 3394.9988578127895 3935.4082605028975 4186.7311629795222 4109.9550000000008 3732.0898110348153 4040.6656780059425 3309.599203705613 3506.2538746384248 3228.512217180325 3808.7173417756526 3624.0650000000005 3987.6211769916813 3365.9532859409201 3855.3261906837329 3883.8910087146191 3424.1150000000002 3921.1328498691719
decision_type=2 2 2 2 2 2 2 2 2 2 2 2 2 2 2 2 2 2 2 2 2 2 2 2 2 2 2 2 2 2
left_child=2 4 6 10 8 12 11 20 17 16 24 21 26 25 29 -11 -5 -2 -12 -13 -4 -1 -10 -9 -3 -8 -6 -14 -15 -7
right_child=1 3 7 9 5 14 13 23 22 15 18 19 27 28 -16 -17 -18 -19 -20 -21 -22 -23 -24 -25 -26 -27 -28 -29 -30 -31
leaf_value=-24.163450107913047 -4.0948106762400851 6.1424071467874626 -13.020797521417791 10.44837590523486 1.0590347220379239 3.5344846560554446 -18.028743974716502 -8.5187729154314322 -1.0005414988616068 13.344251273837486 8.0769296302795421 -20.275489461562216 2.1732988781258662 -16.06346193491984 4.9705305229951424 15.204622077199737 11.862793484249631 -2.584458620317521 9.36323759593229 -19.080494195387768 -11.310375973747227 -22.091074621855327 0.22116642041450324 -6.9669592652269587 6.963577422309168 -16.847133424446309 1.6232823950345399 2.7774346984349769 -14.8885874588834 4.234105950747364
leaf_weight=169 570 1052 396 424 1559 613 433 280 422 506 600 680 1508 278 2076 514 888 434 701 759 271 268 870 372 970 421 1586 1040 353 1049
leaf_count=169 570 1052 396 424 1559 613 433 280 422 506 600 680 1508 278 2076 514 888 434 701 759 271 268 870 372 970 421 1586 1040 353 1049
internal_value=0.0769961 4.47537 -16.259 9.577 2.01526 2.89667 -18.7128 -10.0063 -1.60519 12.6637 7.41085 -20.4016 1.8253 -16.5794 4.52837 14.2817 11.4057 -3.44193 8.77001 -19.6452 -12.3259 -22.8925 -0.177874 -7.63338 6.53634 -17.4462 1.34358 2.41988 -15.4062 3.97606
internal_weight=22062 17382 4680 5655 11727 9431 3361 1319 2296 2332 3323 1876 5693 1485 3738 1020 1312 1004 1301 1439 667 437 1292 652 2022 854 3145 2548 631 1662
internal_count=22062 17382 4680 5655 11727 9431 3361 1319 2296 2332 3323 1876 5693 1485 3738 1020 1312 1004 1301 1439 667 437 1292 652 2022 854 3145 2548 631 1662
is_linear=0
shrinkage=0.05


Tree=6
num_leaves=31
num_cat=0
split_feature=46 17 52 17 17 17 46 17 17 17 17 17 17 17 17 17 17 17 17 46 46 17 17 46 46 17 17 17 17 17
split_gain=5.72256e+08 7.87535e+07 2.59279e+07 1.36494e+07 1.35234e+07 5.40172e+06 4.57088e+06 2.80644e+06 2.41454e+06 1.71357e+06 1.42916e+06 1.36773e+06 508797 493491 320915 296947 227549 224351 214123 207256 203371 177004 139394 139323 117521 99291.6 82967.9 73565.8 60858.8 50861.2
threshold=3673.9400000000005 3965.7901884167163 3451.7250000000008 4075.186452729979 3843.8379658051413 3902.8075019062576 3350.0950000000007 3774.3748605095061 3573.6895869497716 4148.0790486452215 4012.7765944319231 3278.5734334407421 3403.1879002727374 3874.0001124178848 4198.3745539207275 3939.1971659090918 3814.7010270754449 4046.3561076441097 3228.512217180325 4109.9550000000008 3732.7800000000002 3317.9511218068096 3625.7634865065515 3520.7300000000005 3374.8550000000005 3987.6211769916813 3859.8960709885582 3926.4011342971148 3887.5862136362734 4132.5641985274333
decision_type=2 2 2 2 2 2 2 2 2 2 2 2 2 2 2 2 2 2 2 2 2 2 2 2 2 2 2 2 2 2
left_child=2 4 6 10 7 13 11 20 23 19 25 18 24 26 -11 27 -9 -12 -1 -5 -2 -13 -10 -4 -8 -3 -6 -7 -15 -21
right_child=1 3 8 9 5 15 12 16 22 14 17 21 -14 28 -16 -17 -18 -19 -20 29 -22 -23 -24 -25 -26 -27 -28 -29 -30 -31
leaf_value=-22.955277500491171 -3.9361132634243123 5.8352869385548871 -12.001239418786419 9.9259569455992516 1.1963489543437389 3.498380908508731 -16.990458887866421 -0.82800300171195773 -7.9805583382236129 12.810511585817501 7.6914879986620326 -19.02439769650622 -14.294488522363089 2.2021144062665932 14.606504183037337 4.8055552661453316 0.42813885335408169 8.9706847654682473 -20.787020729742625 11.022859191894533 -2.5097904050782294 -17.920486971389419 -6.5183826998197123 -10.234389190673829 -15.827102827397297 6.5537070870668579 1.7091138694625121 4.1394890284400683 2.7428643799271182 11.84985407415426
leaf_weight=169 535 1052 484 424 1674 709 351 513 327 590 762 769 504 1315 430 1733 1213 623 349 623 469 688 325 145 569 886 1492 1213 861 265
leaf_count=169 535 1052 484 424 1674 709 351 513 327 590 762 769 504 1315 430 1733 1213 623 349 623 469 688 325 145 569 886 1492 1213 861 265
internal_value=0.0731463 4.2516 -15.4461 9.09815 1.9145 2.8498 -17.7308 -1.16789 -9.38384 12.0305 7.04031 -19.2877 -15.5714 1.8364 13.5676 4.33094 0.0547896 8.2669 -21.4944 10.8354 -3.26983 -18.5031 -7.25171 -11.5939 -16.2709 6.16373 1.43799 3.90299 2.41608 11.2697
internal_weight=22062 17382 4680 5655 11727 8997 3399 2730 1281 2332 3323 1975 1424 5342 1020 3655 1726 1385 518 1312 1004 1457 652 629 920 1938 3166 1922 2176 888
internal_count=22062 17382 4680 5655 11727 8997 3399 2730 1281 2332 3323 1975 1424 5342 1020 3655 1726 1385 518 1312 1004 1457 652 629 920 1938 3166 1922 2176 888
is_linear=0
shrinkage=0.05


Tree=7
num_leaves=31
num_cat=0
split_feature=46 17 17 17 17 17 17 46 17 17 17 46 17 17 17 17 17 17 46 17 17 17 17 17 46 17 17 17 17 46
split_gain=5.16461e+08 7.10956e+07 2.3412e+07 1.33639e+07 1.09991e+07 5.83957e+06 3.44574e+06 2.9699e+06 1.74109e+06 1.34691e+06 1.27963e+06 927362 622261 575688 436612 268800 262147 227279 198059 176511 133932 128569 123567 112225 106459 104683 96056.4 90850.3 68443 51092.2
threshold=3673.9400000000005 3976.328381629321 3437.0388070901013 3877.6612761413858 4087.3970523661342 3798.5839584111218 3327.5797688590424 3553.1350000000007 3921.1328498691719 4029.8288578138013 4167.7563151687382 3261.4200000000005 3377.7103277358883 3845.8186455330265 3747.7813715166899 3950.3534280043154 4132.5641985274333 3478.1009640894731 3608.5400000000004 4005.3312595610087 3292.6973828960831 3895.8254586059543 4211.0883121631732 4059.4547066982836 3411.6650000000004 3196.8084657243421 3861.9050087965866 3824.5996604505049 3720.3134905460442 3356.0950000000007
decision_type=2 2 2 2 2 2 2 2 2 2 2 2 2 2 2 2 2 2 2 2 2 2 2 2 2 2 2 2 2 2
left_child=2 3 6 5 9 14 11 17 21 19 16 25 29 27 28 -10 -6 -4 -9 -3 -13 -5 -12 -11 -14 -1 -15 -7 -2 -8
right_child=1 4 7 8 10 13 12 18 15 23 22 20 24 26 -16 -17 -18 -19 -20 -21 -22 -23 -24 -25 -26 -27 -28 -29 -30 -31
leaf_value=-22.560421883187644 -3.9418606009324799 5.8961071565146161 -12.799738404154779 2.2925664575673443 10.234857993983459 -0.22498465440807075 -16.74864815721234 -8.176732956893801 4.0420546486953794 7.8100669757540508 12.87313392162323 -18.916017236148612 -14.946799821229739 1.2041353448286172 -1.5923650849444195 4.9596988234981421 11.589095433763237 -10.957597133541896 -6.4310833620126395 6.9239401542316203 -17.743204344278734 3.0669857554721394 14.256147766113282 8.807662739907542 -13.785859777676032 -20.520606129964193 1.7336027751437766 0.57543229219162717 -2.9814759494900365 -15.946481946821184
leaf_weight=82 391 1413 256 1401 873 517 515 254 2239 517 416 340 535 1761 515 1240 605 484 451 593 857 868 264 620 313 270 1668 1128 353 323
leaf_count=82 391 1413 256 1401 873 517 515 254 2239 517 416 340 535 1761 515 1240 605 484 451 593 857 868 264 620 313 270 1668 1128 353 323
internal_value=0.069489 4.03902 -14.6738 1.92081 8.86643 0.336508 -17.0373 -9.38237 3.66636 6.97921 11.6151 -18.7398 -15.4732 1.09281 -2.71151 4.36913 10.7892 -11.5949 -7.06001 6.19995 -18.0763 2.58882 13.4101 8.35405 -14.5183 -20.9958 1.46169 0.323873 -3.48619 -16.4395
internal_weight=22062 17382 4680 12081 5301 6333 3235 1445 5748 3143 2158 1549 1686 5074 1259 3479 1478 740 705 2006 1197 2269 680 1137 848 352 3429 1645 744 838
internal_count=22062 17382 4680 12081 5301 6333 3235 1445 5748 3143 2158 1549 1686 5074 1259 3479 1478 740 705 2006 1197 2269 680 1137 848 352 3429 1645 744 838
is_linear=0
shrinkage=0.05


Tree=8
num_leaves=31
num_cat=0
split_feature=52 17 17 17 17 17 17 46 42 46 17 46 17 17 52 17 60 17 46 46 17 17 17 17 17 17 17 17 17 17
split_gain=4.66124e+08 6.45855e+07 2.03549e+07 1.14029e+07 1.12936e+07 4.8589e+06 3.11085e+06 2.5306e+06 1.64262e+06 1.40255e+06 1.21234e+06 887249 499749 495263 284557 283262 205533 185074 161252 158430 147438 144711 139090 96357.2 94476.5 92246.3 90771.9 64408.3 63915.3 61706.9
threshold=3653.4400000000005 3962.7720991192023 3437.0388070901013 4075.186452729979 3831.4184626156562 3898.9641677940945 3330.6771190797858 3553.1350000000007 3765.4270000000006 4149.2150000000011 4012.7765944319231 3261.4200000000005 3864.2814547740832 3377.7103277358883 4171.4800000000005 3932.5824811661996 3487.1350000000007 4040.6656780059425 4109.9550000000008 3608.5400000000004 3720.3134905460442 3803.4287279373807 3297.0524031299315 3417.6498382358945 3196.8084657243421 3985.9722003617385 3880.7335527320897 3848.9373216951994 4217.3142931813518 3947.5035504121929
decision_type=2 2 2 2 2 2 2 2 2 2 2 2 2 2 2 2 2 2 2 2 2 2 2 2 2 2 2 2 2 2
left_child=2 4 6 10 8 12 11 16 20 18 25 24 27 -8 -11 -7 -4 -12 -5 -9 -2 -10 -13 -15 -1 -3 -14 -6 -16 -17
right_child=1 3 7 9 5 15 13 19 21 14 17 22 26 23 28 29 -18 -19 -20 -21 -22 -23 -24 -25 -26 -27 -28 -29 -30 -31
leaf_value=-21.432400549911872 -3.8360950655721995 5.2143538539707954 -12.217881383895875 8.9472006995722939 0.72242596187242647 3.2968068905004722 -15.552452579881781 -7.7678964329516793 -1.1038460161793544 11.366879373198575 6.8753600773058441 -17.855626571546541 1.7395075031862424 -14.139926662925914 12.637772441946943 3.9556338514815375 -10.437816027832032 8.0314195913186932 10.140256944770412 -6.1867123900569823 -2.5821821068545598 0.045918297808369639 -16.746019611492024 -12.975019755005366 -19.494575664378981 5.8902181091308599 2.3006034455017041 1.2203847842614755 13.805337950240736 4.4840636938171077
leaf_weight=82 421 1047 240 424 1025 1490 756 254 421 515 684 421 1770 595 368 1268 500 701 853 421 529 782 858 253 270 975 1216 1772 172 979
leaf_count=82 421 1047 240 424 1025 1490 756 254 421 515 684 421 1770 595 368 1268 500 701 853 421 529 782 858 253 270 975 1216 1772 172 979
internal_value=0.0660145 3.8218 -13.9976 8.16476 1.68659 2.42619 -16.1854 -8.99565 -1.58373 10.8587 6.32086 -17.7231 1.51815 -14.6219 12.2077 3.83138 -11.0151 7.46048 9.74413 -6.78171 -3.13786 -0.356451 -17.1113 -13.7924 -19.946 5.54025 1.968 1.0379 13.0097 4.18587
internal_weight=22062 17412 4650 5739 11673 9520 3235 1415 2153 2332 3407 1631 5783 1604 1055 3737 740 1385 1277 675 950 1203 1279 848 352 2022 2986 2797 540 2247
internal_count=22062 17412 4650 5739 11673 9520 3235 1415 2153 2332 3407 1631 5783 1604 1055 3737 740 1385 1277 675 950 1203 1279 848 352 2022 2986 2797 540 2247
is_linear=0
shrinkage=0.05


Tree=9
num_leaves=31
num_cat=0
split_feature=17 17 17 17 17 17 17 45 46 17 17 46 17 17 52 60 17 17 17 17 17 46 17 17 46 17 17 17 17 17
split_gain=4.20686e+08 5.85294e+07 1.79142e+07 1.04413e+07 1.02935e+07 4.48007e+06 2.57045e+06 2.48241e+06 1.42819e+06 1.39119e+06 974267 705465 505681 483143 281211 256930 227747 163128 137892 132845 132108 125938 95533.8 85265.1 84380.1 81486.2 76439.5 67242.3 57683.5 51726.2
threshold=3649.4906458810533 3962.7720991192023 3432.3255477214075 3829.7258383847607 4072.1126630839967 3900.9843377136976 3324.0851309827108 3541.2500000000005 3765.5250000000005 4141.8312859612097 4012.7765944319231 3261.4200000000005 3866.5023693471971 3365.9532859409201 4171.4800000000005 3487.1350000000007 3933.2685312169569 4099.9574099338342 4036.6799384392402 3798.5839584111218 3715.3485281339563 3608.5400000000004 3292.6973828960831 3196.8084657243421 3992.9700000000007 3848.9373216951994 3882.9086004591181 3398.8211795945294 4217.3142931813518 3949.2316918824413
decision_type=2 2 2 2 2 2 2 2 2 2 2 2 2 2 2 2 2 2 2 2 2 2 2 2 2 2 2 2 2 2
left_child=2 3 6 8 10 12 11 15 20 17 24 23 25 -8 -11 -4 -7 -6 -12 -10 -2 -9 -13 -1 -3 -5 -14 -15 -16 -18
right_child=1 4 7 5 9 16 13 21 19 14 18 22 26 27 28 -17 29 -19 -20 -21 -22 -23 -24 -25 -26 -27 -28 -29 -30 -31
leaf_value=-20.360780371689216 -3.8395086451939173 5.009404326782227 -11.715098362622603 0.66139475274747683 8.3452107700732867 3.1878187357456196 -14.97913064596788 -7.3603954559326175 -1.2098811165730159 10.76555923811147 6.4612313858057711 -17.077435105267693 1.71400323806961 -13.654897193757913 12.005883753818015 -9.9052720902458073 3.7884051261937568 9.529263267255212 7.4946641693115241 -0.062782529720233113 -2.6110308217675722 -5.930523754890423 -16.07093979100102 -18.519846841317637 5.6742440468289077 1.1936790559880206 2.2450303429628895 -12.744890839793339 13.115070205511049 4.2850536810908268
leaf_weight=82 350 1250 321 1117 436 1485 848 250 375 568 599 340 1693 506 368 504 1282 874 700 772 584 401 769 270 772 2018 1130 339 172 887
leaf_count=82 350 1250 321 1117 436 1485 848 250 375 568 599 340 1693 506 368 504 1282 874 700 772 584 401 769 270 772 2018 1130 339 172 887
internal_value=0.0627138 3.62102 -13.3344 1.59129 7.75653 2.2865 -15.462 -8.78797 -1.61982 10.2382 5.94966 -16.9985 1.44114 -14.136 11.5422 -10.6095 3.66488 9.13518 7.01812 -0.437815 -3.07138 -6.47963 -16.3795 -18.9487 5.26324 1.00403 1.92656 -13.2898 12.3592 3.99151
internal_weight=22062 17432 4630 11693 5739 9612 3154 1476 2081 2418 3321 1461 5958 1693 1108 825 3654 1310 1299 1147 934 651 1109 352 2022 3135 2823 845 540 2169
internal_count=22062 17432 4630 11693 5739 9612 3154 1476 2081 2418 3321 1461 5958 1693 1108 825 3654 1310 1299 1147 934 651 1109 352 2022 3135 2823 845 540 2169
is_linear=0
shrinkage=0.05


Tree=10
num_leaves=31
num_cat=0
split_feature=52 17 45 17 17 17 17 17 17 17 17 17 17 17 17 17 17 17 45 45 17 17 17 17 17 17 45 17 17 17
split_gain=3.79823e+08 5.29425e+07 1.64209e+07 1.00309e+07 8.16363e+06 4.36866e+06 2.87689e+06 1.57373e+06 1.39649e+06 1.06891e+06 875265 817088 464943 414879 278098 183194 158600 134442 129356 127735 123073 99889.8 97720.2 91269.6 89825.7 86012.6 69016.9 65522.8 65428.3 55346
threshold=3653.4400000000005 3976.328381629321 3448.8700000000003 3876.2102019879762 4094.4902992704906 3789.2937826009529 3337.3201843630513 3573.6895869497716 3921.1328498691719 4029.8288578138013 4164.0570422093206 3255.0902282494303 3841.2126904457059 3389.8070148616521 3739.2178747623457 3952.6388941581067 3303.1268049824748 4001.4917526053323 4202.0700000000006 4127.795000000001 3506.2538746384248 4063.7983732032139 3895.8254586059543 3196.8084657243421 3625.7634865065515 3859.1109317180944 3419.3250000000003 3821.9959722278404 3359.3901399891311 3705.1397591655473
decision_type=2 2 2 2 2 2 2 2 2 2 2 2 2 2 2 2 2 2 2 2 2 2 2 2 2 2 2 2 2 2
left_child=2 3 6 5 9 14 11 20 22 17 19 23 27 28 29 -10 -13 -3 -12 -6 -4 -11 -5 -1 -9 -14 -15 -7 -8 -2
right_child=1 4 7 8 10 12 13 24 15 21 18 16 25 26 -16 -17 -18 -19 -20 -21 -22 -23 -24 -25 -26 -27 -28 -29 -30 -31
leaf_value=-19.527763959099264 -4.0079386615113126 5.0259643472587952 -10.108872701219944 1.9430573744400477 8.8333254388038149 -0.33675482082462899 -14.084008227654223 -6.5549585852824466 3.5084320272773675 6.7553958957042752 10.8168429850484 -15.95170203702096 0.9244611759527166 -12.493005999520463 -1.630820693364784 4.3079208417372277 -14.902168032444946 5.8865237303067488 12.110373658225651 9.8402179985468692 -8.6950181484222409 7.6689322362491739 2.6000260375616122 -17.614781625861795 -5.3523719262385718 1.4150571263058911 -11.508265651057989 0.36630489220636053 -13.212670640640608 -2.9156086730227644
leaf_weight=85 149 1301 386 1558 752 528 424 355 2454 594 455 613 1753 363 536 1012 872 697 336 542 256 603 889 234 276 1822 349 890 438 523
leaf_count=85 149 1301 386 1558 752 528 424 355 2454 594 455 613 1753 363 536 1012 872 697 336 542 256 603 889 234 276 1822 349 890 438 523
internal_value=0.0502291 3.44397 -12.6418 1.62282 7.62227 0.217844 -14.4656 -7.80221 3.09623 6.03404 10.056 -15.8286 0.870623 -12.9035 -2.48027 3.74187 -15.3354 5.32617 11.3663 9.25507 -9.54509 7.2156 2.18174 -18.1245 -6.02895 1.17449 -12.0103 0.104517 -13.6413 -3.15781
internal_weight=22045 17394 4651 12114 5280 6201 3378 1273 5913 3195 2085 1804 4993 1574 1208 3466 1485 1998 791 1294 642 1197 2447 319 631 3575 712 1418 862 672
internal_count=22045 17394 4651 12114 5280 6201 3378 1273 5913 3195 2085 1804 4993 1574 1208 3466 1485 1998 791 1294 642 1197 2447 319 631 3575 712 1418 862 672
is_linear=0
shrinkage=0.05


Tree=11
num_leaves=31
num_cat=0
split_feature=46 17 17 17 17 17 17 19 17 17 17 17 17 17 17 17 46 46 17 17 17 46 17 17 17 17 17 42 8 17
split_gain=3.4281e+08 4.75098e+07 1.54087e+07 9.31329e+06 6.9159e+06 3.95184e+06 2.73398e+06 1.36838e+06 1.07532e+06 870990 870334 792027 487928 270076 228140 186816 158617 149594 127020 121647 95393.9 91526.8 88307.6 87560.3 86968.3 78918.8 70114.5 48404.2 46892.3 45780.3
threshold=3673.9400000000005 3979.8200103428194 3458.7468477279822 3879.8373629035036 4094.4902992704906 3789.2937826009529 3350.7361519551073 3577.559230958665 3926.4011342971148 3278.5734334407421 4033.2345885051955 4167.7563151687382 3844.906581256133 3403.1879002727374 3747.7813715166899 3953.6793467501425 3232.6000000000004 4138.9300000000012 3317.9511218068096 4005.3312595610087 3625.7634865065515 3512.1650000000004 4211.0883121631732 3862.7959488953475 3902.8075019062576 3824.5996604505049 4063.7983732032139 3377.7340000000008 -50.484999999999893 3711.8546862745611
decision_type=2 2 2 2 2 2 2 2 2 2 2 2 2 2 2 2 2 2 2 2 2 2 2 2 2 2 2 2 2 2
left_child=2 3 6 5 10 14 9 21 24 16 19 17 25 27 29 -10 28 -6 -11 -3 -9 -4 -13 -14 -5 -7 -12 -8 -1 -2
right_child=1 4 7 8 11 12 13 20 15 18 26 22 23 -15 -16 -17 -18 -19 -20 -21 -22 -23 -24 -25 -26 -27 -28 -29 -30 -31
leaf_value=-19.916102013221156 -3.4707033615845901 4.8603440333274008 -9.4383590455396753 2.0032362155606256 8.4370421949639383 -0.26775119324624785 -12.966161109968935 -6.2238362371584799 3.3842026970529839 -14.721831265274361 6.4885768418227761 10.482243038783565 0.97382222371531224 -11.04593902648562 -1.4044799127816614 4.1735606633031734 -16.061038529483785 9.4957237270997847 -13.819471304195444 5.6916530891495967 -5.0184121374990429 -8.1622530221939087 11.638322009118518 1.4584570555472349 2.6737205683603116 0.44353631852049524 7.285485730400528 -12.199713251121256 -17.595815117679425 -2.5951484198831656
leaf_weight=26 208 1218 377 1486 830 611 342 354 2362 784 509 428 1908 503 441 1098 337 558 776 689 306 224 269 1822 717 1078 603 518 134 529
leaf_count=26 208 1218 377 1486 830 611 342 354 2362 784 509 428 1908 503 441 1098 337 558 776 689 306 224 269 1822 717 1078 603 518 134 529
internal_value=0.0477177 3.28504 -11.961 1.59753 7.33851 0.320719 -13.7029 -7.2367 3.08492 -14.8537 5.80897 9.55322 0.891289 -11.9662 -2.304 3.6347 -16.6765 8.86265 -14.273 5.1607 -5.66496 -8.96274 10.9284 1.21055 2.22146 0.186226 6.92071 -12.5045 -17.9729 -2.84225
internal_weight=22045 17364 4681 12260 5104 6597 3420 1261 5663 2057 3019 2085 5419 1363 1178 3460 497 1388 1560 1907 660 601 697 3730 2203 1689 1112 860 160 737
internal_count=22045 17364 4681 12260 5104 6597 3420 1261 5663 2057 3019 2085 5419 1363 1178 3460 497 1388 1560 1907 660 601 697 3730 2203 1689 1112 860 160 737
is_linear=0
shrinkage=0.05


Tree=12
num_leaves=31
num_cat=0
split_feature=59 17 45 17 17 17 17 17 17 17 17 17 17 46 17 17 17 17 17 17 17 17 17 17 17 17 45 45 17 46
split_gain=3.09391e+08 4.31769e+07 1.33088e+07 8.04574e+06 6.81361e+06 3.27977e+06 1.94014e+06 1.74668e+06 1.45938e+06 815752 785433 569408 364780 339921 175309 172858 135803 131610 129885 107013 96792.2 88571.7 86527.6 78548.9 74940.2 63716.6 59000.6 49356.2 37642.2 34295.1
threshold=3649.6950000000002 3973.7511093356457 3431.6550000000007 3870.636574402693 4087.3970523661342 3782.5974459226263 3327.5797688590424 3526.3698694033051 3911.4315427359184 4026.6347182116106 4164.0570422093206 3255.0902282494303 3833.0691660892685 3374.8550000000005 3732.0898110348153 3944.8741942627103 3478.1009640894731 4128.6344164379598 3598.9503343853926 4204.0946259330367 3999.4036961641946 4053.3553132200473 3286.0327705818377 3890.1724717312777 3196.8084657243421 3852.384952340009 3403.0600000000009 3808.1850000000004 3705.1397591655473 3932.5950000000007
decision_type=2 2 2 2 2 2 2 2 2 2 2 2 2 2 2 2 2 2 2 2 2 2 2 2 2 2 2 2 2 2
left_child=2 3 6 5 9 14 11 16 23 20 17 24 27 -8 28 29 -4 -6 -9 -12 -3 -11 -13 -5 -1 -14 -15 -7 -2 -10
right_child=1 4 7 8 10 12 13 18 15 21 19 22 25 26 -16 -17 -18 -19 -20 -21 -22 -23 -24 -25 -26 -27 -28 -29 -30 -31
leaf_value=-17.638828753303081 -3.6288650141133894 4.4929626947567787 -9.9647262754278678 1.5957231100760545 7.8516633341786788 -0.54219462394660234 -12.775479319846134 -6.5161367111489685 2.769075680010527 5.9012301117239652 9.7366499073718185 -14.807238551548549 0.66324617683076315 -11.612909856808733 -1.7049108499423007 3.7257626887059248 -8.5749936211246176 8.8369256445029087 -5.1208667546578583 10.906243547342591 5.2274384306749173 6.7680271109925645 -13.778092620091408 2.1511057560561135 -15.905402882893881 1.1101078887225531 -10.715047966383427 0.14058575239184148 -2.7192451845366379 3.1772267336744537
leaf_weight=85 154 1296 295 1831 774 413 791 269 824 515 437 259 1341 612 532 1462 435 603 439 354 686 689 966 976 234 1969 261 737 435 1371
leaf_count=85 154 1296 295 1831 774 413 791 269 824 515 437 259 1341 612 532 1462 435 603 439 354 686 689 966 976 234 1969 261 737 435 1371
internal_value=0.0453318 3.10621 -11.4175 1.44559 6.84213 0.0548596 -13.2092 -7.42046 2.64635 5.37075 9.00442 -14.4857 0.662534 -12.0247 -2.36283 3.30456 -9.1366 8.28312 -5.65099 10.2601 4.74718 6.39726 -13.9957 1.78883 -16.3673 0.929068 -11.3445 -0.104621 -2.95707 3.02401
internal_weight=22045 17399 4646 12045 5354 5581 3208 1438 6464 3186 2168 1544 4460 1664 1121 3657 730 1377 708 791 1982 1204 1225 2807 319 3310 873 1150 589 2195
internal_count=22045 17399 4646 12045 5354 5581 3208 1438 6464 3186 2168 1544 4460 1664 1121 3657 730 1377 708 791 1982 1204 1225 2807 319 3310 873 1150 589 2195
is_linear=0
shrinkage=0.05


Tree=13
num_leaves=31
num_cat=0
split_feature=46 46 52 46 46 42 46 42 42 46 46 42 46 46 42 46 42 42 42 46 46 46 46 46 46 46 42 8 42 46
split_gain=2.79235e+08 3.87095e+07 1.25519e+07 7.6581e+06 5.55159e+06 3.05311e+06 2.21612e+06 1.13744e+06 1.10429e+06 688569 680147 653313 343008 240746 188419 170567 152574 130923 98928.6 92483.8 85343.9 80951.7 80447.4 65370.6 55532.4 52843.1 47278.5 40348.4 40285.4 38169.7
threshold=3673.9400000000005 3982.5750000000003 3451.7250000000008 3878.5950000000007 4097.5400000000009 3788.8520000000003 3350.0950000000007 3573.5860000000007 3924.4240000000004 4037.6200000000003 3282.9250000000006 4171.6400000000003 3843.8800000000006 3399.3750000000005 3747.8680000000008 3955.0100000000007 4137.4860000000017 3228.8470000000002 4005.4980000000005 3325.1600000000003 3897.5650000000005 3505.0550000000007 3632.6900000000005 3861.0350000000003 4066.3350000000005 4221.4250000000002 3821.7520000000009 -50.484999999999893 3426.4860000000003 3720.5350000000003
decision_type=2 2 2 2 2 2 2 2 2 2 2 2 2 2 2 2 2 2 2 2 2 2 2 2 2 2 2 2 2 2
left_child=2 3 6 5 9 14 10 21 20 18 17 16 26 -8 29 -10 -6 27 -3 -12 -5 -4 -9 -14 -11 -13 -7 -1 -15 -2
right_child=1 4 7 8 11 12 13 22 15 24 19 25 23 28 -16 -17 -18 -19 -20 -21 -22 -23 -24 -25 -26 -27 -28 -29 -30 -31
leaf_value=-18.045022465632513 -2.9543209597643685 4.4001262181128586 -8.688295245644273 1.6611637778988233 7.6300208406730778 -0.29267013567016248 -11.45269765231124 -5.5578459351506062 3.0271079111921031 5.868014318780248 -13.250080545479912 9.7138878281052055 0.78057537287776624 -10.553053298457977 -1.2599021829630994 3.7582642525037131 8.6624715173481324 -14.49948995453971 5.1485692155819027 -12.453357575489925 2.2532815032125213 -7.5343885658613221 -4.4295944694344325 1.2061994716339395 6.5847332265373018 10.764161700737185 0.30867369538522327 -15.890068054199219 -9.7586971480071014 -2.232920188520422
leaf_weight=26 340 1187 302 1479 878 520 781 398 2379 498 875 444 1697 310 442 1200 604 336 703 624 1034 306 262 1926 591 164 880 132 329 398
leaf_count=26 340 1187 302 1479 878 520 781 398 2379 498 875 444 1697 310 442 1200 604 336 703 624 1034 306 262 1926 591 164 880 132 329 398
internal_value=0.0430652 2.96482 -10.7951 1.44899 6.64151 0.212344 -12.3732 -6.54729 2.70817 5.25554 -13.4487 8.61702 0.749994 -10.8638 -2.07631 3.27226 8.0508 -15.0577 4.67852 -12.9184 1.9048 -8.10755 -5.10996 1.00684 6.25698 9.99719 0.0853174 -16.2447 -10.1441 -2.56527
internal_weight=22045 17364 4681 12295 5069 6203 3413 1268 6092 2979 1993 2090 5023 1420 1180 3579 1482 494 1890 1499 2513 608 660 3623 1089 608 1400 158 639 738
internal_count=22045 17364 4681 12295 5069 6203 3413 1268 6092 2979 1993 2090 5023 1420 1180 3579 1482 494 1890 1499 2513 608 660 3623 1089 608 1400 158 639 738
is_linear=0
shrinkage=0.05


Tree=14
num_leaves=31
num_cat=0
split_feature=17 17 45 17 17 46 17 17 45 46 46 17 46 17 46 46 17 17 17 46 46 17 17 17 46 17 46 46 17 17
split_gain=2.52017e+08 3.5325e+07 1.0622e+07 6.25626e+06 6.20299e+06 2.65835e+06 1.58292e+06 1.38231e+06 873901 769845 635481 494608 341061 246210 138646 121920 110479 108283 103211 99069.2 83374.2 80485.3 74991.9 61429.8 57128.7 54985 51485 40935.9 29918 26113.6
threshold=3649.4906458810533 3962.7720991192023 3431.6550000000007 3829.7258383847607 4075.186452729979 3907.8500000000008 3330.6771190797858 3526.3698694033051 3756.8100000000004 4155.6450000000013 4017.2850000000003 3255.0902282494303 3870.3050000000007 3377.7103277358883 4202.5000000000009 3938.1200000000003 3478.1009640894731 4112.677181790521 3591.0237474036608 4050.2200000000007 3305.5850000000005 3720.3134905460442 3803.4287279373807 3196.8084657243421 3992.9700000000007 3851.4975567647602 3887.48 3411.6650000000004 3633.7458649883515 3697.825399208115
decision_type=2 2 2 2 2 2 2 2 2 2 2 2 2 2 2 2 2 2 2 2 2 2 2 2 2 2 2 2 2 2
left_child=2 3 6 8 10 12 11 16 21 17 24 23 25 -8 -11 -7 -4 -6 -9 -12 -13 29 -10 -1 -3 -5 -14 -15 -20 -2
right_child=1 4 7 5 9 15 13 18 22 14 19 20 26 27 -16 -17 -18 -19 28 -21 -22 -23 -24 -25 -26 -27 -28 -29 -30 -31
leaf_value=-15.93196066463695 -3.6860477516450079 3.8789372309227854 -8.9948830607786032 0.55049657858934209 6.6511328672942813 2.5241847347891628 -11.435180564721426 -6.1785566319056926 -0.82161750068246198 8.5610030258257765 5.1103757835778154 -13.066858036119989 1.3572609318913642 -10.433485324566181 9.759286618808618 3.1152769935707894 -7.7414064780048948 7.5765031784665027 -5.0411294154349093 5.9707031390810981 -12.254874345541309 -1.9574570409378205 -0.007339843391251365 -14.36254669580704 4.4269256802348345 0.96467998404217448 1.79305233834401 -9.676105997337487 -4.2326939811483468 -2.6979513068531835
leaf_weight=85 83 1244 295 1431 511 1557 768 175 473 579 763 533 1665 546 414 1984 435 829 346 596 777 505 703 234 770 1821 1143 265 171 344
leaf_count=85 83 1244 295 1431 511 1557 768 175 473 579 763 533 1665 546 414 1984 435 829 346 596 777 505 703 234 770 1821 1143 265 171 344
internal_value=0.040912 2.79741 -10.3272 1.22541 6.02326 1.76696 -11.9217 -6.73015 -1.24115 8.00549 4.6522 -13.0152 1.13098 -10.7936 9.06059 2.85537 -8.24795 7.22362 -5.129 5.48768 -12.5852 -2.38471 -0.334851 -14.7807 4.08845 0.782424 1.53465 -10.186 -4.77374 -2.89002
internal_weight=22045 17415 4630 11709 5706 9601 3208 1422 2108 2333 3373 1629 6060 1579 993 3541 730 1340 692 1359 1310 932 1176 319 2014 3252 2808 811 517 427
internal_count=22045 17415 4630 11709 5706 9601 3208 1422 2108 2333 3373 1629 6060 1579 993 3541 730 1340 692 1359 1310 932 1176 319 2014 3252 2808 811 517 427
is_linear=0
shrinkage=0.05


Tree=15
num_leaves=31
num_cat=0
split_feature=46 17 17 17 17 45 17 17 46 17 17 46 45 17 17 17 46 17 45 46 17 17 46 45 17 17 17 17 17 17
split_gain=2.30866e+08 3.14978e+07 1.02509e+07 6.27967e+06 4.38181e+06 2.59051e+06 1.61063e+06 1.31341e+06 775393 554405 533452 402341 326502 286042 185448 142850 122609 103771 88787.8 68584.2 66414.3 60028.4 55094.8 54002.8 50666.6 49859.7 43800.3 42233.5 30946.8 27154
threshold=3673.9400000000005 3981.0906290546163 3437.0388070901013 3879.1433806076589 4094.4902992704906 3790.1900000000005 3324.0851309827108 3526.3698694033051 3929.3250000000003 4033.2345885051955 4171.3870225100081 3261.4200000000005 3366.3550000000005 3845.8186455330265 3747.7813715166899 3956.494622398513 4134.4150000000009 3613.5478391189754 3479.6600000000003 4005.6050000000005 3905.457706613081 3292.6973828960831 3207.4150000000004 3403.0600000000009 3861.9050087965866 4067.2044269833636 3827.9531487671693 4217.3142931813518 3711.8546862745611 3939.1971659090918
decision_type=2 2 2 2 2 2 2 2 2 2 2 2 2 2 2 2 2 2 2 2 2 2 2 2 2 2 2 2 2 2
left_child=2 3 6 5 9 14 11 18 20 19 16 22 -8 26 28 29 -6 -9 -4 -3 -5 -13 -1 -14 -15 -11 -7 -12 -2 -10
right_child=1 4 7 8 10 13 12 17 15 25 27 21 23 24 -16 -17 -18 -19 -20 -21 -22 -23 -24 -25 -26 -27 -28 -29 -30 -31
leaf_value=-15.070687640797008 -2.8433703646940347 3.9669464129355996 -8.4281319354709829 1.6343451384920062 6.8251079857737951 -0.099837626121718342 -10.992138863685032 -5.4053224507168203 2.6024558085568099 5.324957333495286 8.7624884677383132 -12.590695158551995 -9.9314933305445727 0.79307495514688353 -1.0673604073187317 3.4737606136194259 7.7319851000555637 -4.213262200535695 -7.2939023230607649 4.5980031964535888 2.230074795318417 -11.806660508422052 -13.629428784111619 -9.1362642037394579 1.1682017550658359 5.988130276569267 0.41792774098960805 9.6857182442801353 -2.1182642129334535 2.9345832276584383
leaf_weight=88 204 1058 304 1650 767 720 887 338 1176 604 424 359 615 1746 495 1045 725 397 399 726 653 763 269 327 1858 534 944 175 528 1291
leaf_count=88 204 1058 304 1650 767 720 887 338 1176 604 424 359 615 1746 495 1045 725 397 399 726 653 763 269 327 1858 534 944 175 528 1291
internal_value=0.00654311 2.68331 -9.76372 1.32275 6.02433 0.254201 -11.2958 -6.23928 2.51626 4.77382 7.7718 -12.5227 -10.3037 0.736118 -1.81486 2.9838 7.26578 -4.76145 -7.78438 4.22376 1.80326 -12.0575 -13.9847 -9.65544 0.986467 5.63615 0.193895 9.03221 -2.32034 2.77626
internal_weight=22069 17323 4746 12310 5013 6495 3308 1438 5815 2922 2091 1479 1829 5268 1227 3512 1492 735 703 1784 2303 1122 357 942 3604 1138 1664 599 732 2467
internal_count=22069 17323 4746 12310 5013 6495 3308 1438 5815 2922 2091 1479 1829 5268 1227 3512 1492 735 703 1784 2303 1122 357 942 3604 1138 1664 599 732 2467
is_linear=0
shrinkage=0.05


Tree=16
num_leaves=31
num_cat=0
split_feature=17 17 17 17 17 42 17 17 17 17 17 46 17 17 17 17 60 17 17 17 46 17 46 17 46 46 17 17 17 17
split_gain=2.0837e+08 2.86942e+07 8.71281e+06 5.57797e+06 4.22083e+06 2.40222e+06 1.3305e+06 1.24316e+06 820608 558057 482298 336737 284859 273470 126226 121464 110974 81026.8 75346.5 69734.4 62523.9 55838.4 51745.7 51315.6 49723 46747.3 38577.1 34237.7 26546.4 25896.8
threshold=3649.4906458810533 3978.6274972970778 3432.3255477214075 3875.4235986507078 4094.4902992704906 3782.3640000000005 3320.8594994971531 3526.3698694033051 3918.2047865106647 4029.8288578138013 4164.0570422093206 3261.4200000000005 3837.7878638568986 3365.9532859409201 3947.5035504121929 3725.5893518345938 3487.1350000000007 3591.0237474036608 4123.864550440343 4204.0946259330367 4005.6050000000005 4059.4547066982836 3896.1700000000005 3856.8144160117072 3207.4150000000004 3291.5600000000004 3808.7173417756526 3394.9988578127895 3755.1445234665134 3633.7458649883515
decision_type=2 2 2 2 2 2 2 2 2 2 2 2 2 2 2 2 2 2 2 2 2 2 2 2 2 2 2 2 2 2
left_child=2 3 6 5 9 15 11 16 22 20 18 24 26 -8 -10 -2 -4 -9 -6 -12 -3 -11 -5 -14 -1 -13 -7 -15 -17 -19
right_child=1 4 7 8 10 12 13 17 14 21 19 25 23 27 -16 28 -18 29 -20 -21 -22 -23 -24 -25 -26 -27 -28 -29 -30 -31
leaf_value=-14.317152664878151 -2.5147162906883302 3.725954228082776 -8.1861005805259524 1.3947222661285501 6.4046552834800252 -0.4790234363954568 -10.497021272938673 -5.5787697540470429 2.5133380222364856 4.9172725626039604 7.9338896986367047 -12.060467807480576 0.6278729172465024 -9.5917282068840812 3.114371482109537 -1.7529538695289197 -6.9931984490288635 -4.5512265202650708 7.1614361926762742 8.8868183647454124 4.3327461130825098 5.6022925526031981 1.8676010817129296 1.0028650709132463 -12.947957449420237 -11.301464021426078 0.1371471579764274 -8.966392043658665 -1.0826287053145616 -3.8059333343505863
leaf_weight=88 516 1231 344 1528 626 347 949 163 2153 519 414 277 1659 428 1470 351 450 349 693 358 648 697 931 2027 269 758 948 448 255 175
leaf_count=88 516 1231 344 1528 626 347 949 163 2153 519 414 277 1659 428 1470 351 450 349 693 358 648 697 931 2027 269 758 948 448 255 175
internal_value=0.00621596 2.53284 -9.33605 1.2071 5.64779 0.13916 -10.797 -6.16253 2.27873 4.47533 7.38321 -11.9613 0.609966 -9.90897 2.7572 -1.95094 -7.51002 -4.60518 6.80227 8.37579 3.93522 5.30992 1.57376 0.834088 -13.2855 -11.5046 -0.027958 -9.27192 -1.47089 -4.30232
internal_weight=22069 17371 4698 12185 5186 6103 3217 1481 6082 3095 2091 1392 4981 1825 3623 1122 794 687 1319 772 1879 1216 2459 3686 357 1035 1295 876 606 524
internal_count=22069 17371 4698 12185 5186 6103 3217 1481 6082 3095 2091 1392 4981 1825 3623 1122 794 687 1319 772 1879 1216 2459 3686 357 1035 1295 876 606 524
is_linear=0
shrinkage=0.05


Tree=17
num_leaves=31
num_cat=0
split_feature=46 17 45 17 46 17 17 19 46 17 46 45 17 17 17 17 46 46 46 17 17 17 17 17 17 17 17 46 25 17
split_gain=1.8806e+08 2.56608e+07 8.3538e+06 5.11894e+06 3.56715e+06 2.15785e+06 1.52565e+06 839270 567257 500478 460401 404677 241139 163103 154738 118315 95968.4 91650 69020.7 60710.6 56319.2 52010.5 50110.3 46951.3 41727.6 39859.4 34334.3 32220.6 28438 26872.7
threshold=3673.9400000000005 3981.0906290546163 3448.8700000000003 3880.7335527320897 4102.835 3798.5839584111218 3344.6129838972197 3577.559230958665 3929.3250000000003 4033.2345885051955 3282.9250000000006 4170.1900000000014 3847.8143193729561 3755.1445234665134 3394.9988578127895 3956.494622398513 3232.6000000000004 4143.9350000000004 3505.0550000000007 3309.599203705613 4008.8303754310941 3633.7458649883515 4067.2044269833636 3905.457706613081 3863.5455636554511 3827.9531487671693 3720.3134905460442 4221.4250000000002 -13.394477182927401 3426.6804855603364
decision_type=2 2 2 2 2 2 2 2 2 2 2 2 2 2 2 2 2 2 2 2 2 2 2 2 2 2 2 2 2 2
left_child=2 3 6 5 9 13 10 18 23 20 16 17 25 26 -8 -10 28 -6 -4 -12 -3 -9 -11 -5 -14 -7 -2 -13 -1 -16
right_child=1 4 7 8 11 12 14 21 15 22 19 27 24 -15 29 -17 -18 -19 -20 -21 -22 -23 -24 -25 -26 -27 -28 -29 -30 -31
leaf_value=-14.819239740786344 -2.379403132484073 3.620642281049177 -7.1737886645703561 1.5016416303970472 6.2914701836131446 -0.079299315915980925 -9.3509400537468874 -4.470732955320166 2.5045092660017136 4.8036026411498618 -10.924534966568354 7.9595964993293569 0.75043961073670473 -0.82899625930521226 -8.6126188106751176 3.1392916349931199 -11.771012407623376 7.1042921298568489 -6.1399562560534875 -10.265370567789617 4.223694139131358 -3.5319556454371979 5.4447819829180961 2.0110995297044929 1.0903851090734678 0.40301176535500266 -1.7300052056777504 8.7959190750122076 -12.938967142105103 -7.9780577641383861
leaf_weight=23 378 1216 343 1471 856 696 781 436 2467 604 594 411 1762 432 356 1045 363 583 305 848 568 223 615 653 1851 1114 441 160 160 314
leaf_count=23 378 1216 343 1471 856 696 781 436 2467 604 594 411 1762 432 356 1045 363 583 305 848 568 223 615 653 1851 1114 441 160 160 314
internal_value=0.00590516 2.42181 -8.81218 1.19376 5.43741 0.256798 -10.1054 -5.40946 2.30329 4.34621 -11.0051 7.06768 0.688612 -1.61509 -8.8727 2.69339 -12.2417 6.62078 -6.68719 -10.5369 3.81265 -4.15306 5.12709 1.65827 0.924599 0.217548 -2.02973 8.19394 -13.1753 -8.31523
internal_weight=22069 17323 4746 12310 5013 6674 3439 1307 5636 3003 1988 2010 5423 1251 1451 3512 546 1439 648 1442 1784 659 1219 2124 3613 1810 819 571 183 670
internal_count=22069 17323 4746 12310 5013 6674 3439 1307 5636 3003 1988 2010 5423 1251 1451 3512 546 1439 648 1442 1784 659 1219 2124 3613 1810 819 571 183 670
is_linear=0
shrinkage=0.05


Tree=18
num_leaves=31
num_cat=0
split_feature=59 17 17 17 17 17 17 17 17 17 17 46 17 17 17 17 17 17 17 17 17 17 46 46 17 17 17 17 17 17
split_gain=1.6973e+08 2.3299e+07 7.27622e+06 4.20689e+06 3.9529e+06 1.62353e+06 1.19742e+06 917315 634065 574145 394018 354318 168688 164098 120254 112360 71200.7 70686.2 67851.6 67183.2 67181.5 52321.8 41456.4 40956.2 37520.6 29015.1 28520.6 24856.2 24293.3 21403.6
threshold=3649.6950000000002 3961.1785281441466 3437.0388070901013 4072.1126630839967 3833.0691660892685 3897.6573803622405 3334.0533853471593 3526.3698694033051 3774.3748605095061 4141.8312859612097 4012.7765944319231 3261.4200000000005 3383.5269429358909 3868.4014540727953 4186.7311629795222 3931.2081046672979 4108.5922850132638 3591.0237474036608 3490.2874337273383 3303.1268049824748 3725.5893518345938 4040.6656780059425 3991.1000000000008 3207.4150000000004 3808.7173417756526 3854.7289729815225 3417.6498382358945 4228.9886763764771 3633.7458649883515 3944.8741942627103
decision_type=2 2 2 2 2 2 2 2 2 2 2 2 2 2 2 2 2 2 2 2 2 2 2 2 2 2 2 2 2 2
left_child=2 4 6 10 8 13 11 18 20 16 22 23 -8 25 -11 -7 -5 -9 -4 -13 -2 -12 -3 -1 -10 -6 -14 -16 -19 -17
right_child=1 3 7 9 5 15 12 17 24 14 21 19 26 -15 27 29 -18 28 -20 -21 -22 -23 -24 -25 -26 -27 -28 -29 -30 -31
leaf_value=-12.932979826493696 -2.2372099541848707 3.1234322417762312 -7.1624255875409659 5.3016217382330648 0.51669598395498795 1.9006514886530437 -9.2113534604586089 -5.0373800815980125 -0.49998565378647425 6.8032696528108376 4.1166967666077765 -10.61760598347319 -8.3923328406924309 1.2152948919958062 7.6871535500712787 2.3336091048912202 6.0495117895530939 -4.1001285181346123 -6.1799688475862959 -9.9143672933076559 -1.4234366485838257 4.7588641021425362 3.5782236504697518 -11.690336617395339 0.08013929541861467 0.8198688019216811 -7.761499348808738 8.6129556063948005 -3.4033700101803515 2.639269333723115
leaf_weight=88 496 1253 354 532 1565 1394 780 163 434 599 668 614 525 2444 435 1298 792 349 349 760 519 604 835 269 779 1592 272 87 195 1025
leaf_count=88 496 1253 354 532 1565 1394 780 163 434 599 668 614 525 2444 435 1298 792 349 349 760 519 604 835 269 779 1592 272 87 195 1025
internal_value=0.00560991 2.29213 -8.40333 4.87612 0.992971 1.44536 -9.68528 -5.39575 -0.899006 6.45402 3.72791 -10.5933 -8.68862 0.907702 7.28671 2.25552 5.749 -4.12404 -6.67469 -10.2286 -1.8211 4.42163 3.30531 -11.9966 -0.127424 0.669579 -8.17704 7.84145 -3.85037 2.46848
internal_weight=22069 17351 4718 5805 11546 9318 3308 1410 2228 2445 3360 1731 1577 5601 1121 3717 1324 707 703 1374 1015 1272 2088 357 1213 3157 797 522 544 2323
internal_count=22069 17351 4718 5805 11546 9318 3308 1410 2228 2445 3360 1731 1577 5601 1121 3717 1324 707 703 1374 1015 1272 2088 357 1213 3157 797 522 544 2323
is_linear=0
shrinkage=0.05


Tree=19
num_leaves=31
num_cat=0
split_feature=59 17 17 17 17 17 17 17 17 17 17 17 17 17 60 17 60 17 17 17 17 17 17 17 25 17 17 17 17 17
split_gain=1.53181e+08 2.10273e+07 6.56926e+06 3.79672e+06 3.56749e+06 1.46628e+06 984748 951274 572244 518788 356449 252438 205054 158352 91945.2 90968.1 83536 77243.4 64137.5 60631.3 54043 53448.5 33862.3 31801.8 30538.9 27790.8 23823.2 20092.3 19133 18234.8
threshold=3649.6950000000002 3961.1785281441466 3432.3255477214075 4072.1126630839967 3833.0691660892685 3898.9641677940945 3320.8594994971531 3526.3698694033051 3774.3748605095061 4148.0790486452215 4008.8303754310941 3238.5544356957516 3365.9532859409201 3869.6417707180212 4206.2000000000016 3933.2685312169569 3487.1350000000007 4112.677181790521 3598.9503343853926 3725.5893518345938 4040.6656780059425 3286.0327705818377 3808.7173417756526 3984.6746470581361 -13.394477182927401 3852.384952340009 3394.9988578127895 3883.8910087146191 3350.7361519551073 3918.2047865106647
decision_type=2 2 2 2 2 2 2 2 2 2 2 2 2 2 2 2 2 2 2 2 2 2 2 2 2 2 2 2 2 2
left_child=2 4 6 10 8 13 11 16 19 17 23 24 28 25 -11 29 -4 -5 -9 -2 -12 -13 -10 -3 -1 -6 -14 -15 -8 -7
right_child=1 3 7 9 5 15 12 18 22 14 20 21 26 27 -16 -17 -18 -19 -20 -21 -22 -23 -24 -25 -26 -27 -28 -29 -30 -31
leaf_value=-13.331455802917482 -2.1253494205013399 2.929064238445743 -7.0261093572128646 5.094017992908932 0.46298729776478043 1.6627484658721148 -9.1414284818557672 -4.5557824311991455 -0.4749863651353643 6.5967599978033338 3.8850647393394926 -10.42912084098668 -8.208712672295972 1.0614420213731026 7.5604835051756645 2.3765822398540983 -5.9911304702758796 5.8376997046734225 -3.5623287881523504 -1.3522648104812829 4.520920854530587 -9.6902303424634439 0.076132331611690224 3.327465299528594 -11.46323896400359 0.76201471607628501 -7.6870838250432705 1.355506570293838 -8.6392415869326999 2.0103559138787488
leaf_weight=24 496 1051 344 622 1297 628 687 253 434 611 748 361 428 1505 416 2059 450 796 454 519 604 760 779 957 247 1938 448 946 262 945
leaf_count=24 496 1051 344 622 1297 628 687 253 434 611 748 361 428 1505 416 2059 450 796 454 519 604 760 779 957 247 1938 448 946 262 945
internal_value=0.0053294 2.17752 -7.98316 4.63231 0.943322 1.37309 -9.25758 -5.25177 -0.854056 6.13132 3.54152 -10.2592 -8.49358 0.871801 6.98713 2.15787 -6.43953 5.51149 -3.91784 -1.73005 4.16913 -9.92818 -0.121053 3.11894 -11.6287 0.642126 -7.94194 1.17494 -9.00278 1.87158
internal_weight=22069 17351 4718 5805 11546 9318 3217 1501 2228 2445 3360 1392 1825 5686 1027 3632 794 1418 707 1015 1352 1121 1213 2008 271 3235 876 2451 949 1573
internal_count=22069 17351 4718 5805 11546 9318 3217 1501 2228 2445 3360 1392 1825 5686 1027 3632 794 1418 707 1015 1352 1121 1213 2008 271 3235 876 2451 949 1573
is_linear=0
shrinkage=0.05


Tree=20
num_leaves=31
num_cat=0
split_feature=17 17 17 17 17 45 17 21 17 46 17 46 17 45 46 17 17 17 46 42 46 17 46 17 17 17 17 17 48 17
split_gain=1.38327e+08 1.85369e+07 6.45768e+06 3.26257e+06 3.08369e+06 1.30718e+06 1.13761e+06 588279 521925 382834 346633 340867 162154 101201 79957 77693.7 72493.7 66415.4 61761.2 50660.2 41668 40408.3 40291.3 37846.4 28019.7 27264.6 24523.1 23647.7 19483.9 17044.8
threshold=3697.825399208115 3971.4730744361864 3458.7468477279822 3874.0001124178848 4079.4041885134052 3782.5300000000007 3350.7361519551073 3580.4948182859657 3911.4315427359184 4162.4250000000011 3286.0327705818377 4026.5950000000007 3841.2126904457059 3403.0600000000009 3232.6000000000004 3755.1445234665134 3943.21105278196 4211.0883121631732 4123.4650000000011 3625.9990000000003 3996.7500000000005 4053.3553132200473 3512.1650000000004 3317.9511218068096 3818.5048645096372 3890.1724717312777 3387.2299077474713 3856.1278628746663 0.0040431145761366865 3720.3134905460442
decision_type=2 2 2 2 2 2 2 2 2 2 2 2 2 2 2 2 2 2 2 2 2 2 2 2 2 2 2 2 2 2
left_child=2 3 6 5 11 15 10 22 25 18 14 20 24 26 28 29 -10 -11 -6 -9 -3 -13 -4 -12 -7 -5 -8 -14 -1 -2
right_child=1 4 7 8 9 12 13 19 16 17 23 21 27 -15 -16 -17 -18 -19 -20 -21 -22 -23 -24 -25 -26 -27 -28 -29 -30 -31
leaf_value=-11.113580001609913 -1.9736654751542688 2.9197970369784203 -5.9733486014494481 1.0922446995573019 5.0509934110365684 -0.28302811830902547 -8.0656764665030707 -3.9443659545338088 1.979292820536886 6.4568304509805117 -9.2303804186840992 3.8859319102012728 0.52044564287827155 -6.9429320097975591 -10.040139088768123 -0.78459129351246704 2.4371816197175726 7.4012666716830431 5.7368377179634287 -3.0910820074248733 3.3817946132741463 4.467994841018526 -5.1263121891449392 -8.7258282703330661 0.19146892397620452 1.4367841621771218 -7.5424611751849842 0.79367411585969216 -12.685452801248303 -1.5006145293291879
leaf_weight=138 345 1161 379 1488 657 461 526 354 1982 643 715 587 1372 474 451 319 1533 262 656 342 842 606 223 774 957 935 390 1873 23 425
leaf_count=138 345 1161 379 1488 657 461 526 354 1982 643 715 587 1372 474 451 319 1533 262 656 342 842 606 223 774 957 935 390 1873 23 425
internal_value=-0.0151498 2.08787 -7.52613 0.967683 4.5066 0.118985 -8.64569 -4.51504 1.7898 5.93902 -9.37985 3.51252 0.483243 -7.53601 -10.3816 -1.44073 2.17899 6.73025 5.39365 -3.52508 3.11401 4.1816 -5.65958 -8.96811 0.0372072 1.2252 -7.84291 0.678152 -11.3381 -1.71257
internal_weight=21893 17104 4789 11690 5414 5752 3491 1298 5938 2218 2101 3196 4663 1390 612 1089 3515 905 1313 696 2003 1193 602 1489 1418 2423 916 3245 161 770
internal_count=21893 17104 4789 11690 5414 5752 3491 1298 5938 2218 2101 3196 4663 1390 612 1089 3515 905 1313 696 2003 1193 602 1489 1418 2423 916 3245 161 770
is_linear=0
shrinkage=0.05


Tree=21
num_leaves=31
num_cat=0
split_feature=46 45 42 45 46 46 46 21 46 42 45 46 46 45 46 46 42 46 46 42 45 46 46 46 45 46 60 46 78 26
split_gain=1.24845e+08 1.6872e+07 5.5407e+06 3.06719e+06 2.82505e+06 1.17795e+06 938218 581189 468709 386324 314762 300385 141753 89467.2 88264.3 57873.4 54245.4 53574.5 43873.5 41830.5 40751.8 38952.9 38879.8 36055.3 34556.7 22622.9 21449.8 20743.9 18523.7 32743.3
threshold=3673.9400000000005 3958.9000000000001 3445.0240000000008 4072.2650000000008 3838.3350000000005 3907.8500000000008 3350.0950000000007 3580.4948182859657 3774.7150000000006 4142.1940000000004 4014.2400000000002 3275.8000000000006 3873.1550000000002 4187.2150000000011 3394.1650000000004 3939.0350000000003 3306.4560000000001 3505.0550000000007 3232.6000000000004 4108.3200000000006 4049.4350000000004 3739.8500000000004 3624.0650000000005 3992.9700000000007 3808.1850000000004 3857.2550000000006 4232.3800000000001 3888.5000000000005 20.500000000000004 -5.5211930397953877
decision_type=2 2 2 2 2 2 2 2 2 2 2 2 2 2 2 2 2 2 2 2 2 2 2 2 2 2 2 2 2 2
left_child=2 4 6 10 8 12 11 17 21 19 23 18 25 -11 -8 -7 -13 -4 28 -5 -12 -2 -9 -3 -10 -6 -15 -14 -1 -30
right_child=1 3 7 9 5 15 14 22 24 13 20 16 27 26 -16 -17 -18 -19 -20 -21 -22 -23 -24 -25 -26 -27 -28 -29 29 -31
leaf_value=-10.406044457175517 -1.8021132062234786 2.6993516568947133 -5.8848998123455303 4.578487763932273 0.44945867727780081 1.7717245161060593 -7.6399725298814376 -3.8062341839172165 -0.42219531764703033 5.8594737733680233 3.6251410450299164 -8.9922679398220833 0.97616464755019627 6.5687316137728038 -6.8405013680458069 2.1828925435733422 -8.3957392762346981 -4.9922751457862606 -9.7247239829009438 5.1914190361114629 4.203030485836261 -1.1292022558857668 -3.0347939111441802 3.1192123691712879 0.098045663476774569 0.71606640035655644 7.3301367410799365 1.268799703551502 -13.136166572570801 -10.541265770696825
leaf_weight=110 614 1302 373 443 1469 1639 710 307 532 629 757 622 1480 373 672 1791 984 306 265 749 511 331 349 842 798 1736 123 1025 20 31
leaf_count=110 614 1302 373 443 1469 1639 710 307 532 629 757 622 1480 373 672 1791 984 306 265 749 511 331 349 842 798 1736 123 1025 20 31
internal_value=-0.0143923 1.97284 -7.18833 4.18693 0.861619 1.25405 -8.2563 -4.4572 -0.715003 5.59085 3.23356 -8.93987 0.814114 6.25542 -7.25123 1.98642 -8.62677 -5.48263 -10.1202 4.96363 3.85803 -1.56642 -3.39582 2.86424 -0.110051 0.593868 6.75755 1.09591 -10.7712 -11.5589
internal_weight=21893 17144 4749 5729 11415 9140 3414 1335 2275 2317 3412 2032 5710 1125 1382 3430 1606 679 426 1192 1268 945 656 2144 1330 3205 496 2505 161 51
internal_count=21893 17144 4749 5729 11415 9140 3414 1335 2275 2317 3412 2032 5710 1125 1382 3430 1606 679 426 1192 1268 945 656 2144 1330 3205 496 2505 161 51
is_linear=0
shrinkage=0.05


Tree=22
num_leaves=31
num_cat=0
split_feature=42 46 46 46 46 53 42 45 46 46 46 45 46 42 42 46 46 46 46 46 42 46 46 46 46 53 46 46 8 46
split_gain=1.12678e+08 1.50972e+07 5.27028e+06 3.01851e+06 2.14024e+06 1.22135e+06 960253 444246 298899 293230 284584 242244 146256 107526 92426.3 66831.2 64386.3 53438.8 41651.8 35483.8 32670.2 31430.8 30971.2 29358.8 26650.2 24644.6 22712.2 21003.1 17083.6 14363
threshold=3698.2680000000005 3984.3050000000007 3469.5000000000005 3885.8650000000002 4102.835 3808.5750000000003 3351.1720000000009 3575.9300000000003 3931.1250000000005 4037.6200000000003 3291.5600000000004 4170.1900000000014 3851.8000000000006 3755.5170000000003 3418.2220000000007 3957.8650000000002 3232.6000000000004 4138.9300000000012 3520.7300000000005 4009.4100000000003 3633.7340000000004 3325.1600000000003 3907.8500000000008 4068.9850000000001 3868.2100000000005 4224.7050000000008 3387.9150000000004 3832.6650000000004 -50.484999999999893 3720.5350000000003
decision_type=2 2 2 2 2 2 2 2 2 2 2 2 2 2 2 2 2 2 2 2 2 2 2 2 2 2 2 2 2 2
left_child=2 3 6 5 9 13 10 18 22 19 16 17 27 29 26 -10 28 -6 -4 -3 -9 -12 -5 -11 -14 -13 -8 -7 -1 -2
right_child=1 4 7 8 11 12 14 20 15 23 21 25 24 -15 -16 -17 -18 -19 -20 -21 -22 -23 -24 -25 -26 -27 -28 -29 -30 -31
leaf_value=-11.433949676513672 -1.8044676056275002 2.7926161360188178 -5.2535973049137636 1.1812382988668793 4.8363934857598672 -0.024626625167025674 -7.308705934773676 -3.4052632547820192 1.9507229218678697 3.7204194618595974 -8.3044581728796967 6.1665054027850816 0.60714761692987951 -0.59581623857199784 -6.190630417717828 2.425709601786497 -9.0675515441894543 5.45823890917229 -4.3480521569704882 3.2511908288538103 -2.6819545867360239 -7.8435718374405914 1.571866478096932 4.2173748395342008 0.87765912823594372 6.9298139064432052 -6.8247172158861922 0.32296533657837018 -10.011840730554917 -1.3643988120999326
leaf_weight=25 312 1122 437 1206 725 713 467 393 2217 576 807 442 1922 491 450 1112 450 660 179 676 259 683 876 614 1730 139 504 1113 136 457
leaf_count=25 312 1122 437 1206 725 713 467 393 2217 576 807 442 1922 491 450 1112 450 660 179 676 259 683 876 614 1730 139 504 1113 136 457
internal_value=-0.0136727 1.88464 -6.79172 0.936027 4.21098 0.22976 -7.78686 -4.02762 1.8155 3.36799 -8.46583 5.4922 0.552609 -1.17387 -6.78297 2.10938 -9.37456 5.13272 -4.99046 2.96503 -3.11794 -8.09319 1.34559 3.97683 0.735292 6.34912 -7.05749 0.187241 -10.2327 -1.54294
internal_weight=21893 17103 4790 12149 4954 6738 3522 1268 5411 2988 2101 1966 5478 1260 1421 3329 611 1385 616 1798 652 1490 2082 1190 3652 581 971 1826 161 769
internal_count=21893 17103 4790 12149 4954 6738 3522 1268 5411 2988 2101 1966 5478 1260 1421 3329 611 1385 616 1798 652 1490 2082 1190 3652 581 971 1826 161 769
is_linear=0
shrinkage=0.05


Tree=23
num_leaves=31
num_cat=0
split_feature=17 17 45 45 17 17 17 17 45 45 17 46 17 46 17 45 45 17 46 17 17 46 17 8 53 17 17 17 17 17
split_gain=1.01697e+08 1.39027e+07 4.23466e+06 2.52015e+06 2.43747e+06 1.02733e+06 607472 602508 328954 315772 260695 185221 105692 98861.1 82087.3 68014.8 58478.6 46929.5 39105.3 39096.1 34992 31295.7 29454 26465.6 23582 17115.4 16105.6 15174 14960.1 14417.1
threshold=3649.4906458810533 3961.1785281441466 3426.2000000000003 4072.2650000000008 3827.9531487671693 3894.6044422403243 3526.3698694033051 3327.5797688590424 3756.8100000000004 4142.1200000000008 4020.2798992079292 3261.4200000000005 3861.9050087965866 3364.0850000000005 3930.5456993745479 4196.2250000000013 3461.0350000000003 3591.0237474036608 3712.5750000000003 4115.8270647319623 3991.2040789999137 3301.5550000000007 4053.3553132200473 -50.484999999999893 3808.5750000000003 3878.3800086779152 3845.8186455330265 3944.0671158525251 4228.9886763764771 3389.8070148616521
decision_type=2 2 2 2 2 2 2 2 2 2 2 2 2 2 2 2 2 2 2 2 2 2 2 2 2 2 2 2 2 2
left_child=2 4 7 10 8 12 16 11 18 19 20 23 26 -9 -7 -11 -4 -8 -2 -5 -3 -13 -12 -1 -10 -14 -6 -16 -17 -15
right_child=1 3 6 9 5 14 17 13 24 15 22 21 25 29 27 28 -18 -19 -20 -21 -22 -23 -24 -25 -26 -27 -28 -29 -30 -31
leaf_value=-10.86225247192383 -2.0898088934119614 2.4396298384099193 -5.7765313362352781 4.2131820767131076 0.26801944099914848 1.4298898617182774 -3.9408892513660905 -7.3207425506421302 -0.52068876954865406 5.3588169572592861 3.2959874590866862 -8.3035861409727811 0.76692760050954822 -6.7499951358002752 1.7878736532622694 6.0164490797202284 -4.9140723640536095 -2.9969678038193774 -1.3353430135107804 4.7755249571837899 2.846603122545714 -7.7836204509469189 3.7971727382501905 -9.1713026948297145 -0.045264111605503095 1.0115679917526557 0.52528402306429067 2.0410207492949199 6.7453845214843753 -6.3482808417880658
leaf_weight=25 229 1387 330 604 948 1467 178 716 437 667 695 457 1721 414 1275 323 486 506 687 633 853 789 507 311 647 1223 1698 1105 90 485
leaf_count=25 229 1387 330 604 948 1467 178 716 437 667 695 457 1721 414 1275 323 486 506 687 633 853 789 507 311 647 1223 1698 1105 90 485
internal_value=-0.0129891 1.76803 -6.53339 3.77152 0.759184 1.09522 -4.34163 -7.56175 -0.826387 5.04635 2.91336 -8.25528 0.662441 -6.88239 1.72407 5.67104 -5.26286 -3.24261 -1.52396 4.50095 2.59461 -7.97433 3.50739 -9.29712 -0.236925 0.868556 0.433112 1.90541 6.1753 -6.53327
internal_weight=21893 17196 4697 5759 11437 9437 1500 3197 2000 2317 3442 1582 5590 1615 3847 1080 816 684 916 1237 2240 1246 1202 336 1084 2944 2646 2380 413 899
internal_count=21893 17196 4697 5759 11437 9437 1500 3197 2000 2317 3442 1582 5590 1615 3847 1080 816 684 916 1237 2240 1246 1202 336 1084 2944 2646 2380 413 899
is_linear=0
shrinkage=0.05


Tree=24
num_leaves=31
num_cat=0
split_feature=42 42 46 46 46 19 42 42 42 46 46 45 46 45 42 46 46 42 46 42 45 46 46 42 46 45 53 46 48 46
split_gain=9.17842e+07 1.23045e+07 4.29099e+06 2.56278e+06 1.64317e+06 1.01774e+06 784257 361811 233174 231455 214741 199099 137208 75798.6 75612.7 44354.2 44100.9 43538.6 43166.5 34474 33756.8 25647 25385.5 23675.9 23668.3 20368 20082.5 18212.7 14177.7 10597.1
threshold=3698.2680000000005 3983.6060000000007 3469.5000000000005 3888.5000000000005 4102.835 3799.6955188973384 3351.1720000000009 3573.5860000000007 3278.7340000000008 3937.1050000000005 4037.6200000000003 4170.1900000000014 3851.8000000000006 3748.6850000000004 3418.2220000000007 3232.6000000000004 3959.3350000000005 3908.7850000000003 4138.9300000000012 3625.9990000000003 3306.2100000000005 3869.3050000000007 3512.1650000000004 4008.9410000000003 4066.3350000000005 3826.3450000000007 4224.7050000000008 3387.9150000000004 0.0040431145761366865 3712.5750000000003
decision_type=2 2 2 2 2 2 2 2 2 2 2 2 2 2 2 2 2 2 2 2 2 2 2 2 2 2 2 2 2 2
left_child=2 3 6 5 10 13 8 22 15 17 23 18 25 29 27 28 -11 -5 -6 -9 -10 -14 -4 -3 -12 -7 -13 -8 -1 -2
right_child=1 4 7 9 11 12 14 19 20 16 24 26 21 -15 -16 -17 -18 -19 -20 -21 -22 -23 -24 -25 -26 -27 -28 -29 -30 -31
leaf_value=-9.057787240069846 -1.8087065311039199 2.5613406488763859 -4.8312080602536263 1.1060794569914612 4.3656094849685143 -0.044590298848198519 -6.5937326173966149 -3.2154346509660998 -7.6212292828897787 1.8242648531825445 3.328387410977252 5.5698555398311012 0.55311250923977473 -0.59557818273949747 -5.5847146716647682 -8.2505370009908443 2.2220135297108592 1.5249752286169185 4.9245005237694945 -2.5100896793621277 -7.1499433815857323 0.81208621890104404 -4.1515438894868426 2.9531856288754845 3.7797908869025663 0.29057447268377518 6.2589020626150456 -6.1603285327790278 -10.398644289763078 -1.3200263806751797
leaf_weight=138 136 1033 348 1171 725 761 467 350 635 1717 503 442 2009 466 450 359 1173 1319 660 343 946 1824 227 615 687 1121 139 504 23 602
leaf_count=138 136 1033 348 1171 725 761 467 350 635 1717 503 442 2009 466 450 359 1173 1319 660 343 946 1824 227 615 687 1121 139 504 23 602
internal_value=-0.0123396 1.70096 -6.12978 0.862787 3.84681 0.226343 -7.02772 -3.63567 -7.64132 1.68129 3.07716 4.95783 0.504681 -1.09483 -6.12048 -8.55978 1.9857 1.32798 4.63194 -2.86632 -7.33923 0.67635 -4.56289 2.70757 3.58899 0.155048 5.7347 -6.36877 -9.24934 -1.41008
internal_weight=21893 17103 4790 12299 4804 6919 3522 1268 2101 5380 2838 1966 5715 1204 1421 520 2890 2490 1385 693 1581 3833 575 1648 1190 1882 581 971 161 738
internal_count=21893 17103 4790 12299 4804 6919 3522 1268 2101 5380 2838 1966 5715 1204 1421 520 2890 2490 1385 693 1581 3833 575 1648 1190 1882 581 971 161 738
is_linear=0
shrinkage=0.05


Tree=25
num_leaves=31
num_cat=0
split_feature=17 17 45 17 17 17 53 17 17 17 45 45 17 17 17 17 45 17 17 17 17 17 8 17 17 17 17 17 17 17
split_gain=8.34876e+07 1.15923e+07 3.56391e+06 2.48512e+06 1.51723e+06 1.01215e+06 527158 493400 346652 194369 189115 127471 119259 117587 64497.2 53050.7 49899 40772.8 33546.1 26095.5 25900.6 22001.6 21649.3 21220.2 18988 18693.5 17005.8 14974.8 12380.5 11539.2
threshold=3649.4906458810533 3983.5553803160933 3426.2000000000003 3877.0238974578219 4099.9574099338342 3782.5974459226263 3547.6800000000007 3314.1748221053344 3926.4011342971148 4036.6799384392402 4170.1900000000014 3357.5750000000003 3238.5544356957516 3842.4898337186728 3955.1836752414679 3732.0898110348153 3461.0350000000003 4137.0130369215958 3591.0237474036608 3893.1300208914668 4008.8303754310941 3286.0327705818377 -60.745000000000339 3818.5048645096372 3860.5686321971339 4228.9886763764771 4067.2044269833636 3705.1397591655473 3496.4960681257066 3389.8070148616521
decision_type=2 2 2 2 2 2 2 2 2 2 2 2 2 2 2 2 2 2 2 2 2 2 2 2 2 2 2 2 2 2
left_child=2 3 7 5 9 15 16 12 19 20 17 -9 22 23 -10 27 -4 -6 -8 -5 -3 -14 -1 -7 -15 -12 -11 -2 -18 -13
right_child=1 4 6 8 10 13 18 11 14 26 25 29 21 24 -16 -17 28 -19 -20 -21 -22 -23 -24 -25 -26 -27 -28 -29 -30 -31
leaf_value=-10.158423957824708 -1.9344985600267905 2.4356854336503626 -5.2093995849521173 0.88974528791550156 4.1632032974801882 -0.22807914263016588 -3.534363852944344 -6.712274836878624 1.6537953706257227 3.2280582687047521 5.3445394178949686 -6.0956599699912903 -7.6848836078263423 0.44477226843633516 2.0871136250750708 -0.87066144475620755 -4.6952389582032295 4.6973189217703686 -2.704014575922931 1.2119839165947619 2.8289656510224215 -7.1871153433591335 -8.4462120771408085 0.16577794320054526 0.67452683538639235 6.1167812142320859 3.6205863365274391 -1.3916934654519366 -4.1969142977871119 -5.7354218476896834
leaf_weight=20 178 1035 346 1292 792 511 157 1085 2493 508 498 421 351 1841 1310 543 233 651 540 1223 703 604 240 1034 1758 93 604 444 268 471
leaf_count=20 178 1035 346 1292 792 511 157 1085 2493 508 498 421 351 1841 1310 543 233 651 540 1223 703 604 240 1034 1758 93 604 444 268 471
internal_value=0.00808824 1.60101 -5.88164 0.800929 3.66954 0.0989837 -3.90951 -6.83557 1.50187 2.92505 4.71271 -6.34824 -7.62854 0.400371 1.80306 -1.23178 -4.7476 4.40417 -2.89105 1.04644 2.59476 -7.37006 -8.57792 0.0355119 0.557 5.46606 3.44127 -1.54703 -4.42867 -5.90544
internal_weight=22247 17511 4736 12627 4884 6309 1544 3192 6318 2850 2034 1977 1215 5144 3803 1165 847 1443 697 2515 1738 955 260 1545 3599 591 1112 622 501 892
internal_count=22247 17511 4736 12627 4884 6309 1544 3192 6318 2850 2034 1977 1215 5144 3803 1165 847 1443 697 2515 1738 955 260 1545 3599 591 1112 622 501 892
is_linear=0
shrinkage=0.05


Tree=26
num_leaves=31
num_cat=0
split_feature=17 17 17 17 17 17 17 42 17 17 17 17 17 17 17 45 17 60 17 17 8 17 17 46 17 45 17 17 46 46
split_gain=7.53494e+07 1.02889e+07 3.585e+06 2.13666e+06 1.3699e+06 882612 634912 329940 186258 173335 166336 154741 103538 89081.1 77275.7 43787.8 41343.8 28933.5 27957.5 26182.5 25733.3 25083.3 23226.7 21482.9 19480.2 19043.7 17399.5 15320.6 14294.9 13699.4
threshold=3697.825399208115 3983.5553803160933 3458.7468477279822 3887.5862136362734 4094.4902992704906 3803.4287279373807 3337.3201843630513 3573.5860000000007 4171.3870225100081 3939.1971659090918 3269.3112905865664 4029.8288578138013 3855.3261906837329 3389.8070148616521 3755.1445234665134 4124.1600000000008 3911.4315427359184 3220.4800000000005 3633.7458649883515 3959.1744611848094 -23.705000000000151 3303.1268049824748 3506.2538746384248 3840.3400000000006 4063.7983732032139 4215.3650000000007 3426.6804855603364 4001.4917526053323 3875.4750000000004 3364.0850000000005
decision_type=2 2 2 2 2 2 2 2 2 2 2 2 2 2 2 2 2 2 2 2 2 2 2 2 2 2 2 2 2 2
left_child=2 3 6 5 11 14 10 22 15 16 17 27 23 29 -2 -6 -5 20 -9 -11 -1 -12 -4 -7 -13 -10 -15 -3 -14 -8
right_child=1 4 7 9 8 12 13 18 25 19 21 24 28 26 -16 -17 -18 -19 -20 -21 -22 -23 -24 -25 -26 -27 -28 -29 -30 -31
leaf_value=-10.118429149280896 -1.255055611333501 2.280530076673382 -4.4178354971901665 1.0312100714545245 3.8401414924904156 0.061794447420484858 -6.1863462583753801 -2.8205908043389933 4.994264426927888 1.700242434900388 -7.0106011604472673 2.976489615715316 0.57773551252082089 -5.4666342683271933 -0.47902935443988154 4.3824217371193761 1.4221553229699166 -7.6333642798332013 -2.1758547895508942 2.0257851897022405 -8.1676557567021622 -6.5722549374685642 -3.7919681043964135 0.35976407649250935 3.3785723973277424 5.6086701306429774 -4.99040143293493 2.5965854166556097 0.78829950628099787 -5.7900205643746308
leaf_weight=22 799 863 358 1131 675 1016 450 443 445 1502 513 607 1956 440 536 830 1682 343 271 1049 73 897 253 1495 598 176 340 690 1371 423
leaf_count=22 799 863 358 1131 675 1016 450 443 445 1502 513 607 1956 440 536 830 1682 343 271 1049 73 897 253 1495 598 176 340 690 1371 423
internal_value=0.00768384 1.53923 -5.52094 0.780814 3.48606 0.216352 -6.35931 -3.30576 4.43983 1.53564 -6.99613 2.75085 0.481576 -5.64736 -0.943483 4.13921 1.26497 -7.84723 -2.57588 1.83411 -8.61941 -6.73174 -4.15868 0.2392 3.17603 5.1684 -5.25905 2.42095 0.664505 -5.99431
internal_weight=22247 17421 4826 12537 4884 7173 3501 1325 2126 5364 1848 2758 5838 1653 1335 1505 2813 438 714 2551 95 1410 611 2511 1205 621 780 1553 3327 873
internal_count=22247 17421 4826 12537 4884 7173 3501 1325 2126 5364 1848 2758 5838 1653 1335 1505 2813 438 714 2551 95 1410 611 2511 1205 621 780 1553 3327 873
is_linear=0
shrinkage=0.05


Tree=27
num_leaves=31
num_cat=0
split_feature=45 42 45 46 45 46 45 53 46 46 46 46 46 46 46 45 45 46 46 46 46 46 8 46 45 46 46 46 46 53
split_gain=6.8002e+07 9.51686e+06 2.75814e+06 1.7951e+06 1.63829e+06 803922 405361 395732 202881 177883 166549 131260 87953.8 64047.1 60284.9 40674.7 35919.4 33019.3 30369 27099.8 25046.7 23983.4 18387 18059.9 17783.5 17542.6 13081.9 11015.4 10741.1 10026.7
threshold=3641.5150000000008 3965.7490000000003 3426.2000000000003 3824.8400000000006 4076.0250000000001 3897.5650000000005 3324.5950000000007 3547.6800000000007 4162.4250000000011 4026.5950000000007 3756.6450000000004 3243.6150000000002 3865.3100000000009 3936.0850000000005 3364.0850000000005 3461.0350000000003 4202.0700000000006 4123.4650000000011 3301.5550000000007 3712.5750000000003 3996.7500000000005 3599.4700000000007 -60.745000000000339 3783.8750000000005 4049.4350000000004 3848.4200000000005 3920.3150000000005 3951.6100000000001 3878.5950000000007 3504.6200000000003
decision_type=2 2 2 2 2 2 2 2 2 2 2 2 2 2 2 2 2 2 2 2 2 2 2 2 2 2 2 2 2 2
left_child=2 3 6 10 9 12 11 15 17 20 19 22 25 26 -8 -4 -10 -6 -13 -2 -3 -9 -1 -12 -11 -5 -7 -15 -14 -17
right_child=1 4 7 5 8 13 14 21 16 24 23 18 28 27 -16 29 -18 -19 -20 -21 -22 -23 -24 -25 -26 -27 -28 -29 -30 -31
leaf_value=-9.2067079925537119 -1.7354217045316092 2.0156060439110521 -4.702470909515557 0.18739753359434178 3.5196305358619022 1.0541637298411692 -5.9526225744291796 -3.1144768401903988 4.4847387143426749 2.7195885686970076 -0.67671231593404502 -6.8267131220791999 0.62075968839496465 1.5126514331309382 -5.3300147660359976 -4.2384468851418333 5.1303866704305019 4.0089758978644729 -6.3394016122529004 -1.1340690629117807 2.3633936183773123 -2.4530077139881326 -7.6295124744682159 -0.19052919474571398 3.1064993573851507 0.43131813551116516 1.3239527205834511 1.7355695901035384 0.81292878105912525 -3.7898582316685792
leaf_weight=20 267 1329 346 1221 684 786 688 195 582 598 280 522 1437 1336 894 232 342 695 825 628 848 461 243 601 590 1860 1049 947 1472 269
leaf_count=20 267 1329 346 1221 684 786 688 195 582 598 280 522 1437 1336 894 232 342 695 825 628 848 461 243 601 590 1860 1049 947 1472 269
internal_value=0.00729964 1.43702 -5.33761 0.632958 3.12287 0.890543 -6.1692 -3.57153 4.1504 2.41963 -0.833075 -6.72774 0.520823 1.42834 -5.60078 -4.28553 4.72371 3.76625 -6.52825 -1.31347 2.15108 -2.64963 -7.74945 -0.345048 2.91174 0.334652 1.20839 1.60512 0.718 -3.99759
internal_weight=22247 17552 4695 11884 5668 10108 3192 1503 2303 3365 1776 1610 5990 4118 1582 847 924 1379 1347 895 2177 656 263 881 1188 3081 1835 2283 2909 501
internal_count=22247 17552 4695 11884 5668 10108 3192 1503 2303 3365 1776 1610 5990 4118 1582 847 924 1379 1347 895 2177 656 263 881 1188 3081 1835 2283 2909 501
is_linear=0
shrinkage=0.05


Tree=28
num_leaves=31
num_cat=0
split_feature=42 42 45 45 45 45 42 49 42 45 45 53 42 45 45 53 45 45 42 42 45 24 50 42 42 45 42 42 45 42
split_gain=6.13746e+07 8.3725e+06 2.92374e+06 1.73798e+06 1.11891e+06 713012 441030 354799 148850 143043 139288 137748 93505.7 53585.7 48173.8 33905.2 31834.3 31127.9 26924.6 25432.2 23637.3 20148.6 24791.8 18763.1 16451.9 15106.6 14972.1 12614.6 9074.43 8960.07
threshold=3698.2680000000005 3983.6060000000007 3435.7250000000008 3883.8050000000007 4096.8150000000014 3790.1900000000005 3337.5700000000002 3576.3465000000006 3936.4510000000005 4170.1900000000014 4030.3100000000009 3268.9000000000001 3847.8420000000006 3385.4550000000004 3739.4200000000005 3504.6200000000003 4127.795000000001 3912.0450000000005 3957.8360000000007 3300.3530000000005 3626.1950000000002 0.00020145423528725249 16.688510169241869 3862.8000000000002 4005.4980000000005 4227.4100000000008 4067.1260000000007 3821.7520000000009 3419.3250000000003 3355.8490000000006
decision_type=2 2 2 2 2 2 2 2 2 2 2 2 2 2 2 2 2 2 2 2 2 2 2 2 2 2 2 2 2 2
left_child=2 3 6 5 10 14 11 15 17 16 24 21 27 29 -2 -4 -6 -5 -10 -13 -9 22 -1 -14 -3 -11 -12 -7 -15 -8
right_child=1 4 7 8 9 12 13 20 18 25 26 19 23 28 -16 -17 -18 -19 -20 -21 -22 -23 -24 -25 -26 -27 -28 -29 -30 -31
leaf_value=-7.2720897899974482 -1.1875690425040097 2.0697399936475249 -4.1849496966730939 0.93464378303667928 3.5221134410022135 -0.11144378802677422 -5.6280817424229213 -2.58156004600621 1.5028924615247115 4.588133243508123 2.7409327725368722 -6.3885878076666431 0.42504383116425154 -4.976642092536478 -0.55780405502664776 -3.5105553920667543 3.9895170071146624 1.2786809754389665 1.8180394091891909 -5.9523155255089701 -2.0035511429407005 -6.6429138581649116 -8.9047399374154903 0.64378426151088086 2.3886720340360297 5.3120759055728008 3.0979174070637323 0.19627261214815883 -4.602087738934685 -5.2926927690382133
leaf_weight=220 678 950 411 1307 689 438 350 397 1665 507 594 506 1670 442 550 341 773 1323 1143 983 319 115 26 2374 704 84 581 1390 255 462
leaf_count=220 678 950 411 1307 689 438 350 397 1665 507 594 506 1670 442 550 341 773 1323 1143 983 319 115 26 2374 704 84 581 1390 255 462
internal_value=0.00693466 1.38936 -4.98207 0.705361 3.14603 0.19017 -5.79557 -3.12066 1.37801 4.0346 2.5012 -6.31301 0.419307 -5.16121 -0.905508 -3.87914 3.76924 1.10771 1.63117 -6.10057 -2.32404 -7.18925 -7.44465 0.553454 2.20549 4.69103 2.91745 0.122542 -4.83961 -5.43726
internal_weight=22247 17420 4827 12538 4882 7100 3359 1468 5438 2053 2829 1850 5872 1509 1228 752 1462 2630 2808 1489 716 361 246 4044 1654 591 1175 1828 697 812
internal_count=22247 17420 4827 12538 4882 7100 3359 1468 5438 2053 2829 1850 5872 1509 1228 752 1462 2630 2808 1489 716 361 246 4044 1654 591 1175 1828 697 812
is_linear=0
shrinkage=0.05


Tree=29
num_leaves=31
num_cat=0
split_feature=17 17 17 17 17 46 45 53 17 17 17 46 17 42 17 45 17 45 17 17 17 17 17 78 26 17 17 17 47 20
split_gain=5.53973e+07 7.698e+06 2.36488e+06 1.54872e+06 1.11717e+06 642867 350594 326601 244209 138963 135978 107294 72720.8 55248.9 35560.5 33333.2 29487.7 27045.8 25350.7 23089.1 19675 19309.3 17958.4 15190.8 28174.9 13536.7 12900.8 11025.3 9045.59 8969.35
threshold=3649.4906458810533 3979.8200103428194 3432.3255477214075 3874.0001124178848 4094.4902992704906 3783.8750000000005 3324.5950000000007 3547.6800000000007 3924.1723840054151 4167.7563151687382 4026.6347182116106 3243.6150000000002 3839.6681399721792 3377.7340000000008 3949.2316918824413 3720.0550000000007 3490.2874337273383 4124.1600000000008 3292.6973828960831 3591.0237474036608 3893.1300208914668 4211.0883121631732 4059.4547066982836 20.500000000000004 -5.8631399940079456 3994.8247138442371 3818.5048645096372 3857.5785747248942 0.37499999998427241 0.00074081287234575627
decision_type=2 2 2 2 2 2 2 2 2 2 2 2 2 2 2 2 2 2 2 2 2 2 2 2 2 2 2 2 2 2
left_child=2 3 6 5 10 15 11 16 20 17 25 23 26 -8 -10 -2 -4 -6 28 -9 -5 -11 -12 -1 -25 -3 -7 -14 -13 -20
right_child=1 4 7 8 9 12 13 19 14 21 22 18 27 -15 -16 -17 -18 -19 29 -21 -22 -23 -24 24 -26 -27 -28 -29 -30 -31
leaf_value=-6.7968753481374211 -1.3292312005717672 1.8808368822236057 -4.1097617986250894 0.70458845897655975 3.2921457528008355 -0.19390798144603519 -5.3152256769459258 -2.8883508238822793 1.3074207292513902 4.1721294446622945 2.5003326931093408 -6.444145418802897 0.33214609306789783 -4.7331149162745811 1.6258006390704904 -0.78312370940456244 -3.4980094223879696 3.7297994224445241 -5.8534357386750067 -2.1994707987043594 0.97482412460597723 4.7078884851364862 2.8729320412292925 -9.1212896173650559 -6.8378293609619138 2.1613907586533649 0.11699729549486222 0.51188417710385137 -5.9853682656721645 -5.5204224963520856
leaf_weight=206 499 869 441 1642 675 542 841 157 2136 438 611 210 1664 791 1488 635 356 740 616 540 1142 273 687 22 35 851 868 1751 220 301
leaf_count=206 499 869 441 1642 675 542 841 157 2136 438 611 210 1664 791 1488 635 356 740 616 540 1142 273 687 22 35 851 868 1751 220 301
internal_value=0.00658793 1.30415 -4.79106 0.628035 2.92965 0.0478077 -5.54953 -3.14517 1.16761 3.80757 2.3112 -6.07302 0.299576 -5.03309 1.43815 -1.02343 -3.83651 3.52102 -5.89266 -2.35464 0.815439 4.37784 2.69754 -6.99676 -7.71916 2.01965 -0.00251381 0.424305 -6.20942 -5.74413
internal_weight=22247 17511 4736 12367 5144 5959 3242 1494 6408 2126 3018 1610 4825 1632 3624 1134 797 1415 1347 697 2784 711 1298 263 57 1720 1410 3415 430 917
internal_count=22247 17511 4736 12367 5144 5959 3242 1494 6408 2126 3018 1610 4825 1632 3624 1134 797 1415 1347 697 2784 711 1298 263 57 1720 1410 3415 430 917
is_linear=0
shrinkage=0.05


Tree=30
num_leaves=31
num_cat=0
split_feature=42 17 46 17 17 45 17 46 45 17 46 17 17 17 17 46 46 17 8 17 46 17 18 46 46 42 17 17 17 18
split_gain=4.97336e+07 6.71762e+06 2.34376e+06 1.28629e+06 1.01757e+06 520212 442112 193753 178667 133056 119611 115787 65807.5 62090.3 32569.2 29932.4 27020.4 22057.4 20298.8 19720.9 17311 15609.5 14464.6 12782.3 11818.1 11387.9 11038.3 10506.1 8616.34 8483.19
threshold=3698.2680000000005 3978.6274972970778 3469.5000000000005 3877.0238974578219 4094.4902992704906 3782.5300000000007 3337.3201843630513 3588.3650000000002 3915.7350000000006 4029.8288578138013 4178.1200000000017 3255.0902282494303 3843.8379658051413 3389.8070148616521 3947.5035504121929 4134.4150000000009 3739.8500000000004 3306.2188809814047 -60.745000000000339 3512.4982585778139 3642.3250000000003 3999.4036961641946 0.00039972883101141741 4062.6300000000006 3424.1150000000002 4228.9130000000014 3818.5048645096372 3860.5686321971339 3355.8113945053633 0.00015141080758448644
decision_type=2 2 2 2 2 2 2 2 2 2 2 2 2 2 2 2 2 2 2 2 2 2 2 2 2 2 2 2 2 2
left_child=2 3 6 5 9 16 11 19 22 21 15 18 26 28 -10 -6 -2 29 -1 -4 -9 -3 -5 -11 -15 -12 -7 -14 -8 -13
right_child=1 4 7 8 10 12 13 20 14 23 25 17 27 24 -16 -17 -18 -19 -20 -21 -22 -23 -24 -25 -26 -27 -28 -29 -30 -31
leaf_value=-8.0738578796386715 -1.11263067421287 1.8025550961388861 -3.5170129131562642 0.71401237060465317 3.1525506372567302 -0.1572648713774385 -5.07008630645662 -2.2583533670614053 1.2214382888538458 2.409359655186341 4.1383793935087541 -5.8665955051066598 0.34600946017506301 -4.4706798644292922 1.5257809013611563 3.6003108212788906 -0.61828101827768434 -5.3291081242621701 -6.432523969956387 -2.9187390039982408 -1.7147772912625916 2.0927506147146833 1.028376744415449 2.735564357051143 -4.0884734677720349 4.7754753391917157 0.13069558014722515 0.51926579836766606 -4.7483614941032561 -5.5178644125101268
leaf_weight=20 594 1129 404 1789 743 470 339 455 2165 541 485 397 1745 378 1480 750 517 790 324 209 216 786 460 675 435 82 1140 1755 539 311
leaf_count=20 594 1129 404 1789 743 470 339 455 2165 541 485 397 1745 378 1480 750 517 790 324 209 216 786 460 675 435 82 1140 1755 539 311
internal_value=-0.00642838 1.2443 -4.49991 0.599473 2.74923 0.0979943 -5.1648 -2.67043 1.12877 2.1814 3.61227 -5.70071 0.311189 -4.58103 1.34501 3.37748 -0.882587 -5.51074 -6.52795 -3.31303 -2.08337 1.92166 0.778311 2.59044 -4.26618 4.23052 0.0466326 0.432885 -4.87258 -5.71341
internal_weight=22123 17306 4817 12115 5191 6221 3533 1284 5894 3131 2060 1842 5110 1691 3645 1493 1111 1498 344 613 671 1915 2249 1216 813 567 1610 3500 878 708
internal_count=22123 17306 4817 12115 5191 6221 3533 1284 5894 3131 2060 1842 5110 1691 3645 1493 1111 1498 344 613 671 1915 2249 1216 813 567 1610 3500 878 708
is_linear=0
shrinkage=0.05


Tree=31
num_leaves=31
num_cat=0
split_feature=17 17 42 17 17 17 45 17 21 17 17 17 17 17 17 17 17 17 45 8 17 17 17 17 45 45 18 30 18 18
split_gain=4.48849e+07 6.06336e+06 2.11754e+06 1.08783e+06 1.00987e+06 387831 387301 224701 186269 154688 104498 97988.3 52960 43107.9 29833.4 23027 20067.1 19906.8 18879.1 18319.7 17268 15593.9 14809.3 13569.4 12284.7 9778.17 9620.48 7725.69 7713.03 7194.13
threshold=3697.825399208115 3962.7720991192023 3458.962 4072.1126630839967 3864.2814547740832 3337.3201843630513 3777.0300000000002 3908.2186152652507 3580.4948182859657 4148.0790486452215 3255.0902282494303 4020.2798992079292 3387.2299077474713 3831.4184626156562 4204.0946259330367 4115.8270647319623 3939.1971659090918 3306.2188809814047 3614.1000000000004 -60.745000000000339 3732.0898110348153 3512.4982585778139 3991.2040789999137 3887.5862136362734 3419.3250000000003 4038.3850000000007 -0.00012265781530895821 66.08800430461028 -0.00044337688578866046 0.00027950202280029138
decision_type=2 2 2 2 2 2 2 2 2 2 2 2 2 2 2 2 2 2 2 2 2 2 2 2 2 2 2 2 2 2
left_child=2 4 5 11 6 10 20 23 21 15 19 22 -7 29 -11 -5 -9 28 -10 -1 -2 -4 -3 -6 -14 -13 -15 -21 -12 -8
right_child=1 3 8 9 7 12 13 16 18 14 17 25 24 26 -16 -17 -18 -19 -20 27 -22 -23 -24 -25 -26 -27 -28 -29 -30 -31
leaf_value=-7.6701648139953624 -1.0771995409771249 1.6246260888571009 -3.3666088709124815 2.773574270698338 0.56155174589412071 -4.6604396499750269 -0.14941782409859269 1.0919187442974525 -2.3046113458651942 3.5963753384213115 -5.6443692222008339 2.1475374465722306 -4.2674245581375931 0.19772848195830189 4.1655545570946844 3.183413761924295 1.334780985340386 -5.0626527061945277 -1.7840023670578959 -6.1859907253368487 -0.66660384458682875 -2.8048372268676758 1.8902900082259455 0.78087081977730843 -3.8918529021799269 2.4433126550636546 0.38765551686462235 -5.3170579092843191 -5.3020167963845388 0.12344990721788288
leaf_weight=20 540 1301 432 691 2256 786 722 1751 309 688 260 520 475 1097 346 680 1654 790 399 296 487 173 879 1026 402 604 1700 28 448 363
leaf_count=20 540 1301 432 691 2256 786 722 1751 309 688 260 520 475 1097 346 680 1654 790 399 296 487 173 879 1026 402 604 1700 28 448 363
internal_value=-0.00610695 1.18225 -4.27436 2.51612 0.525547 -4.91593 -0.0190403 0.925334 -2.56173 3.32509 -5.41567 1.92727 -4.36239 0.209391 3.78684 2.97685 1.20989 -5.2352 -2.01122 -6.20155 -0.882496 -3.20597 1.73174 0.630114 -4.09527 2.30648 0.313165 -6.1109 -5.42774 -0.0581266
internal_weight=22123 17305 4818 5709 11596 3505 4909 6687 1313 2405 1842 3304 1663 3882 1034 1371 3405 1498 708 344 1027 605 2180 3282 877 1124 2797 324 708 1085
internal_count=22123 17305 4818 5709 11596 3505 4909 6687 1313 2405 1842 3304 1663 3882 1034 1371 3405 1498 708 344 1027 605 2180 3282 877 1124 2797 324 708 1085
is_linear=0
shrinkage=0.05


Tree=32
num_leaves=31
num_cat=0
split_feature=46 42 45 46 46 46 46 46 46 46 46 42 46 46 46 60 46 46 46 46 46 48 46 46 18 18 18 45 18 44
split_gain=4.05156e+07 5.61967e+06 1.63276e+06 1.03037e+06 1.02596e+06 443947 253046 233104 151104 89596 85533.5 85230.1 55558 31518.4 30532.8 28264.7 22435.8 22190.5 20636.8 18902.8 16095.4 15063 12016 11108.7 10576.4 10123.5 9906.9 8943.38 8489.74 7163.42
threshold=3647.6800000000007 3959.1770000000006 3426.2000000000003 4071.9950000000003 3821.2800000000002 3897.5650000000005 3333.9700000000007 3520.7300000000005 4149.2150000000011 3756.6450000000004 3243.6150000000002 4008.9410000000003 3860.4500000000003 3932.5950000000007 3374.8550000000005 4206.2000000000016 3599.4700000000007 4117.8300000000008 3291.5600000000004 3469.5000000000005 3712.5750000000003 0.0040431145761366865 4040.98 3876.9150000000004 0.0001720916190165591 -0.00034441838537112762 -0.00046219182917308152 3777.0300000000002 -0.00020100257961700978 0.19745618952947358
decision_type=2 2 2 2 2 2 2 2 2 2 2 2 2 2 2 2 2 2 2 2 2 2 2 2 2 2 2 2 2 2
left_child=2 4 6 11 9 12 10 19 17 20 21 24 25 28 -8 -10 29 -5 -12 -4 -2 -1 -13 -14 -3 -6 -20 -11 -7 -9
right_child=1 3 7 8 5 13 14 16 15 27 18 22 23 -15 -16 -17 -18 -19 26 -21 -22 -23 -24 -25 -26 -27 -28 -29 -30 -31
leaf_value=-5.9052319777639291 -1.3375666651412519 1.5127385993572284 -3.64905624333218 2.6117119548476744 0.044061766225015481 0.72149880043915571 -4.539952537982848 -2.717874450424091 3.3840972005870089 -0.52929509526835039 -5.3720571442083882 1.9737324010596677 0.43881973149992154 1.1974567932508495 -4.0891270744785837 3.9133340938418524 -1.9062310428409788 3.0085621353378871 -5.1475321090053505 -3.1516023355627389 -0.87728199455194977 -7.1754799329317542 2.2782231057939835 0.61670963660581046 1.7460102026803153 0.27401412685230636 -4.8250792550777213 -0.17182409976817947 0.98213200322921146 -2.1948119236251058
leaf_weight=228 274 1317 338 749 638 453 701 147 661 260 352 703 1857 2334 809 408 455 665 355 439 619 26 601 1664 770 1916 724 535 1007 118
leaf_count=228 274 1317 338 749 638 453 701 147 661 260 352 703 1857 2334 809 408 455 665 355 439 619 26 601 1664 770 1916 724 535 1007 118
internal_value=-0.0058016 1.10434 -4.13002 2.36361 0.464295 0.659127 -4.76847 -2.76739 3.13749 -0.674807 -5.1897 1.79695 0.39411 1.08348 -4.29842 3.58609 -2.11924 2.79835 -5.03962 -3.368 -1.01851 -6.03526 2.11407 0.522889 1.5988 0.216571 -4.93117 -0.288733 0.901264 -2.48496
internal_weight=22123 17431 4692 5874 11557 9869 3195 1497 2483 1688 1685 3391 6075 3794 1510 1069 720 1414 1431 777 893 254 1304 3521 2087 2554 1079 795 1460 265
internal_count=22123 17431 4692 5874 11557 9869 3195 1497 2483 1688 1685 3391 6075 3794 1510 1069 720 1414 1431 777 893 254 1304 3521 2087 2554 1079 795 1460 265
is_linear=0
shrinkage=0.05


Tree=33
num_leaves=31
num_cat=0
split_feature=46 42 45 46 46 46 46 46 42 45 46 46 46 46 46 46 46 46 46 45 46 46 48 46 46 18 45 18 18 20
split_gain=3.65654e+07 5.07175e+06 1.47357e+06 930481 925926 400662 229010 210377 109148 107773 80860.4 66231.8 50515.4 43264.6 28445.4 20402 20248.3 17059.8 16625.3 16463.6 14526.1 13662.5 13594.4 12463.9 9666.4 8088.08 8071.4 7669.81 7313.3 7108.38
threshold=3647.6800000000007 3959.1770000000006 3426.2000000000003 4082.5100000000007 3821.2800000000002 3897.5650000000005 3325.1600000000003 3520.7300000000005 4023.3680000000004 4158.8000000000011 3756.6450000000004 3243.6150000000002 3857.2550000000006 3364.0850000000005 3932.5950000000007 4123.4650000000011 3599.4700000000007 3469.5000000000005 3991.1000000000008 4209.6050000000005 3712.5750000000003 3291.5600000000004 0.0040431145761366865 3875.4750000000004 4050.2200000000007 -0.00017796991085262148 3777.0300000000002 -0.00021986290842977764 -0.00020684046963526573 0.0021123275810283554
decision_type=2 2 2 2 2 2 2 2 2 2 2 2 2 2 2 2 2 2 2 2 2 2 2 2 2 2 2 2 2 2
left_child=2 4 6 8 10 12 11 17 18 15 20 22 25 -8 27 -5 -9 -4 -3 -11 -2 -13 -1 -14 -10 -6 -12 -7 -23 -20
right_child=1 3 7 9 5 14 13 16 24 19 26 21 23 -15 -16 -17 -18 -19 29 -21 -22 28 -24 -25 -26 -27 -28 -29 -30 -31
leaf_value=-5.6099704273960045 -1.2706883372616593 1.4381640884248452 -3.4666034365546774 2.5833839874153881 0.054742771060429088 0.68028593564855644 -4.4021938174378645 -2.3607154214607098 1.9802804025798413 3.358199985312424 -0.50283034444500052 -5.1034542961554097 0.39780487769618778 -3.907555876814341 1.1375839510991621 2.9631233516223929 -1.8109194803761914 -2.9940222164492947 1.6746970528986918 3.8488232043544941 -0.83341789958165036 -4.905817168572046 -6.816705718407265 0.57734092994025377 2.2658527000968181 0.2546887226125974 -0.16323289531291785 0.93085776510471252 -4.6034696804320268 2.3161698150634766
leaf_weight=228 274 1314 338 671 789 435 867 265 527 577 260 352 2038 902 2334 748 455 439 1072 243 619 346 26 1839 677 1409 535 1025 474 45
leaf_count=228 274 1314 338 671 789 435 867 265 527 577 260 352 2038 902 2334 748 455 439 1072 243 619 346 26 1839 677 1409 535 1025 474 45
